0.132746949792
-0.00556293129921
-0.0650015473366
0.0352571234107
-0.014643650502
-0.0471489392221
0.0110795181245
0.0323723591864
0.00733435992151
-0.0804155319929
-0.0132342409343
-0.0678520873189
-0.0442829243839
0.00743946386501
-0.103868246078
-0.0169054605067
0.0587483607233
0.0459278710186
-0.056576166302
0.000249382952461
0.0566506721079
-0.0180970672518
0.0733195319772
-0.039005856961
0.160514578223
-0.0508367195725
0.0337130241096
-0.0203929170966
0.134818166494
-0.0267639588565
0.010841358453
0.0351475179195
0.0431468710303
-0.0336312428117
-0.107870854437
-0.159008294344
0.0242247860879
-0.112745583057
-0.0444431081414
0.102309346199
-0.0830094367266
0.02090629749
-0.00883720163256
-7.59159811423e-05
-0.00155449728481
-0.0420312955976
0.0557730905712
-0.0367504283786
-0.104386746883
0.104781799018
-0.01896610111
-0.0764204114676
0.0710725784302
0.00849370192736
0.0338154137135
-0.0726000443101
-0.0240873154253
-0.0614118389785
0.110285915434
-0.0609167292714
-0.00299391965382
0.0313963927329
0.0524191968143
-0.0366765111685
0.0562492348254
0.0157304462045
0.0103576118127
-0.0402802191675
0.0232189502567
0.0373027063906
-0.0653368681669
0.00223927083425
-0.0799172148108
0.0299070905894
0.0172248687595
-0.00587901892141
0.0944414809346
0.0119931027293
0.124221049249
-0.0471989326179
-0.0862759128213
-0.000476969755255
-0.0639413893223
-0.0962504222989
-0.0086676850915
0.0540579222143
0.0186504144222
-0.0426857471466
-0.0141435302794
-0.0652446001768
-0.0628337785602
0.0414243787527
0.0282006449997
-0.0191334467381
-0.0565277263522
-0.110145360231
-0.0633556693792
-0.0620897300541
-0.0977998450398
0.0501727573574
-0.0867587998509
-0.0957864969969
-0.0300224013627
-0.00281206914224
0.0272035840899
0.100488968194
-0.0820693224669
0.0643994435668
0.00757130840793
0.00937010813504
-0.0298230182379
-0.0477991625667
-0.0609333850443
-0.0451933592558
-0.0869773700833
0.0197064317763
0.0540434382856
-0.00383906392381
-0.090069167316
-0.101308278739
-0.0656919330359
0.0560474693775
-0.00962239783257
0.0202505290508
0.0660427808762
-0.0905260890722
-0.00855125952512
0.0409720018506
-0.0643374621868
0.0635790675879
0.00229876604863
0.0347210466862
0.0983447805047
-0.0884263291955
0.118254683912
0.0536404028535
-0.0772761702538
-0.0685451850295
-0.0356073379517
0.0256938952953
0.101377688348
-0.0766687765718
-0.0325966775417
0.0458017662168
0.000770820421167
-0.0952023342252
-0.037884671241
0.0597955100238
0.0227420888841
-0.0327561609447
0.00621701497585
0.0809944793582
0.0649218410254
0.096613407135
-0.10612449795
-0.0673203021288
-0.0724699422717
0.0503869615495
-0.0087209334597
-0.019913809374
-0.0737740546465
-0.0542247183621
0.0625789985061
-0.0794178023934
-0.0576660260558
0.0526608042419
0.092446371913
0.0715467184782
-0.0413859039545
-0.0572386197746
0.0650155842304
-0.0645096451044
-0.0281901098788
0.0607083253562
0.0205348022282
-0.00134364154655
-0.0021817269735
0.0370684862137
0.0580807439983
-0.150404691696
-0.0309545006603
-0.0475879609585
-0.0455782003701
0.0739519074559
0.0210629943758
-0.0447852648795
-0.0489659942687
0.104678891599
0.0133297434077
-0.0893387645483
0.118123941123
0.0883202180266
0.0920939296484
-0.0409648045897
0.0265070050955
-0.0540555045009
-0.0662697404623
-0.0630560070276
-0.0614449456334
0.0274172630161
0.0235315077007
-0.039019625634
-0.0199019648135
-0.0925104990602
0.0732394382358
-0.0718120783567
-0.103914998472
0.045967631042
0.0677586346865
-0.104388937354
-0.00959982722998
0.041540954262
-0.120078414679
0.00283396616578
0.0298445764929
0.0800412669778
0.078030064702
0.0433633476496
0.0481480248272
-0.061368778348
-0.139500066638
0.0567693002522
-0.0265277717263
0.134520277381
-0.0835249722004
-0.0101344594732
-0.0742886886001
-0.0738045945764
0.00921743176877
-0.0339360758662
0.0778449773788
0.00186473317444
-0.0555866286159
-0.0211755614728
0.0196344554424
-0.0591824315488
0.00320089561865
0.155885010958
-0.0610868446529
0.0330501385033
-0.0372831001878
0.0382051430643
-0.061675850302
-0.0184774901718
-0.0919389948249
-0.0219130627811
-0.0205360446125
0.0516237728298
0.0833544954658
-0.0659035295248
0.0496469922364
-0.0570942573249
-0.0428208298981
0.0141926100478
0.0321473628283
0.0331787057221
-0.0646227002144
0.063361659646
0.0373903922737
0.125859200954
-0.0445267148316
0.0720766633749
0.00255084550008
0.174764215946
-0.0607565864921
0.0304983370006
-0.00902813207358
0.0179584212601
-0.0359105318785
-0.0433484278619
0.0595957450569
-0.0294385775924
-0.0934739559889
0.00686254631728
-0.0153802968562
-0.0460698790848
-0.0441702753305
-0.0800129473209
0.0114735895768
0.0749846100807
0.0459279082716
-0.0491318367422
-0.0344612710178
-0.0528653301299
0.0108464211226
0.10504218936
-0.0263734720647
0.01052675955
-0.0901689231396
-0.0540986657143
0.0233154706657
-0.0180808268487
-0.0147505765781
-0.0420526564121
-0.0183093473315
0.0317277908325
-0.0148423314095
-0.0921218618751
0.0403739660978
0.0350709632039
-0.0159834362566
-0.0466326884925
-0.0275073293597
-0.00143854517955
-0.031133055687
-0.0129462573677
0.0598908476532
-0.0859774872661
-0.0820351094007
0.08443249017
0.0122336540371
0.0353383384645
0.0458073541522
0.0726836323738
-0.0769160166383
0.127101257443
0.0199367012829
0.0125978598371
-0.0356026962399
0.0233303848654
0.0303066689521
-0.054115537554
-0.0882094502449
-0.0570633336902
-0.0140211153775
0.0246178843081
0.0511648319662
0.051049657166
-0.0901542156935
0.0326689369977
0.0830959230661
0.0321465320885
-0.00624268036336
-0.0254778396338
-0.0985792204738
0.0379603840411
0.118386730552
0.0247044954449
-0.0447693094611
0.0819486528635
-0.0310968402773
0.0866280049086
-0.047750711441
-0.00462342659011
-0.0515847019851
0.0337779223919
0.131515979767
0.0315227843821
0.0845055133104
0.149365156889
-0.00486341398209
0.194644346833
-0.0640245825052
-0.040886066854
0.00559408357367
-0.024008223787
-0.0245332028717
-0.013890770264
-0.0113406544551
0.0218514017761
0.0417565852404
0.0334234125912
-0.0300981923938
0.0922318547964
0.0402870625257
-0.098005913198
-0.0719380676746
0.10774769634
0.0602654404938
-0.0242241360247
-0.0565221905708
0.0807001665235
0.100849106908
-0.0711080506444
-0.0767851024866
0.0582650490105
0.0276364199817
0.0680903717875
0.0315798744559
-0.0833667069674
0.0414730533957
-0.099886380136
-0.0768321454525
0.0463200695813
-0.0167516432703
-0.0208197794855
-0.0580604039133
-0.0623050779104
-0.0264003556222
0.0833411067724
0.00149107060861
-0.0395652577281
0.0899767056108
0.0910659581423
-0.00332996342331
-0.0829870551825
-0.0731554850936
0.0307544674724
0.0598156303167
-0.032855052501
0.0317335724831
-0.0404436439276
-0.0232107639313
0.0807043462992
-0.00364275230095
-0.0511504970491
-0.0172783117741
0.0956061780453
-0.030648207292
0.0715330094099
0.0554940253496
0.0122629366815
-0.0163456834853
-0.0926116555929
-0.0287899095565
-0.0648590028286
-0.0482005625963
-0.0570803359151
0.0821333229542
-0.0629412457347
-0.0171297732741
0.0520759932697
0.0602199360728
0.0292436722666
0.0181341469288
-0.0441899374127
0.0283270888031
-0.0179962851107
0.0589569993317
0.0535653829575
0.118837967515
-0.101397432387
-0.112670302391
-0.0975637584925
0.0180962570012
-0.0212443899363
-0.0289631299675
0.103876255453
0.0312259811908
0.000554028141778
0.0954479053617
-0.0379120782018
0.0483301915228
0.0282329600304
-0.0883102566004
0.0726675316691
-0.00063179701101
0.0521438531578
0.0749990865588
0.0751995742321
-0.0419159457088
-0.00908186845481
-0.0809010192752
-0.0589743331075
-0.0561916232109
0.0492611713707
0.0146199567243
-0.0498570166528
-0.117911085486
0.0900601297617
-0.0104404212907
0.0359667800367
-0.0100858043879
0.070374943316
-0.110390000045
-0.0398006848991
-0.0635594502091
0.00399627862498
-0.114688336849
0.00638950103894
0.158468946815
0.0124842077494
-0.0530172660947
-0.0712172910571
-0.0564532540739
0.0289484262466
0.067025564611
-0.0191516652703
-0.0474665872753
-0.0614915639162
-0.0352355465293
-0.0117162112147
-0.0624947063625
-0.105999283493
0.00422494811937
-0.0126201119274
0.033765334636
0.0203156415373
-0.062871620059
0.0777614712715
0.0186072494835
-0.0212459340692
-0.0097930515185
0.0261819623411
0.017157047987
-0.0470727533102
-0.0332602970302
-0.0531165339053
-0.0360854417086
-0.108843155205
0.0403601489961
-0.0276210848242
0.0513514950871
-0.0330122560263
-0.0240273158997
0.00730918906629
0.0368874110281
0.062392745167
-0.0772476494312
0.0786017999053
-0.0715477094054
-0.0298854894936
0.213100358844
0.0307763013989
0.0606271363795
-0.0370263531804
-0.0233787279576
0.0251514408737
-0.0480842776597
-0.0144896171987
0.0951915159822
-0.0774384811521
-0.0917340964079
0.0240209344774
0.0160736534745
0.0468093715608
-0.034578718245
0.00515039730817
-0.103573352098
-0.0454368330538
-0.151450365782
0.0606343448162
0.0613564550877
0.00248297327198
0.0220535434783
-0.0811383426189
0.0212406050414
-0.0637168437243
0.0321676209569
0.0165230929852
-0.0324260257185
-0.0274056345224
0.00565060973167
-0.0531652309
0.0700142905116
-0.099770732224
0.164553806186
-0.0367487333715
-0.0717664510012
0.0315655954182
0.100305184722
-0.0300973895937
-0.031432531774
-0.025363439694
0.059267628938
0.126995891333
-0.0469347387552
0.0259458851069
-0.0424337610602
-0.0175324492157
-0.037490401417
0.042713817209
0.00360841536894
0.104213774204
-0.0809301733971
-0.00390273728408
0.042980261147
-0.0634802058339
0.00735863065347
0.0548044778407
-0.0851293504238
0.0036746810656
0.0301553159952
-0.0725383684039
-0.0533875524998
0.0381917916238
0.0387463532388
0.104156851768
0.0911221131682
0.0922919735312
-0.141859829426
-0.119095824659
0.00602603517473
-0.0819040760398
0.0118185002357
-0.0144235948101
0.0245745591819
0.0288964752108
0.0282721277326
-0.10846234113
-0.0169748961926
-0.0808071270585
-0.0972211658955
-0.104476027191
0.0539157539606
0.0666397437453
-0.0439955554903
0.0257286746055
-0.125350788236
-0.0010100553045
0.0892394855618
0.00721972994506
-0.0339126139879
0.00638696039096
0.0535453520715
-0.0340319983661
-0.00359105225652
-0.0239273458719
0.00649685459211
0.0711293816566
0.0487515367568
-0.0196984633803
0.0201356336474
-0.0592542402446
0.0690849274397
0.0434215515852
0.00878984946758
0.0337518826127
-0.00440325168893
-0.0433889701962
0.0558903776109
-0.0697299018502
0.0297914370894
-0.0122085763142
-0.000165803372511
0.0744377449155
0.0481638722122
-0.0716116055846
-0.0207925401628
-0.0479548610747
-0.0210515018553
0.0238399542868
0.0478477142751
0.0819032341242
-0.0393514111638
0.000687380379532
-0.132167026401
0.0848213508725
0.0242830999196
-0.00933388061821
-0.122981831431
-0.101170435548
-0.0594569854438
0.00683256890625
0.1273547858
-0.0290468484163
-0.0389342829585
-0.0492256209254
-0.0293508507311
-0.12867885828
-0.00626420788467
-0.0654270797968
0.0509404242039
0.0181097351015
-0.0147147513926
0.00525960838422
-0.0551771000028
0.0742825344205
0.100560091436
0.0822466164827
0.0110857756808
0.0621849931777
0.0169325266033
0.0576065666974
-0.0137094324455
-0.0467282794416
0.0379952006042
-0.0469574294984
0.0169335491955
-0.0412475094199
-0.00335234845988
-0.0894208475947
0.0683927386999
-0.0674337744713
0.0550871938467
-0.0575426891446
0.0175996683538
0.0170651897788
0.0453555956483
0.0355818383396
-0.0500600337982
-0.0620578415692
0.127894818783
0.0116048073396
-0.0314388126135
-0.0334340296686
-0.00739008653909
0.0487482771277
0.0248495601118
-0.126062527299
0.0162310674787
-0.00954817328602
-0.00705391634256
-0.0680935755372
0.0131071507931
0.0566367954016
0.0194123703986
-0.0293764192611
-0.0451820008457
0.124221131206
0.0510344989598
-0.0975428074598
-0.0606717020273
0.0432352684438
0.0346811749041
-0.00465542962775
0.037285681814
0.0556731782854
-0.0470715202391
0.0502799414098
0.0803092047572
0.0663993805647
0.0709529668093
0.0367561206222
-0.0343281179667
-0.00281758746132
0.0590941011906
0.0713238790631
-0.142289415002
-0.0540739260614
0.0865158811212
-0.0780787616968
0.0626410543919
0.0577833391726
0.0571179427207
-0.0554964654148
-0.00416219932958
-0.104936107993
-0.00865821354091
0.0482407398522
0.142680853605
-0.0213297791779
0.170226618648
0.043685939163
-0.0660034418106
0.0641793236136
0.00155276746955
-0.000634909374639
-0.0667715221643
-0.0535068549216
-0.0173233561218
0.00587702635676
0.14994302392
0.0010559966322
0.158224150538
0.0166299901903
-0.0633015632629
0.0524710863829
0.0192356351763
0.0638279765844
-0.098715826869
0.00903290789574
0.0694415867329
0.0885189920664
0.133321881294
-0.0639408826828
0.0256447307765
0.0260921791196
0.147854506969
-0.0467791296542
0.0375028774142
-0.0421595722437
0.0429481454194
-0.011862414889
-0.122394695878
-0.0519551448524
0.0390956401825
-0.0750446468592
-0.0559858717024
0.0686893612146
0.0273104291409
0.0401956252754
-0.0808060094714
0.0658724606037
-0.0963035300374
0.00655950047076
-0.0215026531368
-0.0478217191994
0.12430948019
0.0458134375513
-0.0189965479076
-0.0321624912322
0.0557186827064
0.0558556318283
-0.074227720499
0.056399140507
-0.0629658475518
0.00675216969103
-0.0401794984937
-0.0281934235245
-0.00773036247119
0.087376318872
-0.0630116090178
0.0445269756019
-0.0225138626993
-0.099773876369
-0.0304735936224
-0.102672964334
0.0526825152338
-0.0493221394718
0.0678479373455
-0.0219450704753
0.0199986100197
0.0899205058813
0.0682162716985
-0.10925065726
-0.0630444139242
0.0204895678908
0.0332172214985
0.0746290907264
0.166043639183
-0.0216590128839
-0.0666149333119
-0.0867642983794
0.0176208522171
-0.109626308084
-0.0716236382723
0.0174455512315
0.104164808989
-0.0734706148505
-0.0529497563839
-0.034973539412
-0.0503157153726
-0.0121027082205
0.0685840249062
0.00240602437407
0.0624033287168
-0.0321531519294
0.0553838424385
0.0355576351285
0.0220099799335
0.0161944571882
0.10364843905
0.00537155056372
0.0524521917105
0.0494860708714
-0.0404594279826
0.00294209341519
0.0487124025822
0.0884261354804
-0.0270134545863
-0.0254821423441
-0.055390574038
-0.0194261502475
0.113245598972
0.0508382581174
-0.105923525989
-0.0975378900766
-0.127320110798
-0.0312268957496
-0.0664041861892
-0.00913092494011
-0.0407881364226
0.0363112688065
0.136562556028
-0.0610012337565
0.00432181265205
-0.0362971238792
-0.0183973647654
0.00358191668056
-0.124465480447
-0.00543435942382
-0.0605378709733
-0.0526045747101
-0.0821055620909
0.0257641021162
0.079166777432
0.0344728678465
0.0186376590282
-0.00238064001314
0.0551731698215
0.0509537905455
0.119315505028
0.00606727786362
-0.0602690055966
0.00512079428881
-0.00819277856499
0.111698620021
-0.0505099371076
-0.0573837719858
0.0109039312229
-0.00706316856667
-0.0504317767918
-0.0659028738737
-0.0293734949082
0.0552189797163
0.122314698994
0.0819556936622
0.0452233552933
-0.0368460975587
0.0221219006926
-0.0646015107632
-0.0282105859369
-0.111777953804
0.0129845803604
0.105853207409
-0.00977655500174
-0.0639110729098
0.028193352744
0.0902175530791
-0.0857584625483
0.0737494677305
-0.00553735345602
-0.0268862899393
0.0596812404692
-0.0504533834755
0.0122534483671
0.0381777249277
-0.0500552654266
0.0478220656514
-0.00970468297601
0.00693028699607
-0.0014367554104
0.0399829857051
-0.0619954615831
0.0103471893817
-0.00243925838731
0.0938722416759
0.0968942418694
-0.0370869785547
-0.0840480178595
0.0784563571215
-0.192675694823
-0.0150199821219
0.0745964199305
-0.0326259173453
0.00970517564565
0.0973106473684
0.0501611568034
-0.0330303646624
0.0493143945932
-0.0472547374666
0.113422267139
0.0577703565359
0.0142032057047
-0.0226037912071
0.0349821336567
0.00507341930643
0.00476343650371
0.041062798351
-0.103074610233
-0.054880797863
0.0277061574161
-0.0374031662941
-0.00154731143266
-0.0707546770573
-0.0422751270235
0.0863495320082
0.0559820793569
-0.102532207966
-0.145274803042
0.103362224996
0.0105237625539
0.0073758517392
0.0542017258704
0.0520912706852
0.0461801029742
0.0812842994928
0.010214721784
-0.00818033143878
0.121557019651
0.0266189053655
0.00997129362077
0.0683169215918
0.0140880970284
0.0249193049967
-0.089232608676
0.00231431098655
0.0946509167552
0.0670395940542
-0.137303367257
-0.0953001230955
0.0329848751426
0.103682868183
0.0241359546781
0.0276515185833
-0.0527957566082
-0.0315097756684
-0.0399870835245
0.0539199002087
-0.0354296639562
0.0422302372754
-0.0831203088164
0.0575917214155
0.0293448138982
-0.0366305746138
0.0373007245362
-0.0732589513063
0.05919791013
0.00188710133079
0.0531235821545
0.0416950620711
-0.0373056977987
0.143708512187
-0.022993106395
-0.0125952297822
-0.0511816330254
-0.0733859613538
-0.0583748705685
0.140895470977
-0.0235876645893
-0.0080693019554
0.0327409915626
-0.037808496505
0.0474007688463
0.0203887801617
-0.00290053826757
0.102907404304
-0.0307858940214
0.0540531128645
-0.0178484544158
-0.0282592624426
-0.01631520316
-0.102489776909
-0.0149678047746
-0.00144962500781
0.166760414839
-0.0301274955273
-0.0427627377212
0.0744163393974
0.0530532933772
-0.143008381128
0.11688669771
-0.103782176971
0.0350561179221
0.0583910644054
0.110526517034
0.0704227387905
0.0428079143167
-0.0456199795008
-0.111484147608
0.069896928966
0.0514039956033
0.157386779785
-0.0236136075109
-0.201112255454
-0.0699357762933
0.119987353683
-0.00653402647004
0.119119785726
-0.0146508216858
0.0478775575757
-0.0470922030509
-0.114834979177
-0.0227039270103
-0.0181481428444
-0.0779150947928
-0.0389989539981
0.0297967419028
-0.0396897271276
-0.0352789834142
-0.125572830439
0.0747716501355
-0.0363477729261
-0.00516443280503
0.0160274468362
0.112742610276
-0.0610741488636
0.143908545375
0.0640450268984
0.0212176628411
-0.0162556860596
-0.0498014576733
-0.0628193765879
-0.0195371434093
0.137211382389
0.137556031346
0.0484283752739
-0.0271262638271
0.0189000703394
0.00326495966874
0.0521211512387
0.0518842041492
-0.0625213757157
-0.00473061949015
0.0939873605967
0.0566340833902
0.0331071764231
-0.0995193123817
0.0875612124801
-0.037528578192
0.0301598701626
0.0930516794324
-0.0676948204637
-0.0145407877862
0.0449595674872
0.106366209686
0.0244101919234
0.0208015497774
-0.0635972172022
0.115702860057
-0.0415564663708
-0.000823556096293
-0.0878054276109
0.0259250886738
0.0297591760755
-0.0281279608607
0.0136509342119
0.0451559536159
0.0299013610929
0.0425178036094
-0.04510486871
-0.00730255898088
-0.0296647287905
-0.0357986316085
0.096082597971
-0.128323480487
0.00933456048369
0.0608901493251
0.0501955188811
0.0968322455883
0.0758791342378
0.0538870729506
0.0947763174772
-0.0133649799973
0.071674734354
0.0766119658947
-0.0144079234451
-0.092672534287
0.0332736223936
-0.0733802840114
0.0421284623444
-0.0833236724138
0.0436769463122
-0.082990206778
0.0399610325694
0.0348491147161
0.00482685305178
0.100848391652
8.98359212442e-05
0.0683924183249
0.0828122347593
0.0367696397007
-0.0664411708713
-0.171997144818
0.0641961917281
-0.0574115328491
0.0407717227936
-0.00313218706287
0.113649345934
-0.00186259776819
0.076565220952
-0.0155004970729
0.0258601177484
-0.0106601379812
0.001319905743
-0.000964975042734
0.0245258081704
-0.105672590435
-0.106488645077
-0.114911139011
-0.0448024943471
0.0553232878447
0.170349732041
0.0323523581028
0.121587559581
0.0795276090503
-0.0529583394527
-0.0042608124204
-0.10444714874
0.0056193722412
0.094844892621
0.0624998621643
-0.0451441556215
-0.00844237487763
-0.0380238927901
-0.116945452988
0.0105082131922
-0.125642448664
0.15760448575
0.10254817456
-0.0773179009557
-0.0482244156301
0.0404475554824
-0.0931247994304
0.134360522032
0.0354688838124
0.0162482783198
0.0714279636741
-0.123209185898
-0.120375059545
0.0978908389807
0.0246794372797
-0.0440533645451
-0.0270140320063
0.0694983750582
0.106920786202
0.016836380586
-0.0347059778869
0.0426834821701
0.108301900327
0.0285976361483
0.143728494644
0.0702550783753
0.0402596406639
0.0256045460701
0.00478752283379
-0.0367685109377
0.0578661300242
-0.0245497580618
-0.0412864461541
-0.0351957008243
0.0418509840965
0.0567073971033
0.00115661078598
-0.0807361230254
0.0206701811403
-0.0740316137671
-0.0393793955445
0.0208569336683
-0.167486384511
0.0285345651209
0.156944125891
0.0747755616903
-0.0120317647234
0.0443598255515
0.0327744036913
-0.115590177476
0.0921244844794
0.136462062597
0.0345786102116
0.0325607173145
0.0045142439194
-0.0440390482545
-0.0754553228617
0.0572606399655
-0.0306146331131
0.0775243118405
-0.139337569475
0.118477128446
-0.0448106117547
0.00448147347197
-0.144626408815
-0.058318760246
0.0383400395513
-0.115866467357
0.0597455613315
-0.0217604078352
0.00980967842042
-0.0405446067452
-0.0626702383161
0.110136255622
-0.0850786119699
-0.00340496888384
-0.0703415051103
-0.0225418489426
-0.0288634654135
-0.0307527054101
0.0241276379675
0.169562965631
0.0281426161528
-0.0481121502817
-0.0432418435812
0.0211215075105
0.0423197299242
0.0650742128491
-0.229385599494
-0.0549693889916
-0.030205052346
-0.0182304531336
0.0269845854491
-0.0826172828674
0.0417525470257
0.124310128391
-0.142815411091
-0.0530064925551
0.034277305007
-0.0205535870045
0.0510304272175
-0.170317694545
0.0405761562288
-0.0647742003202
0.135829642415
-0.0596421919763
-0.0195497199893
0.0468579381704
-0.0235167201608
-0.0621725469828
0.0134189156815
-0.0363632962108
0.124372251332
-0.070979706943
-0.0306722931564
0.0949814841151
-0.0904561206698
-0.0793832838535
0.17906652391
-0.00310960924253
0.0754320845008
-0.0613557957113
-0.0048765540123
-0.0917187482119
-0.141022548079
-0.0913430824876
0.0577184334397
-0.127420634031
0.0995273441076
-0.00878022424877
-0.0308218002319
0.0289435256273
-0.0160847436637
-0.0893071144819
-0.0493365079165
-0.129002720118
0.0263358708471
-0.0418573096395
-0.0862019434571
0.118382610381
-0.0433693230152
-0.0584152042866
-0.0944726839662
0.0252324864268
0.0389158762991
0.104114569724
0.0206362698227
-0.0353624373674
-0.0984918624163
0.0474034771323
0.0183444637805
-0.000437342125224
-0.120388247073
0.0159902852029
0.0433454960585
-0.0592756830156
-0.0669475421309
0.0115478141233
-0.00278174364939
-0.0351638011634
-0.0703903287649
-0.179475337267
-0.0118844192475
0.0338245481253
0.0386366285384
0.100138552487
0.0746224224567
-0.00596011569723
0.185389459133
-0.0779037103057
0.0552129000425
0.185673937201
0.0703656822443
-0.115357600152
-0.064007371664
0.00872368272394
0.00202336488292
-0.0436264462769
0.0025705427397
-0.0634129196405
0.0200657323003
-0.0371197909117
0.124260514975
-0.0731996968389
-0.0599328354001
-0.0145972920582
-0.0669675841928
0.0516029410064
0.064821921289
0.0104633104056
-0.0858218297362
0.0392905808985
0.126359179616
0.0464245937765
-0.0423852950335
-0.0509350374341
-0.0903386175632
0.098476819694
0.105568222702
-0.0894373357296
-0.00433511799201
0.0753071382642
0.0763369947672
0.0786243528128
0.100946858525
-0.0974887162447
-0.0618276894093
0.0333001278341
0.122003100812
0.063838288188
-0.0196614135057
0.0448701679707
-0.0103396754712
-0.00671579921618
0.0276146531105
0.0738392919302
-0.0622005388141
-0.0883331298828
-0.0364241041243
-0.0551737248898
0.127534553409
0.063275873661
-0.000133319626912
-0.0947872400284
-0.0366560742259
0.00241142720915
0.163469284773
-0.0222607087344
0.0138541031629
0.0422631241381
-0.105644576252
0.0785472691059
-0.00670175440609
-0.092132806778
-0.0773068293929
-0.189144611359
0.0710683166981
0.108487769961
-0.0256379861385
-0.0732521638274
-0.0336344689131
-0.0231858808547
-0.085942581296
0.00947565678507
-0.0376686677337
-0.117969512939
0.0628871321678
0.106569439173
0.0140142645687
0.0909703299403
0.0112912021577
0.0654962360859
0.00703789386898
-0.0358618721366
0.054244466126
-0.0934549942613
-0.0710466727614
0.067053116858
-0.0112245017663
0.0445493347943
-0.104286767542
0.0968137085438
0.0677158981562
-0.161416858435
0.0503835938871
-0.144017115235
0.0363925732672
-0.0468146018684
-0.061713155359
0.0692101195455
0.126991838217
0.0746683701873
0.0619975440204
0.0548435747623
0.087413713336
0.0643085539341
-0.00333164050244
0.0638098567724
-0.0220751427114
-0.0540883690119
-0.132698997855
-0.0954081192613
-0.0230123642832
0.0516862757504
0.0746535435319
-0.0863828212023
-0.0127118602395
-0.0436876378953
-0.0781631246209
-0.000954033632297
0.0725388452411
-0.10585744679
0.0320714749396
0.0790424197912
-0.0127350147814
0.136455401778
-0.0640916749835
0.0336054675281
-0.0487428866327
0.159211203456
-0.0678980350494
0.111446030438
0.0703782513738
0.135787427425
0.0924069881439
0.106194145977
-0.0505847856402
-0.0247032009065
-0.00141117512248
0.113136149943
0.00202911184169
0.00758822821081
0.00180782424286
-0.0889206603169
0.0033889671322
-0.0351513624191
0.11375798285
0.126823097467
0.092098608613
0.0502780377865
-0.0280125997961
0.0109146749601
-0.11253053695
-0.149782836437
-0.0969339907169
-0.105425029993
-0.0994952246547
-0.05051850155
0.0725948065519
-0.02922081016
-0.0180764626712
0.0873973220587
0.066067814827
-0.0451571457088
-0.0440051555634
-0.129251003265
0.0423188582063
0.0475822463632
-0.0285913310945
0.0620045624673
0.0224481057376
-0.070539072156
0.163456112146
-0.0798584371805
-0.10505990684
-0.0608779042959
0.0799889042974
-0.00987901072949
0.133643254638
-0.0150159755722
-0.0972716957331
-0.025606231764
0.00128331943415
-0.0683220922947
-0.117142163217
-0.097252227366
-0.128324940801
-0.0760415047407
-0.036695830524
-0.0447161309421
-0.102345742285
-0.0188828781247
-0.062861725688
-0.0470353141427
0.0606413707137
0.116058811545
-0.102369859815
0.080040127039
-0.0610889084637
-0.057448014617
-0.0395741350949
0.0153283523396
-0.0386306829751
-0.00462240120396
0.0217366050929
0.0900956243277
-0.0877702087164
0.127545520663
-0.00565839046612
-0.0568055771291
-0.0336307063699
-0.0733111351728
0.0744032710791
-0.0778029933572
0.0714521855116
-0.0564873144031
-0.0121443951502
0.0736690089107
0.0247190594673
-0.110458888113
-0.0841101184487
-0.00949134957045
0.144507676363
-0.060394089669
-0.0193441715091
-0.0261984150857
0.11656704545
0.065998904407
-0.0310683362186
-0.0337351635098
-0.00693917227909
0.0232546851039
0.136346340179
0.120424620807
0.0958148241043
-0.0141894137487
0.183762952685
0.0736593827605
-0.0600289516151
-0.0695081278682
-0.0560907721519
-0.0575733371079
0.0898751914501
0.0504451543093
-0.106172807515
-0.0609248280525
-0.0467003956437
-0.0539936050773
-0.0460483245552
-0.000639170757495
-0.0589171685278
0.0535879842937
0.0195186249912
-0.0303843785077
-0.0508664548397
-0.058087926358
-0.0454469174147
-0.0743323341012
-0.0398787483573
0.00413034344092
-0.0222251396626
0.0201087445021
0.135370209813
0.0269440133125
0.0060671181418
0.124488122761
0.0935168042779
0.0162863396108
-0.00187282415573
-0.0778972804546
-0.00690543372184
0.0310862399638
-0.0245275590569
-0.107128486037
-0.0735258162022
0.0800582915545
-0.0210435651243
-0.0509528033435
0.0527237430215
0.040875133127
0.0407171025872
0.0769240856171
0.0378442518413
0.000314662698656
0.0335060805082
0.0617736615241
0.0101189892739
-0.00415226723999
-0.0588668510318
0.0658194348216
-0.0682915598154
0.00515555683523
0.0822925493121
0.100856631994
0.0440634042025
-0.0134077072144
-0.0359996296465
-0.0614150762558
-0.00279374769889
-0.117538571358
0.0205446574837
0.154680088162
0.0271070636809
0.104431904852
0.0547491572797
-0.0206825248897
0.0633775293827
0.106527902186
-0.0736535340548
0.00655510928482
0.0879433527589
0.115857921541
0.0766427591443
0.0431191250682
-0.0836082324386
-0.0898924469948
0.122318811715
0.0378325432539
0.138549298048
0.0864635780454
-0.0334836393595
0.0358647294343
-0.0044277398847
-0.0283254273236
-0.0734017789364
-0.0531170889735
0.231279328465
-0.0202639698982
-0.0659637153149
-0.108853161335
-0.153061613441
-0.115865767002
-0.0392565242946
0.0775333866477
0.102619111538
-0.00870251562446
-0.135805413127
0.0466134175658
-0.0999870076776
0.0425040982664
-0.0318169891834
0.11287843436
0.0693368837237
0.0916378423572
0.0755811333656
0.00289714499377
0.0678839460015
-0.0374834649265
-0.0565836541355
-0.0937683656812
-0.0699912980199
-0.0484549365938
-0.0143040921539
-0.0135673554614
-0.0123121999204
-0.0466520115733
0.0440746434033
-0.0753679648042
0.0131031693891
-0.0286599807441
-0.0667046606541
-0.135757684708
-0.0960234180093
0.00304771587253
-0.0690218508244
0.00195921864361
0.0013059276389
0.159640222788
0.150301232934
-0.0862273052335
-0.0874093323946
0.0435710325837
0.0253892540932
-0.0454363413155
-0.0143332080916
-0.0268336068839
0.0937618017197
-0.124219857156
-0.0118101201952
-0.0951492115855
0.0815201178193
-0.054897248745
0.182140111923
-0.0230843164027
-0.111741021276
-0.0981651768088
-0.00728738773614
0.0468765981495
0.0465873293579
0.103689834476
-0.13484556973
-0.016336010769
0.190467849374
-0.113979518414
-0.034873675555
-0.0247480794787
-0.00177332421299
-0.0779719948769
0.0387900881469
-0.0692425146699
-0.036713194102
-0.00686136214063
0.0576393380761
-0.069123737514
-0.161261573434
0.203211814165
-0.0907173082232
-0.0162204429507
-0.010572116822
-0.0265742912889
-0.047236353159
-0.111387200654
0.228143677115
-0.135487005115
0.0441467873752
0.0315602198243
0.0336822681129
-0.0906329229474
0.0694795176387
0.0547071285546
-0.0531742684543
-0.158322617412
-0.0949648469687
-0.0922380909324
0.0742685869336
0.0033437164966
0.0992258787155
-0.0166512914002
-0.0193083379418
0.0246698334813
-0.0144142974168
-0.0139192324132
-0.0641368702054
0.00923958607018
-0.0856465399265
0.0329326465726
0.0416057482362
-0.0902402028441
0.0779040232301
-0.0922717601061
-0.109600439668
0.113711483777
-0.0837576761842
0.104285925627
-0.0609306804836
0.00106285640504
-0.0282556880265
-0.0535681210458
0.0638185068965
0.0486014820635
0.0405463725328
0.0418289229274
0.00813237763941
0.00895722024143
-0.0149339931086
0.111657634377
-0.0192930158228
-0.0934136509895
-0.0359353907406
0.195998474956
0.0179012566805
-0.00449368683621
-0.00936588551849
0.0639621913433
-0.0270962379873
-0.0188752934337
0.0407507829368
-0.0140628386289
-0.0537227801979
-0.131975337863
0.0122835850343
-0.0808377191424
-0.0786401703954
-0.0240384954959
-0.0197497252375
0.00645978096873
0.020218020305
-0.120264224708
-0.0445603504777
0.00744249951094
0.00891912076622
0.135617405176
0.0703483000398
0.0102756563574
0.167572408915
-0.00763421691954
0.0477243885398
0.0926038771868
0.0527858138084
0.0301508828998
0.0277749598026
-0.0604686848819
-0.0519875250757
0.017738930881
-0.0516562350094
-0.00974544975907
-0.0549006313086
0.0110088372603
-0.000443628290668
-0.0503741949797
0.0235136449337
-0.114919528365
-0.0460733547807
-0.0451071225107
0.0346822999418
0.0333756245673
0.0653359666467
0.0454938486218
-0.0850349068642
-0.0201641842723
-0.0471109077334
-0.030539015308
0.00194950040895
-0.0018025226891
0.104836024344
-0.0805247426033
0.0784715488553
0.108002789319
0.0164377409965
0.0886279940605
0.109526462853
0.100993588567
-0.0205507371575
0.0885745733976
0.0717878714204
0.0147756561637
-0.00700180325657
0.0787637904286
-0.0142213618383
-0.0580148771405
0.0137293767184
0.0155613170937
-0.0528171136975
0.0495248362422
-0.0510309077799
0.0575209967792
0.0192733164877
-0.0940997600555
-0.0826485157013
-0.0912609025836
-0.0765271559358
0.0986554697156
-0.00427400320768
-0.129755958915
-0.0915181785822
0.0280458535999
0.0447817668319
0.0536491982639
-0.00341619551182
-0.0823187753558
0.00847278255969
-0.0339950546622
0.0277538839728
-0.0166937317699
-0.0702751651406
-0.0256150215864
0.0435123592615
-0.100516043603
-0.0134184304625
-0.0168269388378
0.0417672395706
0.0716489180923
0.0685482695699
0.0247488226742
0.102686978877
-0.0597616583109
0.0212438907474
-0.0838037133217
0.054256234318
0.0309604536742
-0.0728155821562
0.0500623732805
-0.0852391347289
-0.0866333544254
0.0993197709322
0.00978154595941
-0.043781735003
-0.070185303688
-0.0710404366255
-0.0358971841633
0.101364441216
0.0415712222457
0.0212926492095
-0.00490012764931
-0.0568970963359
0.0745146870613
-0.00731643754989
0.0221638530493
0.0228001773357
-0.076992213726
0.0172360427678
0.0372556187212
-0.159425213933
-0.0724587738514
-0.140290305018
0.0606455914676
-0.0705769509077
-0.0397101677954
0.0199577212334
-0.0138762649149
-0.0261930134147
0.101383797824
-0.0152284502983
-0.0512979291379
-0.0833164304495
0.00560555187985
0.10437104851
-0.0915017277002
0.00820086337626
0.084413588047
-0.0350789800286
0.070928812027
0.0122466022149
0.0522126145661
0.0473978817463
0.146174073219
-0.0194284524769
0.015731651336
-0.0640307366848
-0.0108428802341
-0.13092790544
-0.0911688059568
-0.173416629434
-0.102118417621
-0.0164722725749
0.1195358634
0.13753965497
0.0223856791854
-0.0421663857996
0.00458979234099
0.0330416597426
-0.0883571952581
0.0963639616966
0.0475735999644
0.0315931662917
0.128223374486
-0.0486988089979
-0.0750341489911
-0.00853595044464
0.0190740767866
0.0427906252444
-0.0536553189158
-0.00557802245021
-0.0730747580528
0.000547631061636
0.098872192204
-0.0458577275276
-0.0296125970781
-0.0408062525094
-0.0203991904855
0.0400078035891
-0.084685318172
0.0392760895193
-0.118871442974
-0.0457118712366
0.0925619527698
0.0237946826965
0.0871868729591
-0.109457395971
0.0114657990634
-0.0847882479429
-0.0871067866683
-0.0570654571056
-0.0565007217228
0.0660932734609
0.10341244936
0.0953797698021
0.0780973136425
0.0962280035019
-0.0822957456112
-0.109604291618
0.0721494928002
-0.0086464183405
0.154530003667
0.105449847877
-0.0316223204136
0.105048187077
-0.0941502004862
-0.0690184831619
-0.0840639024973
-0.0215003453195
-0.132558584213
0.0487978607416
-0.0769228637218
-0.029712928459
0.040660072118
-0.0661700740457
0.0974643453956
0.0893299281597
0.0185255389661
0.0867207422853
0.0162635687739
0.0809905380011
-0.0445054285228
0.00405054306611
-0.0909468382597
-0.0602623037994
0.069290690124
-0.0662786886096
0.0122721474618
0.00222870032303
-0.176533654332
0.0574264489114
0.097623705864
0.0454595088959
-0.110700495541
0.0363878682256
0.0296457055956
-0.0383293516934
0.0268227569759
0.0126950247213
-0.0921820774674
0.0369965955615
0.154857039452
-0.0191058907658
-0.0718451961875
-0.0603880658746
-0.0621446706355
0.0583881996572
-0.039907567203
0.022178074345
-0.060880150646
-0.143594697118
0.0136908432469
0.00669763656333
0.0663347840309
-0.109844379127
-0.0539155974984
-0.130630746484
-0.0433611944318
0.000232011036132
-0.025101095438
-0.125638365746
-0.0157899726182
-0.0220965314656
0.00170743803028
0.0483988747001
-0.0239053368568
-0.108449116349
-0.0867213606834
0.00256313895807
0.0315548889339
-0.145771682262
-0.0321567431092
0.0862760394812
0.0764800086617
0.0331601724029
0.127817213535
-0.019125316292
-0.0313229225576
-0.0481763072312
0.0387137793005
0.0619135014713
0.0712368786335
0.0161356925964
0.0040763146244
0.007625318598
-0.0691042467952
-0.0419094488025
0.0667603462934
0.0905778333545
-0.0585827603936
0.0071730222553
-0.00692954938859
-0.0357374995947
0.0893205925822
-0.0473667867482
-0.0430053211749
0.0272770263255
0.118201121688
-0.00992882158607
0.0241159219295
0.0302540939301
-0.0961038768291
0.0210677366704
-0.0275469869375
-0.121083453298
-0.0636128336191
0.0593245998025
-0.0557106137276
0.0933146849275
0.118178769946
0.0415710769594
-0.101182729006
-0.0938226133585
-0.0858614742756
-0.0905148983002
0.0519721768796
-0.0141958706081
0.0813781321049
0.0557425804436
-0.0291807670146
-0.00505198771134
0.000289510528091
0.0152446012944
-0.0325762070715
-0.0375863537192
0.0451340675354
0.0289817061275
-0.122409366071
0.0746698528528
-0.14353056252
-0.0599674358964
-0.103629462421
0.00521135143936
-0.118465140462
-0.0765631645918
-0.0662017017603
0.107126861811
0.100040689111
-0.0564610026777
0.0776168629527
-0.151735603809
0.00329704326577
-0.0599404387176
-0.0703068822622
-0.120511740446
-0.0543006658554
0.00710580404848
0.0503135211766
-0.0688765272498
-0.0694065019488
0.0748457685113
0.0297811999917
-0.136965304613
0.0941752195358
-0.169549018145
-0.0901334509254
0.10935240984
-0.0510586835444
0.00200063572265
-0.103149242699
-0.0771269202232
0.0678889527917
0.0464521124959
-0.0663201212883
-0.0393026545644
-0.0110859721899
0.0763190463185
0.0540351308882
0.00719608087093
0.10436295718
0.0477507784963
-0.0257446784526
0.0484536588192
-0.0384441316128
-0.058730520308
-0.0548509210348
0.0600511617959
-0.0522674843669
0.0475491322577
0.0587026774883
-0.119373738766
0.0277991313487
0.130351901054
0.113100856543
-0.0731038600206
-0.0505309998989
-0.016894089058
0.0197223797441
-0.0959772765636
-0.0877066925168
0.057483099401
0.106763236225
0.071720354259
-0.0875110477209
-0.0564412437379
-0.0538999885321
0.103720888495
0.0789610296488
-0.12296102196
0.0449137575924
-0.0216069743037
0.0685455948114
-0.0456383228302
-0.02681068331
-0.0460680834949
-0.0903034582734
-0.0747828707099
0.0370885059237
-0.0256958045065
-0.0891544595361
-0.0503204837441
-0.0404916964471
0.055188678205
-0.0319639928639
0.100057505071
0.0472803711891
0.0228384360671
-0.141525357962
0.0265877116472
-0.00515523133799
-0.197210565209
0.1037010625
-0.0597684457898
-0.0494230352342
0.0689104869962
0.144702196121
-0.00601179851219
-0.127819254994
0.032827809453
-0.0267766509205
-0.00722671626136
0.0893124341965
-0.0347527340055
-0.111583083868
0.028458211571
0.0623159147799
-0.0672639533877
0.0630394220352
0.0166045036167
-0.0385825075209
-0.0164403691888
0.0985282957554
-0.0260130427778
-0.0269845314324
0.0967023521662
0.0632496476173
0.119907811284
-0.0405480340123
0.0651840120554
0.0545663163066
0.0271711330861
-0.0338293425739
-0.0406394712627
-0.00339729967527
-0.0146823525429
-0.0612486451864
0.0344060100615
0.014059397392
0.169077187777
-0.0258809868246
-0.0665520504117
0.0143535062671
0.0410220399499
-0.00121611414943
-0.0182205382735
0.103799954057
0.00493536982685
0.102536320686
0.00338253588416
-0.0213061533868
0.056475777179
-0.0422099940479
0.00459512276575
-0.034804970026
0.00303517770953
0.0229295697063
-0.0349667780101
0.0485100485384
0.0898647010326
0.0191159266979
-0.0314526408911
-0.0287403352559
0.134325101972
-0.0357622392476
-0.0380767472088
0.0673016235232
0.00501420302317
-0.0828938409686
0.011662421748
-0.0842297449708
0.0514815934002
-0.0662799924612
-0.0649607405066
0.00589164346457
-0.120130859315
-0.0765313059092
-0.0321097560227
0.0663800388575
0.0113009624183
-0.0805492922664
0.00206396006979
-0.0622327849269
-0.0803544968367
-0.0591001696885
-0.0395786426961
-0.0280379056931
0.00486647803336
0.0474504828453
0.0132853938267
-0.14515902102
0.00687925424427
-0.12542770803
-0.0340794175863
-0.00314506143332
0.0757834762335
0.0832873359323
0.0431980192661
0.048822760582
0.0209348481148
0.0196094103158
-0.0646256878972
0.0987240225077
0.125029429793
-0.0048979469575
0.00129133637529
0.0744307488203
-0.0308352336287
-0.00101099046879
-0.0333980694413
-0.00907623488456
-0.0197929181159
0.0205218791962
-0.022999862209
-0.0670460239053
-0.034593898803
-0.103608481586
0.0256415512413
0.116454750299
-0.0465098246932
-0.0230402462184
-0.130341142416
0.0316204056144
0.0501168370247
0.0679916292429
-0.0187147613615
-0.134635001421
-0.0790135189891
0.0267080198973
-0.0746482238173
-0.0884275883436
0.140052258968
-0.0778191760182
-0.12640555203
0.0509337484837
0.059323951602
0.0070625487715
-0.0413987599313
0.00349047989585
0.0464243739843
-0.0176000222564
-0.0473309792578
-0.109628379345
0.0841650217772
0.0883415266871
0.0108073856682
-0.101317711174
-0.0328454375267
-0.0517773926258
0.0375980772078
-0.0639662593603
0.0798690542579
0.150219559669
0.103487119079
0.0408832132816
-0.0137883974239
0.129669472575
-0.0128809167072
-0.0155506292358
-0.01884127222
0.0774997100234
-0.0211280267686
0.0239449478686
0.000475076667499
-0.0251010879874
0.0190580636263
0.03040795587
-0.0440689846873
-0.024350957945
0.127747833729
-0.103071577847
0.101248018444
0.0375495441258
-0.0968750417233
0.0806886032224
-0.0635104030371
0.0467895381153
-0.0128136798739
-0.0205242857337
0.00960104167461
-0.00984077714384
-0.0885443389416
0.0690697282553
-0.0648487210274
0.0288002621382
0.0427067726851
-0.0596927851439
0.016289819032
0.099618986249
-0.00425027310848
0.0443079285324
-0.0595531538129
-0.0532660521567
-0.10123270005
0.136423617601
0.0150636984035
-0.072158627212
-0.0205358229578
0.025649536401
-0.00688140140846
-0.0448796264827
0.0539341270924
0.0263592284173
0.155396565795
0.176352784038
-0.0185464117676
0.0403677001595
0.0254736859351
-0.0805977061391
-0.099813491106
-0.0371322371066
0.0557832196355
-0.0869521871209
-0.0450954996049
-0.0538504086435
-0.0919460505247
0.0519161894917
-0.0051483809948
-0.0594436451793
-0.0894053429365
0.0251023825258
-0.0466070212424
0.125424876809
0.04295328632
-0.00862123537809
0.10458189249
-0.0426069013774
0.0190062113106
0.0131827984005
0.0368748567998
-0.0768472924829
0.117473967373
-0.057023037225
-0.0452868975699
0.104695044458
0.0781799480319
0.0719892084599
-0.0483492948115
-0.0406086184084
0.100742302835
-0.117440968752
-0.118904270232
-0.119610533118
-0.117329075933
-0.145603463054
0.055025652051
0.0160593129694
-0.0302721336484
-0.0581114515662
-0.0115652987733
0.0343334451318
-5.08002412971e-05
0.102850094438
0.0610940083861
-0.0290272273123
0.0765190944076
0.04679120332
0.0347987376153
0.0745211467147
0.0657824277878
0.032251060009
0.0183200594038
0.179669648409
-0.0409699752927
-0.00236917030998
-0.10460652411
-0.0675875619054
0.186597451568
-0.0865145325661
0.0612888634205
0.199295014143
0.0419881865382
0.0580245144665
0.0231737047434
0.117451786995
-0.0434640981257
0.0124412700534
-0.0551362894475
0.0932041108608
-0.002771000145
0.00154463259969
-0.125745475292
-0.0960400700569
-0.060303170234
0.102186203003
-0.0420056059957
-0.0185557715595
-0.069237023592
0.0185952112079
0.0286776870489
0.0595343001187
0.0716464370489
0.107636354864
0.0434125587344
-0.0456323549151
-0.0633552223444
-0.139065876603
0.0316293351352
0.0324819497764
-0.0756703391671
-0.0580223798752
0.0369202569127
0.114806927741
-0.0435287542641
-0.081493653357
0.141079768538
0.131046369672
-0.0177124105394
0.0058407150209
0.0672686323524
0.0927044302225
0.00776415178552
-0.0661953613162
-0.0284343715757
0.151068091393
-0.000952981761657
-0.00719117932022
-0.0253091827035
-0.00353391631506
0.0130795799196
0.0210788547993
0.0254067070782
-0.0846986919641
-0.0183435510844
-0.0642649382353
0.0729536041617
0.0590487681329
0.0486713759601
0.0644606947899
-0.0927313715219
-0.046534512192
-0.148404747248
0.0372309572995
-0.0149786975235
-0.070381462574
-0.00121683906764
-0.0906576141715
-0.0680827125907
0.0154855139554
0.0512116849422
-0.00239751418121
-0.0708083286881
0.128016084433
-0.00783687923104
0.0589470230043
-0.110888846219
0.000423313467763
-0.0572552084923
0.0590842403471
0.0761793628335
-0.0398543402553
0.173038899899
-0.00644738646224
-0.100199379027
0.0675037503242
-0.0273913685232
0.00536899548024
-0.00911898631603
0.0484640337527
0.0346942692995
0.0761694833636
0.0665757283568
-0.0245147701353
0.0647117570043
0.0449207760394
0.0156822185963
0.0134059609845
0.0364296361804
-0.0420613437891
0.0411125607789
0.0439723469317
0.0480391569436
-0.0509513951838
0.0145704364404
0.0123423943296
-0.0227158013731
-0.0352192334831
0.0478012114763
0.0462087392807
0.0727032646537
-0.0302814487368
-0.0360609926283
0.0863977074623
-0.0409537628293
0.0391221120954
0.0843632295728
0.00185612461064
-0.0625839307904
0.0261376872659
-0.0710463449359
-0.04786702618
-0.0920983478427
-0.0399254634976
0.0719381868839
-0.101223282516
0.0165778901428
0.0161381289363
-0.0303006693721
-0.0962232872844
0.0274080783129
-0.0102605251595
0.00370236719027
0.065951526165
-0.0321736522019
0.0966936349869
-0.0548594333231
-0.0800512507558
0.1568326056
-0.0364855378866
0.0100173763931
-0.138009026647
-0.00703274970874
0.0543902814388
0.0743471309543
0.135182455182
-0.00474286451936
0.0688802599907
0.0203291140497
-0.15119934082
-0.0766056403518
-0.0175283495337
-0.0226542651653
-0.0144819263369
-0.0952779576182
-0.126444891095
0.169689431787
-0.138534918427
0.0979402512312
0.0023115973454
0.0586551837623
-0.0402095280588
0.139129906893
0.0238037891686
-0.00840344559401
-0.0199415795505
-0.0699425116181
-0.108499258757
-0.00916262436658
-0.0050433925353
-0.00921190902591
0.0403838865459
-0.0612943358719
-0.0148628344759
-0.0500504299998
-0.0123304100707
0.0900906696916
0.0217011421919
-0.0349472612143
-0.0873119682074
-0.00937038194388
0.0519801527262
-0.0430580079556
0.0226206723601
0.0290595497936
0.00239937892184
-0.141963779926
0.0269434209913
-0.10722836107
-0.0691246986389
0.0302417967469
-0.0532251261175
-0.0390002727509
-0.00876257475466
-0.0503511540592
-0.0563203021884
-0.0125966398045
0.0265496559441
-0.0266486983746
-0.0257690623403
0.080552496016
-0.0254094619304
0.0108336741105
-0.0872475206852
-0.0164850987494
0.11685616523
-0.0300452578813
0.12003929913
-0.0201999172568
0.0655848905444
-0.0586044713855
-0.132137015462
0.104915693402
0.0574261620641
0.00170543929562
0.100847162306
0.122887693346
-0.0448330901563
-0.00717703066766
0.0326694399118
0.0614762715995
0.0443077012897
-0.0993526279926
0.131524920464
-0.0614214390516
-0.0683160871267
0.0498378872871
-0.0124387452379
0.102567970753
0.0934950187802
0.0818728208542
-0.0121115697548
-0.00524819269776
-0.0611033663154
0.0618437156081
-0.0762916579843
0.0449950098991
-0.0140556832775
-0.0376651138067
-0.0285164285451
-0.00201581930742
-0.00387166137807
0.083041831851
-0.0166027899832
-0.011934784241
0.109876863658
-0.155056506395
-0.0497875995934
0.0645391196012
-0.0294803753495
-0.128854691982
0.00591878779233
0.0470877848566
0.108290292323
0.0085395174101
-0.0578447841108
-0.0220059622079
-0.018133431673
-0.101531624794
-0.0531344078481
0.0474381260574
-0.0710165128112
0.00868801865727
0.0104909352958
-0.0578657723963
-0.0374766513705
0.0960109606385
-0.0357072390616
-0.01746368967
0.0258658528328
0.0850309357047
0.0444261170924
-0.0277604684234
0.0133549049497
0.0599010623991
0.0603050813079
0.0439435653389
-0.0231399647892
-0.0652262121439
0.0617780312896
0.0179838594049
0.118595480919
-0.0371243059635
0.100006401539
-0.0357638783753
-0.0344533994794
-0.0111630819738
-0.0480345413089
-0.10174459964
0.00352508528158
-0.0866086632013
-0.0339015051723
0.0370341613889
0.195978686213
0.0579142197967
-0.0688691213727
0.118139222264
0.0769456028938
-0.0684471875429
0.0481139160693
0.0422381944954
-0.137263417244
0.119310311973
0.114916980267
0.0848931446671
0.0344986468554
-0.15305763483
0.0468250177801
0.0378459617496
-0.00871734600514
0.027787193656
-0.0544822923839
0.0575732327998
-0.0312419682741
0.0346860252321
-0.0192702990025
0.159493848681
0.0974850654602
-0.0359101630747
0.0283004809171
0.0254601165652
0.128034442663
0.0274169184268
0.059015288949
-0.117397010326
0.0429330766201
-0.0308016650379
-0.0797423422337
0.00280572776683
0.0276336632669
-0.0982986167073
0.103916443884
0.131502524018
0.02145200409
-0.132091969252
-0.0567627809942
0.0223380904645
0.0450509525836
-0.0250816605985
0.141296297312
0.0636678934097
-0.024119509384
0.0591168925166
0.0161092989147
0.0252735093236
-0.0290212593973
-0.110274404287
-0.0328390188515
-0.0745401456952
-0.0309149306267
0.00681753410026
-0.0247591566294
0.0543908029795
0.0422805696726
-0.00325537798926
0.103660494089
-0.151335641742
0.0676075518131
-0.063841573894
0.158541589975
-0.0165773183107
0.0940454900265
-0.014682170935
-0.0326571017504
-0.0230795796961
-0.00903558824211
0.0510056354105
0.00689131813124
-0.0234214644879
-0.0637906268239
0.0418110415339
0.0654718950391
0.0422468073666
-0.0929771661758
-0.0832361727953
-0.0191521886736
0.0999067574739
0.0764398798347
-0.105792559683
-0.0198847558349
0.0567164793611
0.086964122951
-0.0622686110437
-0.0503891520202
-0.0118943275884
-0.100381940603
-0.0589678920805
-0.0736071094871
0.0748966112733
0.148283317685
-0.0489161126316
-0.0935419723392
-0.06747174263
0.0419037938118
0.0687689185143
0.0248212162405
-0.0506144315004
-0.0312976166606
0.00208158162422
0.0172949898988
0.0794794484973
-0.0244239270687
-0.0449322834611
-0.0504292324185
0.153434887528
-0.0185045395046
0.00146481138654
0.149232074618
0.0357148870826
0.119094587862
-0.0332614257932
-0.0640271157026
0.0913861989975
-0.0908235013485
-0.0740857794881
0.0195114966482
-0.0492010675371
0.0733202770352
-0.0228946879506
-0.176411762834
-0.0788150578737
-0.00678332289681
0.0368222929537
-0.0815446376801
0.062242411077
0.0128743350506
-0.0708693787456
0.0647637546062
-0.054968200624
0.036519985646
-0.0514478459954
0.0571226738393
0.0499083586037
0.124284416437
0.0611820779741
-0.0625341832638
-0.0131201073527
-0.0334236845374
0.025293007493
0.0865292325616
-0.15045902133
-0.0487931333482
0.0232550371438
0.0305811818689
-0.0483363755047
0.0420901738107
0.0851856544614
-0.11427487433
0.0984047651291
0.101980552077
0.0700142383575
0.0558808036149
0.057311784476
-0.0890283584595
0.0636838823557
0.12557503581
-0.0567138344049
0.00273652351461
-0.0303882565349
-0.00332929659635
-0.0239479560405
-0.0633930042386
-0.0772369652987
-0.0353008918464
0.0257772412151
-0.145027279854
-0.186165854335
-0.0601374655962
0.00783311855048
0.0649637803435
-0.0797366350889
0.0786464735866
-0.0280555933714
-0.158240675926
0.0859682038426
-0.090371645987
0.0944653972983
0.0385763347149
-0.132771894336
-0.0182491317391
0.0446614176035
-0.0531247183681
0.0821610912681
0.0662783235312
0.0232367292047
0.12678527832
0.0176879409701
-0.0075357472524
-0.0839088559151
0.0242246557027
-0.0564516857266
-0.0077320956625
-0.051069881767
-0.00585365481675
-0.0910531803966
0.109895341098
0.0836851969361
0.145673051476
-0.0186438541859
-0.0354713872075
3.29764880007e-05
0.00612924993038
-0.0298213567585
-0.0201096720994
0.0486706234515
-0.056471504271
0.0422037877142
-0.0917243659496
-0.0546719320118
-0.0261035356671
0.047836702317
-0.0145461261272
-0.0158402323723
-0.0926412194967
0.00685081072152
-0.0037567501422
-0.0139280129224
0.158970654011
-0.00826094392687
0.05146170035
-0.025813864544
0.043496966362
0.0185109209269
0.0448423177004
0.020699519664
-0.08473546803
0.0475126095116
-0.130906701088
-0.00580955389887
0.0434457212687
0.0648887455463
-0.000625165761448
-0.0389516986907
-0.0541645735502
-0.0764783620834
-0.0544785149395
0.0297929160297
-0.0877631828189
-0.0434553399682
-0.0745584517717
-0.0824326053262
0.0278431735933
-0.0201210640371
-0.130120798945
0.0488895140588
0.0777232125401
-0.00999631267041
-0.0466876477003
-0.0878847762942
-0.0604736655951
0.0166490692645
0.0774537920952
-0.00323441671208
-0.0283329412341
0.0357007645071
0.072381272912
-0.0487847588956
0.0208788663149
-0.00379635905847
0.101965934038
-0.000997348572128
0.0455740205944
0.02609295398
0.0211583226919
-0.0127491159365
-0.0940822511911
-0.0100417053327
0.0115526495501
-0.117147505283
-0.0356437638402
0.0106297722086
0.048619966954
-0.0923407152295
0.0170652642846
-0.0416232720017
-0.0248477309942
-0.0479226075113
0.0828715413809
-0.0488601438701
0.0405673161149
0.0249365232885
0.0218337122351
0.082237534225
-0.0705702602863
0.0421924293041
0.0650717690587
-0.0155734475702
0.0607670918107
-0.00629877112806
-0.0668423846364
0.0427394844592
-0.0170057229698
0.0263367872685
-0.166656553745
0.015690272674
0.0226631425321
-0.0508246608078
-0.00264769420028
0.0357159338892
0.0241032261401
0.0673821046948
-0.104705095291
-0.0746268108487
0.0871329829097
0.0230787824839
0.0315737836063
0.0813691467047
-0.0323614701629
-0.0568953230977
-0.12657956779
-0.117371983826
-0.0262232273817
0.0259521976113
0.0781866833568
-0.0355387702584
-0.0998579412699
0.102501839399
0.0252267383039
0.0433602444828
0.0300488490611
0.0157772637904
0.0261846873909
-0.00308405607939
-0.0385170653462
0.154866933823
-0.0566950216889
0.019512584433
-0.0942090004683
-0.0259003564715
0.0601788163185
-0.0026249808725
0.0886812657118
-0.0711547955871
0.0355847850442
-0.0375189110637
0.0750254243612
0.00522233499214
-0.0100058410317
-0.133211299777
0.123966552317
-0.0646526962519
0.0177591256797
-0.00551600567997
0.0872101038694
0.0350843966007
-0.0206451006234
0.0316405631602
-0.133663028479
0.0415807254612
-0.0264632012695
0.0383851826191
-0.155101940036
0.147090375423
-0.0195587407798
-0.0116941537708
0.0759075433016
0.0215220972896
-0.171020641923
0.0622912757099
-0.081672437489
-0.0987578183413
-0.0746306329966
0.102283723652
-0.00141928321682
0.0546363741159
0.0618588887155
0.0688999965787
-0.0886808633804
0.000884293986019
0.0305631067604
0.10640270263
0.117518573999
0.0599014721811
-0.0117843216285
-0.131988957524
0.0701441243291
0.0680661201477
0.0729962810874
0.0274597369134
0.0138021502644
-0.0409984141588
-0.144762605429
0.101393088698
0.00239518051967
-0.0899882018566
-0.0518090836704
-0.154939711094
0.0863077268004
-0.0439708903432
0.0824239850044
-0.0301374103874
-0.0536597259343
0.0675525739789
0.0138196051121
-0.0458131693304
-0.039497140795
0.0798805654049
-0.0101175466552
0.0146904923022
-0.0186443068087
-0.0887253060937
0.0014279759489
0.0379540026188
0.0767022967339
-0.0161121860147
0.015106163919
-0.0187694486231
0.0459449924529
0.00318866944872
0.0736722946167
0.0500098876655
0.0562762133777
0.0554153472185
-0.00679582264274
0.0263269338757
0.0708558633924
-0.0922097712755
0.0862386375666
-0.0607761926949
-0.00399046717212
-0.143706902862
0.0322813354433
-0.0585222132504
0.141073003411
-0.0439810231328
0.156915023923
0.0435025840998
-0.0418414026499
0.0598216056824
0.0967364758253
0.0965019986033
-0.0872377753258
-0.070700392127
0.179638251662
-0.0185256525874
0.0384580530226
0.0705888494849
-0.0824122950435
-0.00878857914358
0.0978498309851
0.010726059787
-0.0789239853621
-0.00334936310537
-0.110158361495
0.0913084596395
-0.0953929722309
-0.0318881981075
-0.034325581044
0.0306494329125
0.0116307130083
0.07030903548
-0.0514756180346
0.0596375055611
0.0135346846655
-0.0811178162694
0.035251095891
-0.00870726816356
0.093852430582
0.0284131672233
-0.0802865922451
-0.0462034568191
0.0452155098319
0.113489635289
-0.181082174182
-0.0418610014021
-0.00668372539803
0.113491997123
-0.0408103391528
0.0392751395702
0.024322219193
-0.129733562469
0.0805508047342
0.00778907351196
0.0199146717787
0.0996680185199
0.0227049272507
0.0313402451575
-0.00200777198188
0.0344004072249
-0.0956107825041
-0.025712588802
-0.0135170593858
-0.0589437521994
-0.10264698416
-0.0352212972939
0.134418606758
-0.0673081874847
-0.000338795391144
0.162822261453
-0.0803508907557
-0.100858643651
0.0830284804106
-0.0286377500743
0.126393020153
0.0445469208062
-0.0153665803373
-0.111296102405
0.0548710487783
0.00749069917947
-0.0663821324706
-0.0856542885303
-0.0605220496655
-0.05632673949
0.0606737323105
0.0436235927045
0.106077902019
-0.114505805075
0.0743564292789
0.0672953501344
0.0140745397657
0.0585291422904
-0.0607578121126
-0.100465469062
-0.036099255085
0.0848228260875
-0.00801282655448
-0.0251324735582
-0.00304635008797
0.125307604671
0.010339868255
-0.0302787646651
0.0198596157134
0.0129073373973
-0.0772519335151
-0.132043346763
0.0324793756008
-0.100956022739
-0.0468726158142
-0.00904368516058
-0.0768537670374
-0.0392017289996
0.141225278378
-0.0942078605294
0.0569296553731
0.0545909181237
0.0529430285096
-0.122478552163
0.0410236269236
-0.0404935963452
0.0657838582993
0.0325749963522
-0.0721388459206
0.0441463924944
0.0491735637188
-0.085635818541
-0.0239730030298
-0.00816910620779
0.0380434691906
-0.0276600103825
-0.0827037990093
0.0325838960707
-0.0661499127746
0.0765696689487
-0.00284050451592
-0.00208727037534
0.0490332655609
-0.0521336346865
-0.137995406985
-0.0308301504701
0.0263118818402
-0.0911295339465
0.0425827875733
0.0789980441332
0.0767082422972
-0.0403675995767
0.0085146157071
-0.0659951642156
-0.109944924712
-0.0216427221894
-0.0770060271025
-0.0553933158517
-0.0904839709401
-0.0441337674856
0.00528630847111
-0.0662397295237
-0.175129666924
-0.020477142185
-0.0697495117784
-0.158420607448
-0.0493674203753
-0.109191514552
-0.129008740187
0.0106403762475
0.0261699184775
-0.0401967614889
0.0110368663445
0.0022013313137
0.0450874194503
-0.0455940924585
0.0732124820352
-0.1113775298
0.0301429163665
-0.0217385143042
0.0465813055634
0.0199421141297
0.00746112549677
0.0410062521696
-0.0618544630706
-0.0737428218126
0.125129416585
0.112276412547
-0.125614628196
0.0634283870459
0.0531223863363
-0.109674967825
0.186032012105
-0.0386573672295
0.00682188756764
0.0388238467276
0.0514638014138
-0.0675211250782
0.00300051528029
-0.0427364595234
-0.0501662380993
-0.0257851332426
0.0180439148098
-0.0281442981213
-0.0183111093938
-0.0566424913704
0.0437834374607
0.0287967324257
0.0206356197596
-0.0828426480293
0.0294380616397
0.101865328848
-0.000749767641537
-0.0706066563725
-0.0293210539967
-0.0433216132224
0.0506916344166
-0.00762696238235
0.0437463447452
0.048155400902
0.0613529868424
-0.0593123808503
-0.0115485936403
-0.0334613099694
-0.0545731708407
-0.00611256575212
0.0512632764876
-0.0150201031938
-0.0291530229151
-0.132285028696
0.00603936007246
-0.0769081786275
-0.000184812000953
-0.0337535366416
-0.156448125839
-0.0592825859785
-0.0246693082154
-0.0773558318615
-0.0973213389516
-0.0362390242517
-0.0485113151371
-0.0599112845957
0.0700820088387
0.0930944681168
-0.0531956404448
-0.082568205893
0.00966405775398
0.0722864419222
0.153009012341
-0.0324477739632
-0.0235029291362
0.0502420291305
-0.119657710195
-0.0952626168728
0.0117424614727
-0.0671852454543
-0.142209842801
-0.152886494994
-0.0345056056976
-0.036956384778
-0.0401548929513
-0.0557958371937
0.00850814767182
-0.105775766075
-0.120736345649
-0.0737976059318
0.0445589050651
-0.0533718205988
-0.00537809031084
-0.0145620340481
-0.138601526618
-0.0351433157921
0.0421596169472
-0.109548076987
0.00990937743336
-0.0543332844973
-0.0116062918678
-0.0542766451836
-0.0136020798236
-0.0178587343544
-0.0919654741883
0.0682181566954
-0.0734264031053
-0.11373860389
-0.0328163355589
0.061790343374
0.13984952867
0.117994621396
0.0491890087724
-0.111385658383
0.0423457548022
-0.109824664891
0.0562819875777
-0.0171341765672
-0.000975849747192
0.00979810673743
0.0817726105452
0.0351773351431
-0.0362170152366
-0.0286295842379
0.0291909072548
-0.0218790825456
-0.0570826157928
-0.0569493733346
-0.132086277008
0.0451540648937
0.0248277075589
-0.0129026062787
0.00971845071763
-0.0594155751169
-0.0175828617066
-0.0959779694676
0.00395496515557
0.0799048915505
0.0200886782259
0.0429398529232
-0.0213100388646
0.0272072963417
0.0395818129182
0.0416602045298
-0.105257660151
0.00694749644026
-0.0331413261592
-0.112714752555
-0.0682208389044
0.140586718917
0.065868973732
-0.0406153276563
-0.027425866574
0.0857289731503
0.0781367644668
0.0500621311367
-0.0208252798766
0.0780311003327
0.0338813848794
-0.033416993916
0.0980213284492
0.0445863679051
0.125555202365
-0.0280206315219
-0.00159379106481
-0.0134639851749
0.0795840397477
-0.0508957616985
-0.0757772773504
-0.0643277093768
0.108413487673
-0.0273222122341
-0.0801859498024
-0.0423769541085
0.0542666986585
-0.0202887132764
0.0870206356049
0.0114000104368
0.0884250625968
0.161021739244
-0.0121600208804
0.0576805286109
-0.00193608074915
0.0248015578836
0.0488888807595
0.0124872894958
-0.142014116049
-0.00337606016546
0.0132233286276
-0.0213275346905
0.0185252465308
0.0195160731673
-0.060783971101
-0.0660567507148
0.0840904861689
0.0742135941982
-0.0742894932628
-0.0508329160511
0.062738917768
-0.0784050747752
0.0699968710542
-0.0813965424895
-0.0752544924617
0.0829189568758
0.153119415045
0.0173109844327
-0.0960958451033
0.0670832395554
0.00431686360389
0.00054319773335
-0.0379391610622
-0.0688232406974
0.0198241975158
-0.0319584347308
0.0689694210887
0.0705158933997
-0.114233545959
-0.0714595913887
-0.0429544188082
0.021244969219
0.160483852029
-0.0711443573236
0.0335392542183
0.00996213592589
0.000466884404887
-0.0573991648853
0.00360575108789
0.0355933494866
-0.00967810023576
-0.00278983544558
-0.0747174397111
0.0359042547643
-0.0541750751436
-0.00303001864813
-0.012185184285
-0.0745767578483
0.0525512173772
0.0112454788759
-0.115180194378
0.0352578759193
-0.0266702212393
0.0305816624314
-0.0642250329256
-0.0189338903874
-0.111403025687
-0.00889123789966
0.0254105161875
0.115851871669
0.064290612936
-0.03812212497
0.0629561245441
-0.0723931416869
-0.0430183932185
-0.073416762054
-0.123283021152
-0.0403641536832
-0.0130998454988
0.0816824510694
-0.0595791749656
-0.0781170502305
-0.0899596437812
-0.0518201626837
-0.0441698096693
0.0885468572378
0.0359789393842
0.0730787739158
-0.0617816336453
0.0322752185166
0.149664700031
-0.0547122694552
0.07904535532
0.0725091323256
-0.0523597970605
-0.046766590327
0.099761210382
-0.0933251827955
-0.0751875191927
-0.0664566606283
0.0629750862718
-0.0329214520752
-0.0327471904457
0.0272625330836
-0.104058288038
-0.054654866457
0.0390024296939
-0.0142137203366
0.00164937856607
-0.0625867247581
-0.0955078303814
0.0666191503406
0.032994069159
-0.0286103431135
-0.0859933272004
0.0489378497005
0.0861516669393
-0.0679520145059
0.0568435564637
0.094395801425
-0.0345775671303
-0.11021655798
-0.0554806143045
0.00170381402131
0.0687141343951
-0.00455929012969
0.0507231503725
-0.0868402197957
-0.0164694674313
-0.0644843801856
-0.0328276753426
-0.0437138155103
0.0215690210462
0.0356049463153
0.017776498571
-0.0599797777832
0.0132372239605
-0.0272481106222
-0.0768123716116
0.048232767731
0.0146372513846
-0.0187803655863
-0.0662244334817
0.0810988172889
0.147504791617
0.0474769994617
-0.0277396384627
0.0833632349968
0.00525867193937
0.0035086912103
-0.131864637136
0.0162410214543
-0.0707746744156
-0.0262911878526
-0.0481043606997
0.0225240532309
-0.135366499424
0.107059933245
0.0657528340816
-0.0880212709308
0.0191288050264
-0.0424054563046
-0.056805614382
-0.0983305871487
0.00936869252473
-0.0722404718399
-0.169284537435
0.0583795793355
-0.0539997182786
-0.0366312637925
0.0553552508354
0.0253647454083
-0.138486340642
-0.0126651749015
0.00265369354747
-0.0808808356524
0.0123507222161
0.121898569167
-0.00296690664254
0.0214173030108
0.0239932052791
0.0155102610588
-0.0316161625087
0.0884085670114
0.0203738361597
-0.0301554445177
0.0670071467757
0.0245877522975
-0.0150375217199
-0.0832848474383
0.0202445294708
0.0545650161803
-0.0846357420087
-0.0201233047992
0.104231074452
-0.00568589149043
0.140479013324
-0.0375648513436
-0.0684404075146
0.00455957651138
0.0335649400949
-0.0214824285358
0.132867887616
0.0307399835438
-0.0689184963703
-0.0473334752023
0.0539201423526
0.00604635151103
0.0979353561997
-0.00013982791279
0.0794989690185
-0.0464577302337
-0.0371256954968
0.045772049576
-0.0611814372241
-0.167101606727
0.0503151118755
0.0324770435691
-0.0933958739042
0.106433548033
-0.0700708702207
-0.0147906746715
0.0908400639892
0.0261596497148
0.0536842495203
-0.0485807396472
-0.148095443845
0.110448256135
0.125186026096
0.067957662046
0.200887307525
0.0613966174424
0.152316838503
-0.122444882989
0.0686198547482
0.010881986469
-0.0354573689401
0.0312739349902
0.0669208094478
0.126238688827
0.0373298898339
0.066976852715
0.0582151152194
-0.0709742829204
-0.0805544406176
-0.0287737715989
-0.0494466014206
0.0268999710679
-0.0318596921861
0.0545838735998
-0.0339294970036
0.0275875311345
-0.00865122769028
-0.0580080747604
-0.161127254367
0.0351930893958
0.103606320918
0.0462278611958
0.100850023329
0.0214085597545
-0.0518414340913
-0.0490516982973
0.00953368935734
0.217018648982
-0.0967356413603
-0.0245598554611
-0.148929655552
0.143064409494
-0.0424098409712
0.0851044133306
-0.0550077594817
-0.0669211447239
-0.0739801749587
-0.0631111636758
0.0343252457678
-0.035704407841
0.119953751564
0.0764455199242
0.0481841117144
0.0850228443742
0.0425260700285
0.0513396337628
-0.00913332588971
-0.0520734749734
-0.0808413922787
-0.0533732511103
-0.0190465338528
-0.0240444820374
-0.0221724566072
0.0241480264813
0.0407734252512
0.14187105
0.0224894117564
0.0208480767906
-0.157499417663
-0.144984528422
0.032948218286
-0.0640095248818
0.0693325400352
-0.105033703148
0.11169230938
0.032164234668
0.0870899185538
-0.0122723001987
-0.0467772297561
-0.0114557957277
0.0181169584394
-0.00140854017809
0.171935215592
0.0437327586114
-0.00793130043894
-0.00992641411722
-0.0323818139732
-0.0701614841819
0.0448338016868
-0.0265055615455
0.0841279327869
0.0114305093884
-0.044305190444
0.00838863383979
0.0315294973552
0.100011356175
-0.00120851735119
0.0551003776491
-0.0767540708184
0.0342270210385
-0.0394707433879
0.0277932230383
0.0015334377531
0.0883155092597
0.0679298788309
-0.0250515453517
0.129772111773
0.016749445349
-0.0282051637769
0.0418467596173
-0.0267643369734
0.0620794929564
-0.0750776231289
0.0731234252453
-0.0139096174389
-0.0915827900171
0.149910718203
0.00815407931805
0.12050832808
0.0647604092956
0.0625123605132
0.0425676628947
0.0769427493215
0.0699944794178
-0.0753059238195
0.00245125219226
0.0120385522023
0.00871249381453
-0.012878254056
0.126477017999
-0.00625456683338
-0.0861532464623
0.00733976857737
0.0215050168335
-0.0808649659157
-0.0930120870471
-0.0681076347828
0.0359919965267
0.064537063241
-0.0638391152024
-0.0661045089364
0.0658335462213
0.00042617530562
0.0112285455689
-0.0340938232839
-0.060255292803
-0.118980661035
0.0137993823737
-0.0475317873061
-0.0993970111012
-0.0151007715613
-0.0623818002641
-0.0303279254586
0.0592143684626
0.015208048746
0.0890675112605
0.06008040905
-0.0292709972709
-0.076149970293
0.00910784956068
-0.0731558948755
0.0943313539028
-0.0576890483499
-0.145422965288
-0.0133730424568
0.0475498773158
0.0451474860311
-0.113132067025
0.0417340397835
-0.0664445385337
0.125289916992
0.0976426452398
-0.0304055754095
0.0723021924496
0.0989661663771
0.0220722109079
0.108445167542
0.0843550339341
-0.0674168840051
-0.0985173359513
-0.0960869714618
-0.0855441018939
0.114610664546
0.0330070331693
-0.0253096614033
-0.00838252529502
0.103549741209
-0.0660828575492
-0.0168966446072
0.0361779071391
-0.0344634540379
0.0985372960567
-0.0507420189679
0.0560332424939
-0.0128209628165
0.127865806222
0.00164705794305
0.0846272408962
0.023785283789
0.00643297797069
-0.0255676209927
0.0580087937415
0.112412855029
0.0944215506315
0.000149978441186
-0.0743174850941
0.0588295198977
0.0396111123264
-0.142183423042
-0.0155048565939
-0.026466967538
-0.0819498375058
-0.0952114760876
0.0369151905179
-0.0597185008228
0.0862954035401
-0.0824766680598
0.0171670224518
0.106118910015
0.0118902586401
0.0384208336473
-0.165557518601
-0.00717599363998
-0.00217917165719
0.088782005012
-0.0977772250772
-0.0231683310121
0.0943952351809
-0.0343885049224
-0.0192637573928
0.0902382656932
0.0454103648663
-0.12532453239
-0.117329142988
0.0967988446355
-0.0817604511976
0.0628358721733
-0.0304819811136
-0.0011751013808
0.02918301709
-0.117603890598
0.0613825507462
0.0866133719683
0.0329777151346
0.146041214466
-0.081885330379
0.114129781723
-0.0130489962175
-0.0907799899578
0.0747938901186
0.0501748621464
-0.00156810716726
-0.0212782043964
0.0527100786567
0.0509730502963
-0.0520634390414
-0.0488369055092
0.0841140896082
0.048920378089
-0.0112585900351
0.111584946513
-0.0287706106901
-0.0572662949562
0.0410086102784
0.0148912565783
-0.0636633634567
0.0839674696326
-0.109513193369
0.0305326022208
0.0017329629045
-0.0585860311985
-0.0303449742496
0.0470025241375
0.0654653757811
-0.035483431071
0.0405053310096
-0.0217929072678
-0.0434500984848
-0.0162103455514
0.0823966562748
0.0289069209248
-0.075251147151
0.0973607003689
-0.0848037302494
-0.0755986347795
0.078129991889
0.0714171230793
0.0311088636518
-0.0343907810748
0.0465275086462
0.103184856474
-0.100520737469
0.0950950980186
0.0870508551598
-0.0299707017839
-0.109595373273
0.0606495849788
0.136987552047
0.0736881643534
-0.0583265759051
-0.0732687935233
0.148530125618
0.0152766890824
-0.0675501227379
-0.0385851040483
0.0436906516552
-0.0447292588651
0.12936322391
-0.107673056424
0.0152590777725
-0.0826853737235
-0.0527024157345
-0.171221271157
-0.127992108464
0.103005670011
-0.0799575820565
-0.100054338574
-0.0366389937699
-0.0361715070903
0.143271610141
0.0982627049088
-0.00514441682026
-0.00338493008167
-0.00472059193999
-0.053369153291
-0.0220355950296
0.0945163592696
0.0583213530481
0.0185585897416
0.00511778285727
0.0901480317116
-0.121386945248
-0.101163715124
-0.0777780786157
0.0327099822462
0.00476683489978
0.0529501512647
0.0247043222189
-0.0774936676025
-0.0576004832983
0.0494418516755
-0.101125888526
0.142334923148
-0.117617316544
-0.0443117469549
-0.10044323653
-0.00918912887573
0.0246957577765
0.110992781818
-0.0123488595709
0.116943046451
-0.0299094505608
-0.0134048182517
-0.109346523881
0.0679033398628
-0.0878145247698
-0.0293123256415
0.0359914191067
0.189689040184
-0.00649441219866
-0.0204918049276
-0.0304316114634
0.0954994857311
-0.139235034585
0.00666055409238
-0.1126832515
0.033688981086
-0.0633138641715
0.0342845357955
0.0352844446898
-0.00782648380846
0.00512256193906
-0.0363455116749
0.0687590837479
0.0663243085146
-0.0600467287004
0.134833291173
0.144789546728
-0.0155747625977
0.0627138018608
0.086686603725
-0.131952509284
-0.0548264719546
0.0582157149911
-0.00131565891206
-0.0231685843319
-0.0198368243873
-0.0658086612821
0.0634276419878
0.0365849733353
0.0577223300934
-0.155508503318
-0.012712133117
-0.054307334125
0.0946891233325
0.00347068859264
-0.0124105066061
-0.0212848838419
0.0614269711077
-0.134850665927
-0.091831587255
-0.0743801891804
0.0383315384388
0.0408387631178
0.0498910918832
-0.0414345189929
-0.0579636879265
0.0340018048882
0.121376268566
0.0182077046484
0.127920761704
0.0569050684571
-0.00775785790756
-0.0609109587967
0.115057699382
-0.16365468502
-0.0702467039227
0.01396348048
-0.0354234613478
-0.0604354888201
0.00687765842304
0.0914742797613
-0.151479646564
0.0040512541309
0.0914160385728
-0.0705490410328
0.101575016975
0.0827155634761
0.0224870797247
-0.0165323652327
0.00994255486876
-0.0371483489871
0.0446506366134
0.164742335677
0.00905740447342
0.026211662218
-0.0323646515608
0.0518944747746
-0.126601353288
0.0564774051309
0.0513562560081
-0.0130659677088
0.0528830736876
-0.0624676607549
-0.0654749050736
-0.07406385988
0.0239136144519
0.0279293563217
-0.00558607839048
-0.0384155735373
-0.187917232513
-0.00601205369458
0.00429910467938
0.0789154842496
-0.0427692569792
0.0224896427244
0.0791862532496
-0.0263642407954
-0.123521789908
-0.00632051564753
-0.026238238439
-0.0312705598772
-0.0352344177663
0.00430903024971
-0.0299528408796
0.0599574632943
0.148529440165
-0.0676367729902
-0.124912276864
0.0743934884667
0.0580428615212
0.059906039387
0.00211137929
-0.0344065278769
0.0846680700779
0.0236527137458
-0.110145799816
-0.0293060876429
0.08556458354
-0.0674424394965
0.0625211298466
-0.0227337460965
-0.116569675505
0.0400154665112
0.00490899244323
0.00861167162657
0.0795723572373
-0.0433061234653
-0.109859481454
-0.0335417725146
0.0995781719685
-0.043657425791
0.0601973682642
0.0308765228838
0.00679598934948
-0.104595512152
-0.0531162954867
-0.0749274417758
0.0663356855512
0.0492144040763
-0.00981734041125
-0.0153746753931
-0.121719583869
-0.03824486956
-0.101232729852
0.0324170589447
-0.149645388126
0.0279767420143
-0.0166696254164
0.015231763944
0.0455641113222
0.021399224177
-0.0135634252802
-0.0700030997396
-0.0125431641936
0.0324125923216
0.0413021966815
-0.0074842334725
0.0382720530033
0.09664350003
0.0604327172041
-0.0469688214362
-0.0815373361111
-0.0901850610971
0.0179668199271
-0.0943635255098
0.0161838717759
-0.00366811011918
0.0839381068945
-0.0586560890079
-0.0120634278283
0.131523102522
0.000493448751513
0.122493483126
0.0957843139768
-0.079307153821
0.0426613539457
-0.108990557492
0.108581967652
-0.0965524315834
-0.0948341414332
-0.0838607996702
0.0784991234541
-0.0512810535729
0.014950402081
0.00445227185264
-0.0930707156658
-0.0700481981039
-0.0242370478809
-0.0102847618982
-0.0547236129642
0.0453246049583
0.0582744218409
-0.0999572053552
-0.0661111176014
0.0395363122225
-0.0110704591498
-0.0150337126106
0.00403682421893
0.0436984300613
-0.0488954782486
-0.0144222388044
-0.0370900593698
-0.0721931084991
0.071757927537
0.0590865090489
-0.124612428248
0.0551779307425
-0.086920209229
-0.147607594728
0.00554528692737
0.05943319574
-0.0886283740401
0.00703333877027
0.0739188119769
-0.0539785921574
0.027885697782
0.0382818393409
-0.0252087209374
-0.0454263985157
-0.0430808588862
-0.0320258997381
-0.0677703619003
0.0101761994883
-0.0448345728219
0.161137923598
0.0978978425264
0.0340467579663
-0.0797233209014
0.00597325759009
-0.00526201538742
-0.0404946319759
0.0408290810883
0.00745791988447
-0.0236732680351
-0.0415935218334
-0.0920230299234
-0.0850992798805
0.0947780907154
-0.079376578331
0.0725599899888
-0.0475524291396
0.0993790253997
0.0404567793012
0.00161709834356
0.13657528162
0.069781281054
-0.160210430622
0.0466807112098
0.0192481074482
0.0474443696439
0.0137465121225
0.0607593171299
-0.00881866272539
-0.0918861702085
0.0742735117674
-0.147747546434
0.0355573445559
0.0230387058109
0.078704200685
-0.0761834084988
-0.0146962683648
0.0230901986361
0.00948145985603
-0.0632844120264
-0.0110262483358
0.0271857138723
0.0137704089284
-0.0119284149259
0.0854907035828
-0.0395687222481
0.108088053763
-0.040889006108
-0.0755549371243
-0.00262611103244
0.0111726950854
-0.070506580174
-0.069515787065
-0.0852061957121
0.0148140080273
0.0149930156767
-0.121177822351
0.0168741550297
0.00415342720225
0.0642263367772
-0.0187450088561
0.0984672904015
-0.0775888115168
-0.0973594412208
-0.0564562082291
-0.00783796235919
0.0847308263183
0.00601053005084
-0.0806736573577
0.001764601795
-0.12470100075
0.0260731820017
0.0307735390961
0.0526892356575
0.0983001887798
-0.0327862277627
-0.0760162398219
-0.0655355602503
0.0806639641523
-0.0618873089552
0.0152744306251
-0.0195646211505
0.0552964098752
-0.0770610794425
0.0840681195259
0.0522891767323
-0.0168830901384
0.00126179913059
0.0262200254947
0.0276737436652
0.00747781898826
0.0661519765854
-0.0355499051511
0.0310846567154
0.0795285701752
0.0543557927012
0.0626665577292
-0.136670127511
0.07031365484
0.0608562119305
0.10066062212
0.083974994719
-0.00655541615561
0.153579384089
0.0304456148297
-0.0609717406332
-0.0745760723948
-0.0295396987349
-0.108502425253
0.075495198369
-0.164838865399
0.0394464172423
0.122995853424
0.0306709855795
-0.0259077008814
0.147013440728
-0.0032290420495
0.029865315184
0.0796254351735
-0.172057285905
-0.0292348060757
-0.0402445085347
0.176930218935
-0.139193370938
0.113806039095
-0.046304281801
0.0250094495714
0.0533812195063
-0.0397632718086
-0.0947689712048
-0.0425185710192
-0.0538180023432
0.10178732127
-0.00587445218116
0.0680645108223
0.0231698099524
0.00969721749425
0.0200603529811
0.105342797935
-0.064539834857
-0.0896345078945
-0.0534228160977
0.136525660753
0.0569489821792
-0.092085853219
0.0728091225028
-0.00972491689026
0.122736774385
-0.0730196684599
0.127867311239
-0.148929476738
0.0585041791201
0.00695894658566
0.0220644567162
0.137995392084
0.0605363920331
-0.0605493634939
0.0169944129884
-0.0911601781845
0.116495609283
-0.0326911844313
0.0942758619785
0.0108567140996
0.0649628639221
-0.0329197272658
-0.00200497824699
0.0676135271788
-0.0623239018023
-0.0342609062791
0.0734266862273
-0.00629590218887
0.0172513667494
0.0464082993567
-0.0846134871244
-0.117885716259
0.0563749372959
0.109456583858
0.0909677520394
0.0414016917348
-0.0135970730335
0.0951960086823
-0.165213897824
0.0222637727857
-0.0671638548374
0.0942413434386
0.00851125642657
0.00768231134862
-0.0217612367123
0.0928367301822
-0.0201845820993
-0.000594974728301
0.072210624814
0.0239311549813
0.0502220205963
-0.0661035701632
-0.151368558407
0.0260561332107
-0.0644865334034
-0.0787662938237
0.0245715603232
-0.040816552937
0.0546368956566
-0.0435452498496
-0.0201010089368
-0.0764487460256
0.021216288209
0.0611043311656
0.0181767717004
0.0319244302809
-0.155111163855
0.126937240362
-0.0637538135052
0.0500964336097
0.145648688078
-0.12724532187
0.180578872561
-0.0404656976461
0.106128275394
0.00292737502605
-0.0792288407683
-0.0717486664653
-0.0105627886951
0.1549564749
0.0147851994261
-0.069201298058
0.0293172579259
-0.0257889404893
0.109393879771
-0.104423165321
-0.104671083391
0.0246731825173
0.109146632254
0.10331235081
0.0379110276699
-0.151138529181
0.110529012978
0.0312495660037
-0.0259931571782
-0.0214143600315
-0.0459633357823
0.00126650335733
0.0751753151417
-0.0436384156346
0.0413600727916
0.111806228757
-0.0100699067116
-0.0602283738554
0.124223761261
0.0692307278514
0.0658104717731
-0.0241446625441
-0.00625164574012
0.0378591604531
-0.0662803053856
0.0431118793786
-0.0661832392216
0.0154644176364
-0.0632291957736
0.0672565624118
-0.0985788851976
0.115037314594
-0.0361807867885
-0.0260361339897
-0.022245451808
0.0247955750674
-0.0309790037572
0.169756412506
0.0341691225767
-0.099447466433
0.0900642573833
0.0496592894197
-0.0498547032475
0.0208950266242
0.133707568049
-0.0138600701466
0.0119022624567
-0.180253461003
-0.147140309215
-0.00295605347492
-0.0781000182033
-0.0190340131521
-0.0494986101985
0.0283895265311
0.104392193258
-0.111228562891
-0.0146519551054
-0.0451769568026
0.0462094321847
-0.173515066504
0.0257573928684
0.114132232964
-0.00110948609654
-0.0786961019039
0.0521722249687
-0.13189047575
0.115450255573
0.0416633859277
0.0459470748901
0.090456277132
-0.0535947792232
-0.0524480827153
0.0914597958326
0.0206755287945
0.185400024056
-0.04509286955
-0.00870002061129
-0.100893214345
-0.0163281038404
0.195407316089
-0.0723640993237
-0.036249589175
0.0248205177486
0.0204698201269
0.109663367271
-0.16092030704
0.0502023249865
-0.110440999269
0.102963104844
0.01134110149
0.01140590664
0.0315269418061
-0.0207786224782
-0.0113342395052
-0.0868754982948
-0.0421546064317
0.00742563931271
-0.0455658994615
0.0955245122313
-0.043696321547
-0.168191373348
0.0304064843804
0.0263823233545
0.0290587879717
-0.0518937557936
0.0402888134122
-0.0393191352487
-0.216884881258
-0.0493944175541
-0.0255695059896
0.0388190634549
0.0390881560743
0.00926702842116
0.119258418679
0.0128723429516
0.031826723367
-0.0784932300448
-0.0199584234506
-0.12009061873
-0.0011108154431
-0.0217814017087
0.0655226930976
-0.0340448766947
0.170835033059
0.0673497840762
-0.0364498049021
0.0163402371109
-0.0880275443196
0.0563650205731
0.0311594028026
0.0422559082508
0.0371522828937
-0.0542353838682
0.0196645520627
-0.0230406150222
0.0609926953912
0.0658816769719
-0.0721918419003
-0.0375430844724
-0.158106788993
-0.0544649921358
0.0266632474959
-0.0605198740959
-0.0159995630383
-0.0460402444005
-0.0905407518148
0.0706164166331
0.0662472769618
0.0157293379307
-0.13165217638
-0.050132676959
0.090080536902
0.0949969515204
-0.0220569688827
-0.013338024728
-0.151631057262
0.0385408289731
-0.0681642889977
-0.0712277069688
0.00310510769486
0.0415524281561
0.0818658769131
-0.0171637590975
0.0360038131475
-0.0166247207671
-0.0515508428216
-0.0561179444194
-0.134688675404
-0.00781783089042
0.0370734035969
0.0812198519707
-0.0291291493922
0.0283987522125
-0.0483492426574
0.0240517258644
-0.0830874443054
-0.0641570463777
-0.0160722788423
-0.078936226666
-0.0594215802848
0.0261220037937
-0.0580448769033
-0.0897893458605
0.123999774456
-0.0310076978058
0.0267442222685
-0.00283086067066
-0.154728204012
-0.0158993434161
0.0121201928705
-0.0873527154326
0.0689749717712
-0.00387150212191
0.0128372395411
0.0828256085515
0.0634505301714
-0.00820919312537
-0.0779575407505
0.0262648947537
0.155424430966
0.165110260248
-0.0737519785762
-0.00207061716355
-0.0173062738031
0.0917520150542
-0.0450875684619
-0.021987773478
-0.127561062574
-0.0644964203238
0.0576028898358
0.0215868148953
-0.0212887246162
0.0325812213123
-0.101110167801
-0.0978842005134
0.0695396736264
-0.0577480308712
0.0584903284907
-0.0907938554883
-0.0139802154154
0.104491196573
-0.101781174541
-0.0737049281597
0.0258686188608
-0.072464838624
0.080918751657
0.0772132501006
-0.126959323883
0.032482329756
-0.112725555897
-0.00350633380003
-0.0582426451147
0.00258765788749
0.0410773009062
-0.205152437091
-0.0257233772427
-0.0140101015568
0.0566739067435
0.0759143978357
0.00721392733976
-0.0586482770741
0.0972864404321
0.0373793318868
0.0201419685036
0.0677714496851
-0.113371148705
-0.0458447039127
-0.0757212042809
-0.0521619990468
0.0249486416578
-0.011478160508
-0.0938593298197
-0.0291133746505
0.100732848048
0.0182249713689
0.044112291187
-0.00542739592493
-0.0489904768765
0.0559714064002
0.102042496204
0.0297131426632
-0.0531399510801
-0.0593072809279
-0.0284732747823
0.0452014282346
-0.00417396752164
-0.0664939880371
-0.142271608114
0.0860385000706
0.0129342451692
0.0581798478961
0.13469004631
-0.0771436691284
-0.0340726412833
0.0759881138802
-0.0364121310413
-0.110010631382
-0.0906070843339
-0.00448960671201
0.0401437617838
0.0654039680958
-0.039851307869
-0.0689530819654
-0.135669276118
-0.0213626008481
0.121291086078
-0.0823355019093
-0.0176621079445
-0.0321647115052
-0.0699965730309
0.138905242085
0.00951850786805
-0.144539102912
-0.0759464651346
-0.133403018117
-0.133448556066
-0.0274952985346
0.103767417371
-0.0714696645737
-0.0255388133228
0.0767906308174
-0.0428250543773
-0.0971374884248
0.043485969305
-0.121820598841
-0.028319125995
0.0536003559828
-0.0185631494969
0.010652189143
-0.0684683173895
-0.0586868263781
0.00886988267303
-0.00508235907182
-0.0796941891313
0.033503588289
-0.106246598065
0.129846647382
-0.0479137860239
0.100259244442
-0.0281758885831
-0.00500563392416
-0.03022582829
-0.108509682119
-0.0159669294953
-0.224653452635
-0.116206251085
0.109520070255
0.0252465717494
0.00667280703783
-0.105065464973
0.0403110533953
0.104255475104
-0.0261201951653
-0.0716295391321
-0.052977591753
0.0345786325634
-0.0734188333154
0.0357764773071
-0.114447802305
-0.0426161065698
0.067859493196
-0.101523563266
-0.0777931213379
0.0166515018791
0.0545549951494
0.0448256283998
-0.11911726743
-0.00560601428151
-0.0211887340993
-0.0269695781171
0.0220388807356
0.0495967529714
0.017214205116
0.0108782900497
-0.0606789439917
0.0313347354531
-0.15462705493
0.0439767166972
-0.00548658659682
0.00392341054976
-0.107377514243
0.018050191924
-0.130783900619
0.0582905225456
0.052136965096
0.0487503968179
-0.0196681171656
-0.0682881474495
-0.0115462457761
0.0539186745882
0.0113895088434
0.0799756869674
-0.0132498154417
-0.115817353129
-0.118621945381
-0.0366409122944
0.00373456277885
0.12182276696
0.087573081255
0.0379653908312
-0.0749012306333
0.0294858645648
0.0336868986487
-0.127082228661
-0.0802615433931
0.00938157830387
-0.0607174634933
0.109844781458
-0.064931049943
0.0629250779748
0.0240080319345
0.0614084042609
0.0191726367921
-0.160649165511
0.0727562308311
