0.0380560606718
-0.005972111132
-0.0245132427663
-0.0434513874352
-0.027520660311
-0.0430088303983
0.00100197258871
-0.0452601797879
0.0133400522172
0.0509053692222
0.0502432584763
0.0238492153585
0.121263183653
0.0438586510718
0.11620182544
-0.00574058387429
-0.0776354894042
-0.0261840410531
0.0284799020737
-0.0142347579822
0.0620232410729
-0.0238572619855
-0.0377545841038
-0.0389941111207
0.00029427013942
0.0136320246384
-0.0252581387758
-0.033291246742
0.0110820224509
-0.0525474771857
0.0153102120385
0.0206887479872
0.0359781682491
-0.00259684817865
-0.0370929501951
-0.0693151950836
-0.0262750200927
-0.0793414488435
-0.0132636521012
-0.028544222936
-0.0478128753603
-0.0411117747426
-0.0757600590587
-0.0636275261641
-0.00453092157841
-0.0450908467174
-0.0191336851567
-0.0135724041611
0.0221021026373
-0.0594900660217
-0.0145748741925
0.0541109368205
0.0205375198275
-0.0272828619927
0.0140637382865
0.0398259945214
-0.0245160553604
0.0151269100606
0.0292730461806
-0.0285321120173
-0.0659610331059
0.0124364132062
-0.0249273013324
0.00395690323785
-0.030997434631
-0.00578822242096
-0.0398568473756
0.0742914676666
0.0279634594917
0.052438467741
-0.0097063370049
-0.0594437904656
-0.041224796325
-0.0603117197752
0.0479613952339
0.0314528420568
-0.00347950588912
0.0272323563695
-0.0380455553532
0.0404366180301
-0.035791285336
-0.0473229810596
-0.0605765879154
-0.0427482239902
-0.0294203050435
0.0248179063201
-0.0612846650183
0.0564244948328
0.060678716749
0.0330376699567
-0.0301266629249
-0.0677707493305
-0.0125104114413
0.0136885987595
-0.0695044547319
-0.0400696657598
-0.01566741243
0.0396325662732
0.0151126906276
-0.0230012498796
-0.043627563864
0.0395792089403
-0.0171575583518
-0.00970442499965
0.0058975960128
-0.00573032768443
0.0445363782346
-0.0281842183322
-0.0314164087176
-0.0458914786577
0.00792648363858
0.105238892138
0.0705471560359
0.0538222938776
0.0259952191263
-0.0493340753019
-0.0543644577265
0.0177310369909
0.0363274514675
0.0186089016497
0.0538647249341
-0.0454010292888
-0.00595747120678
-0.0208359546959
0.00289347418584
-0.0399875901639
-0.0254325456917
-0.0265815015882
0.014567932114
-0.0157457888126
0.039213873446
-0.0443568229675
0.00319034373388
0.0350069738925
-0.0343909710646
-0.0498283021152
0.044665325433
0.0102396178991
-0.0599288605154
-0.00701908115298
0.0367103181779
0.00389156257734
-0.0372637733817
0.0564018972218
0.0335001610219
0.0522000268102
0.0103961741552
-0.00774574978277
0.0306017603725
-0.047652322799
-0.00920155830681
-0.0249927677214
0.054133169353
-0.0547947213054
-0.0381355658174
0.0381851866841
0.134975641966
0.135284289718
0.0627075582743
0.114484451711
-0.0157318729907
0.0648305565119
0.023484762758
0.0556327402592
0.0826379954815
-0.0237005632371
0.0246208775789
-0.0839890390635
-0.055553779006
-0.0889621824026
-0.0177615657449
0.0836872234941
-0.0409050881863
0.0366206504405
0.0264726299793
0.00359077891335
-0.034240372479
-0.0592835247517
-0.0476514697075
-0.0201383177191
0.0522402115166
0.0452222451568
0.018938427791
-0.0356022790074
0.00114308600314
0.00598744209856
0.0494190640748
-0.0246061589569
0.00136346789077
-0.0531928278506
-0.0417506024241
-0.0606285072863
-0.01797199063
-0.0379064902663
0.0577526949346
-0.0130410157144
0.00719603942707
-0.0247215516865
-0.0728540122509
-0.0234281662852
-0.0244592707604
-0.0149364788085
-0.0271517951041
0.0394881814718
0.0138477971777
-0.0423114784062
0.0350882634521
0.0271547902375
-0.023981846869
0.0352402105927
0.00501375086606
-0.0191953796893
0.0386494211853
-0.0465969182551
-0.0591371096671
0.0331455990672
-0.0227915514261
0.0301153641194
0.021853229031
0.0387682765722
0.0168264657259
-0.0141479354352
0.0246025007218
-0.0432498045266
-0.0146141331643
-0.0169615391642
0.0362126678228
0.0144516425207
-0.0837500095367
0.054647769779
0.0255827214569
0.0104713914916
-0.0615950115025
0.0084512848407
-0.0638363733888
0.00149592745584
0.0182660054415
0.0676254034042
0.053382370621
0.0091224424541
0.00905965548009
0.0450328104198
0.0493717752397
0.101188972592
0.0613352805376
-0.0621216446161
-0.00737891206518
-0.0753649547696
0.049739331007
-0.0153992176056
-0.00583731383085
0.0236279610544
-0.117179103196
-0.063882149756
-0.0577460192144
0.0614731498063
-0.0245003029704
-0.0235446114093
0.0270736198872
-0.00645308149979
-0.0392844192684
-0.0181803368032
-0.0452598743141
-0.0102018639445
0.0189366340637
-0.0470028817654
0.0484352894127
0.0962825492024
0.0412500612438
-0.02654366754
-0.0777315199375
-0.00829553510994
-0.0475328974426
0.0138392513618
0.0381905548275
0.0607747025788
0.0142837325111
-0.0332404524088
0.0228784251958
-0.0446133650839
-0.0272530913353
0.0556682758033
-0.049354236573
-0.0107964966446
0.0215494092554
-0.00448751915246
0.0475626960397
-0.0322078354657
0.00469622574747
-0.051920324564
-0.00437949737534
0.0942159816623
0.10344813019
0.0696435496211
0.114260032773
0.0345079526305
-0.0277368240058
-0.0292098596692
0.0401847437024
-0.00535047892481
0.0378945060074
0.0532942079008
0.0581150762737
0.0286178961396
-0.0667766705155
0.00459758518264
-0.0712469443679
-0.0282023344189
0.00348867825232
-0.0338140875101
-0.0400755666196
0.0236257780343
-0.0605150386691
-0.0426982417703
0.0262053236365
-0.00922289956361
0.0419082641602
0.0352516621351
0.0102699268609
-0.00385418091901
0.0238933712244
-0.0514433830976
-0.04689508304
0.0716242343187
0.0310672782362
-0.0443719401956
-0.0279374793172
0.00703316135332
0.0268820337951
0.054863974452
0.0224397480488
0.0400325208902
-0.0337918810546
-0.0130139123648
-0.0422868207097
0.0592404492199
0.0171854235232
0.0862379595637
0.0772578939795
-0.0249809790403
0.0740811377764
0.065582677722
0.0486285015941
0.0189459305257
0.032016184181
-0.00092747079907
-0.0618475526571
-0.0335617847741
-0.0396253280342
-0.0460276305676
-0.0423166081309
0.0248375441879
0.012071265839
-0.0277403369546
-0.0216276459396
-0.0320836864412
-0.046880107373
-0.0729643404484
-0.00364701892249
-0.0229915808886
-0.02938869223
-0.0345994234085
-0.0779138430953
-0.0346959643066
-0.0500316694379
-0.0625973120332
0.0208803527057
-0.0500214025378
-0.0105270929635
0.00704150646925
0.0531949326396
0.0107093853876
0.0390896126628
-0.0205826852471
0.00844760518521
-0.0320938974619
0.0316152460873
0.0376106835902
-0.00606477539986
-0.0309287905693
0.0481008663774
-0.0643725171685
-0.0405087955296
-0.077083915472
-0.0886684134603
-0.00280075264163
0.0956215411425
0.0167434364557
0.0194263681769
0.0557659268379
-0.0501794777811
0.00129767751787
-0.0579177103937
0.0709622204304
0.0149347828701
0.0673385411501
0.0544583238661
-0.026593780145
-0.000241056957748
0.0289810299873
-0.0454773232341
-0.00213529681787
0.030498797074
-0.00825478881598
0.0363588221371
0.0213312357664
0.0706532895565
0.0120546668768
0.0820497944951
0.0626840740442
-0.011145609431
-0.0661596879363
-0.0770106837153
0.0128404656425
-0.0611341521144
0.0216159783304
0.0160757768899
0.0804928690195
0.0365263298154
-0.0478057637811
0.0723403021693
-0.0259319785982
0.0514387488365
-0.0617024749517
-0.00713102798909
-0.0496891923249
0.021564502269
-0.00687177106738
0.0251834522933
0.0303274840117
0.06123425439
-0.0328479707241
0.0115828933194
-0.0802291929722
-0.0760420486331
0.0418876223266
0.0431089326739
0.111635632813
0.081058897078
0.0553209111094
-0.0220961291343
-0.0805523395538
-0.0271925218403
-0.0377594716847
-0.0114664090797
-0.0104197263718
-0.0185897815973
-0.0269466694444
0.058135099709
-0.0260366965085
0.0101105012
-0.0335577502847
0.0291800294071
0.0251619089395
-0.0289872121066
0.0529390498996
-0.0235700123012
0.030304973945
-0.00585295911878
0.0126855205745
0.00699184695259
0.00113642239012
0.00840014405549
-0.0724386796355
0.00966785382479
0.0309405047446
0.0623779818416
-0.0110350502655
0.00735550094396
0.0645150914788
0.0448046028614
0.0395098924637
0.0532598309219
0.0150287877768
-0.0151405567303
-0.000734389701393
0.0146961472929
-0.0577928312123
-0.0361425131559
0.0465043745935
0.00975026842207
-0.0844981893897
0.0184204950929
0.0186891984195
0.0334522649646
0.0677692964673
-0.00786240398884
0.024142049253
0.0573658198118
0.058891210705
0.0147885587066
0.0148709435016
-0.00730109028518
0.0590707249939
0.0736006870866
-0.0748520717025
-0.0620883703232
-0.0619571320713
0.0257319025695
-0.0619277693331
-0.0662990957499
-0.0600439570844
-0.0517671406269
-0.0689897835255
-0.0546014457941
-0.0846740975976
-0.0438856594265
-0.000754087290261
0.0677481070161
0.0500070936978
0.0291062239558
0.0512161664665
0.0104702357203
0.021164143458
0.0229583214968
-0.0619673840702
0.0108485529199
-0.0115018980578
0.0604420378804
-0.0571040809155
-0.0209085270762
0.025515159592
8.32409277791e-05
-0.0414599999785
0.0355720892549
-0.0147039191797
-0.0540152154863
-0.0914671719074
0.0717809796333
0.109619997442
-0.0316469222307
-0.0483677536249
0.0671883895993
0.0442464835942
0.0552056059241
-0.0106068085879
0.0589005239308
0.101531684399
0.0413717776537
-0.0572340711951
0.0111898602918
0.0281499139965
-0.0319716259837
-0.0856034383178
-0.107402719557
0.0200491994619
0.00138340855483
-0.0682363584638
-0.0367364324629
-0.0300709437579
0.0476766191423
0.0434124134481
0.0593988373876
0.0303898584098
-0.05969536677
-0.0416355580091
-0.0369814224541
-0.00172672152985
0.00699930591509
0.0727666094899
-0.0191665999591
-0.0411509536207
0.0179393533617
-0.00314255361445
-0.0167681258172
0.0365295596421
-0.00175653886981
-0.0388691648841
0.0690337866545
-0.044305164367
-0.0682872831821
-0.0313543565571
0.0433816760778
0.0240954495966
0.0328127332032
-0.0538211427629
-0.0190307945013
0.00859641283751
-0.0273360013962
-0.0106290429831
-0.0107501931489
0.0269477888942
0.00360312080011
0.0275344457477
0.00658767018467
-0.0105641447008
0.065685801208
0.0145340636373
-0.0686551555991
0.00928353238851
-0.0132393343374
0.0397781655192
0.040755674243
-0.0149066178128
0.0466054975986
-0.00894745346159
0.0215822607279
-0.058985888958
-0.00234268186614
-0.0704127252102
-0.0496760010719
0.0152160655707
0.0189387686551
0.0257356408983
-0.0230494681746
-0.0508945658803
0.0414698161185
-0.00327126751654
0.016753738746
1.29907130031e-05
0.0225183926523
0.0142289865762
-0.0268925540149
-0.0601628348231
0.0649108141661
-0.0508126951754
-0.0107070496306
0.00815139058977
0.0592773891985
0.0183962844312
-0.0750943571329
-0.0414430871606
0.0191060360521
-0.031905375421
0.0182884726673
-0.0127476463094
-0.0244286861271
0.0851190462708
-0.0170244239271
-0.0148056838661
0.0100095048547
0.0662374719977
0.0803111866117
0.0777207687497
-0.0319233126938
0.0758054181933
0.0569347068667
-0.0139847937971
0.00522090634331
0.038108933717
-0.00882605742663
0.0132598755881
-0.0469904392958
-0.0400335900486
0.0161928217858
-0.0384606122971
-0.0352978482842
-0.0379066094756
0.0135784475133
-0.0588238723576
-0.0347069315612
-0.0800432562828
-0.0302873570472
0.0832560881972
0.0768731087446
-0.0483750775456
-0.0273447502404
0.065547414124
0.119873948395
-0.0377052947879
-0.0146063072607
0.117393516004
0.100450895727
0.0197447631508
-0.00581105053425
-0.0064815278165
0.0574325360358
-0.0428509563208
-0.0553838610649
-0.0661649182439
0.00423892168328
0.029368467629
-0.0710395202041
-0.0360772311687
-0.053055755794
-0.0571089312434
-0.056320823729
-0.0490228831768
-0.00910997763276
0.0303121525794
-0.0540874265134
0.0470561012626
0.0458819307387
0.0649753883481
-0.0691173896194
-0.0365641787648
-0.0251160319895
-0.0166973229498
-0.0414252914488
-0.0212578363717
0.0248348582536
-0.034127175808
-0.0344768501818
0.0314569622278
-0.0108890067786
-0.0628595724702
-0.0262457598001
0.0520590431988
-0.0459599979222
-0.024343971163
-0.00180823542178
-0.0408173538744
0.0699668005109
-0.0139577453956
-0.0190552957356
0.00794620160013
0.0571518503129
0.067444011569
0.0342698171735
-0.0434036515653
0.0189151372761
-0.0344727635384
0.0422273539007
-0.0421049147844
-0.0237527098507
0.0131800007075
-0.0470105446875
0.0303502753377
0.0579659678042
-0.0323225706816
0.0166834425181
-0.0783647373319
-0.0178370866925
-0.0437189303339
-0.00629137875512
0.0322260260582
0.0245451666415
-0.0289013516158
-0.0440064556897
-0.0770050063729
0.0141028622165
-0.0585960261524
-0.00730975251645
-0.0679021328688
-0.00140229531098
-0.0450159981847
0.0205668956041
-0.0830230265856
-0.0581938698888
-0.0112204812467
-0.0224306285381
0.00923850014806
-0.0528069883585
0.0599494427443
0.0365577042103
-0.0674561336637
-0.00100570230279
0.0361311919987
-0.0612472146749
-0.0418011583388
0.00637814123183
-0.036129090935
0.00988682918251
-0.0458523519337
-0.0321894176304
-0.0470021925867
0.0245741494
-0.0141674848273
-0.0334124974906
-0.0248556658626
-0.0817199721932
-0.0886664316058
-0.0740319490433
-0.0200764741749
0.0254343226552
-0.0285843741149
-0.0735519602895
0.0546868629754
0.0526456087828
0.015647649765
0.00713795423508
0.0164928734303
0.000412456283811
-0.0503124669194
0.0351542457938
0.0260417368263
0.0374998450279
-0.0169727541506
0.0544145740569
-0.0295157395303
0.0828631669283
0.0564014278352
0.0292293801904
-0.0559601895511
0.0820461809635
0.0309647750109
-0.0816109552979
-0.0403485037386
0.0387827344239
0.0180972013623
-0.0572047531605
-0.0143967624754
0.0532543547451
0.0539589188993
-0.0207877345383
-0.0899922251701
-0.00790110602975
0.0319618545473
-0.00384639413096
-0.0297755878419
-0.0346159487963
0.0244125165045
0.055955413729
0.0307780932635
-0.0354802198708
-0.014440972358
-0.0408304035664
0.0499724857509
-0.0143192913383
-0.0742584019899
-0.0172046702355
0.0197895113379
-0.0427332520485
-0.000474252097774
-0.0577612668276
0.0365335047245
0.0377626679838
0.043210528791
-0.08024225384
-0.0116985114291
0.0555928535759
-0.0211288928986
-0.0319802239537
-0.0338520556688
0.0251804310828
0.0763419270515
0.0585952438414
0.0035801269114
-0.0390906631947
0.00640969816595
0.0501520335674
0.00250092498027
-0.0317031033337
-0.0200060140342
0.0563983991742
-0.00292420131154
-0.0164756067097
-0.0754392519593
0.0240537021309
0.0383335985243
-0.0342242345214
-0.0444899648428
-0.0925483852625
0.0432839728892
0.0621780194342
-0.0331819914281
-0.0257475972176
0.047568038106
0.00579341640696
0.0175908468664
0.0252117812634
0.0217521339655
-0.0643056109548
-0.114826649427
-0.0400141999125
0.00314203021117
-0.0626103356481
-0.0252063479275
-0.0196124035865
0.000314294768032
0.029477186501
-0.00635097967461
0.0110030462965
0.0767422094941
-0.0375566780567
0.00669127237052
-0.0134900966659
0.0106691960245
0.0184368155897
-0.00425403704867
-0.0293664634228
-0.00360363582149
-0.0429579094052
-0.0200718194246
0.0510579198599
0.0375656336546
-0.0567912124097
0.00504116388038
-0.106457442045
0.00923479069024
-0.0625831708312
-0.0695841014385
0.00600575888529
-0.0493343882263
-0.080501049757
-0.0612772665918
-0.00478869955987
-0.0860011875629
-0.0380436629057
0.0120208254084
-0.0569820553064
0.00596496090293
-0.023009089753
0.0165576916188
-0.00296456203796
-0.056356344372
0.0349371135235
0.0140227302909
-0.00335617712699
0.00816343165934
-0.0563095621765
-0.0138263683766
0.035085786134
0.0247805286199
0.0239600557834
0.0311145093292
-0.00694769714028
0.0159894265234
0.0600270926952
-0.0357575938106
-0.0413214378059
-0.0403434187174
0.00886541604996
0.0605181641877
0.05144392699
-0.061258405447
0.0407088175416
0.0418874844909
-0.0321838669479
0.0149621851742
0.0287815500051
-0.0303889270872
0.0554215721786
-0.031319078058
-0.0493054874241
-0.0432137511671
-0.0404043644667
-0.0495847016573
-0.0738043561578
0.0607966780663
0.00396754732355
-0.0216316245496
-0.0124153122306
0.0298284050077
-0.0316615849733
-0.046788431704
0.0243730228394
0.0609645731747
0.0732224062085
0.0284202620387
-0.0570364668965
-0.0323920994997
0.0292305089533
0.00618349574506
0.0767731666565
-0.0577180758119
-0.0115820122883
0.0305706039071
0.0204921867698
-0.0120528638363
0.0318710915744
-0.0472236052155
0.0282069891691
-0.0546636469662
-0.0281084999442
0.0338558740914
-0.0195917077363
0.000150334162754
0.00820550974458
0.00104680401273
-0.00328871980309
-0.0149201983586
0.0187624916434
0.00379880936816
-0.0282066427171
-0.0142965866253
-0.00824757479131
-0.0155684510246
0.0357766672969
0.0679966509342
-0.0698903352022
-0.0558663979173
0.0586730390787
0.0162068195641
-0.0414925999939
0.0719042420387
0.0738866329193
0.0551406778395
-0.0123894903809
-0.0589408241212
-0.00773651059717
-0.0248470939696
-0.0753878355026
-0.0423322953284
0.0229256786406
-0.0584505870938
0.00919060502201
-0.00154510408174
0.0414297729731
0.0264185685664
-0.018622437492
-0.00632867729291
-0.0508450567722
-0.0498568676412
-0.0113390907645
-0.0703840479255
-0.0610338412225
-0.0797987580299
0.0156793817878
-0.0333631932735
0.00467179901898
0.0261200964451
-0.0289102718234
-0.0551913976669
0.0103762326762
-0.0542518533766
-0.0362496189773
0.0174408312887
-0.0305285546929
-0.0194894634187
0.0384138152003
-0.0178541820496
0.0140937808901
0.031232252717
0.00389396818355
0.0431010276079
0.0147183798254
-0.018105905503
0.0323603190482
-0.0158947296441
0.0101063912734
0.0288362298161
-0.0636308565736
-0.0512525960803
0.0314207486808
-0.0421202518046
-0.0139882909134
0.046272020787
-0.0530391968787
-0.0676074102521
-0.0166024770588
-0.00744857313111
0.0897745862603
-0.00559066608548
-0.00638645235449
0.0361697375774
0.0230405796319
0.0660554841161
-0.0225207768381
-0.0484598390758
-0.0251425039023
0.0204119887203
-0.026554999873
-0.109855778515
-0.020262895152
-0.0250607375056
0.0522807352245
0.00877674296498
-0.0566639378667
0.0209793318063
-0.0594242140651
-0.0574894063175
-0.0237080790102
-0.00143037282396
0.0432194545865
-0.0700704827905
0.0422675386071
0.0356841161847
0.0556956902146
-0.0387723222375
-0.0281576253474
-0.00374890863895
-0.0388933680952
-0.0100289816037
-0.0656475871801
-0.0729341283441
-0.0249108094722
-0.0165410730988
-0.0504217594862
-0.0150145385414
-0.0645945817232
0.00533638801426
-0.00143074931111
0.0668625161052
-0.0138796633109
0.0120546575636
-0.0559910275042
-0.0313498973846
-0.0406277030706
-0.0590257979929
0.0556253828108
0.0504928603768
-0.0514043569565
-0.0556246861815
0.0334903933108
-0.0216288082302
0.0353678204119
-0.084318742156
-0.0245884731412
0.0592200830579
0.0230861864984
0.0545606352389
0.0353814586997
-0.0611051358283
0.0311140995473
0.028161065653
0.0183936581016
-0.051890026778
0.02616289258
-0.00863158050925
0.0241209454834
0.0326057672501
0.0689723491669
0.00464122509584
0.0139830904081
0.0536544471979
0.0690177902579
-0.0180802606046
-0.00607328116894
-0.0490791574121
-0.00822419766337
-0.0302881579846
-0.0333340652287
-0.0494237355888
-0.0450779609382
-0.0722854286432
0.0243245083839
0.00567165669054
-0.0501280277967
-0.0822042748332
-0.0655151084065
-0.0232790764421
0.0455397740006
-0.0259278006852
-0.0487183369696
-0.0353594645858
-0.025408230722
0.0191228520125
-0.000178597620106
-0.00569613464177
0.0636769086123
-0.0591840259731
0.0304044261575
-0.0462171807885
0.0627605840564
-0.047900352627
-0.066189236939
0.0277369134128
0.0389169044793
-0.041792742908
-0.0641299113631
-0.0479501150548
0.0364130437374
-0.0239126253873
-0.002063033171
-0.0113488920033
-0.0565795823932
0.0160892754793
-0.0702442899346
-0.0623837336898
0.0109628830105
-0.0727029368281
-0.0978016778827
-0.0795200690627
-0.123711071908
0.0271475538611
-0.0212470851839
-0.0190340895206
-0.0244520809501
-0.049015302211
0.0144587755203
-0.0450315661728
-0.0453987643123
-0.070397041738
0.0657612979412
0.0123090408742
-0.00841879844666
-0.0336475744843
0.0132909426466
-0.0616329908371
-0.00964921526611
0.0012254465837
-0.000873815733939
0.0602644830942
0.0687971934676
0.0199322570115
0.0051539442502
0.00928608607501
-0.0360944159329
-0.0556982457638
-0.0103062624112
-0.0188522916287
0.0248896740377
-0.0106959417462
-0.0722990781069
-0.0499224811792
0.0447366721928
-0.0335484370589
0.00113591493573
-0.0750012472272
-0.00769658759236
-0.0728442892432
0.0078075719066
-0.0750812143087
-0.0494529083371
-0.0577740333974
-0.0181344300508
0.0139844175428
-0.0622235238552
-0.0224537383765
0.0528578162193
-0.0582822524011
-0.0598368309438
-0.049518790096
-0.0551745742559
-0.0581783205271
0.00576554890722
-0.0422354154289
-0.0647966265678
-0.0264628697187
0.0444115847349
-0.0591859035194
-0.0277746133506
0.00785934180021
-0.0541861057281
0.0243915133178
-0.069844417274
-0.0465281493962
-0.0559086240828
-0.06332282722
0.0536698698997
0.00859236717224
0.0497459843755
-0.0678169354796
0.00329542439431
-0.041878964752
0.045589491725
0.0268969796598
0.0121620800346
-0.0104873301461
-0.0532604791224
0.0158238001168
0.0222803000361
0.0147383883595
0.0327867865562
-0.073026292026
0.0105493059382
0.0413393415511
-0.0662327855825
-0.0596794821322
-0.0301894787699
0.00762172043324
0.0359477065504
-0.039195895195
-0.0685987323523
-0.0643384307623
0.033505551517
-0.0373968556523
-0.017190573737
-0.0609793737531
0.00728793488815
0.0697208419442
0.0144705865532
0.0597360990942
0.0677361264825
0.0485714226961
0.0754923895001
0.0911859050393
0.02751554735
-0.024329572916
-0.054310914129
0.0385054573417
-0.0446714386344
-0.0104365097359
-0.0839084386826
-0.0801718011498
-0.0305965375155
0.0224992744625
-0.0387966148555
0.00834116712213
-0.0768043026328
-0.0131924077868
-0.0294592231512
0.0189259629697
-0.0497759208083
0.0522563792765
0.000737466441933
-0.0363904982805
0.0435359068215
0.0621323101223
0.010253473185
-0.0258332267404
0.0126553392038
-0.0172628574073
0.0291091911495
0.00557163404301
-0.0365837030113
-0.00120659044478
-0.0493948832154
-0.0830128863454
-0.0335711501539
0.0363814607263
-0.0405022054911
-0.0470777228475
-0.0800291597843
-0.0498942919075
-0.0580999664962
-0.00765180028975
-0.025239828974
0.0150335291401
-0.0361756943166
0.00216746935621
-0.0947999730706
0.00678926659748
-0.00214630481787
0.00888720713556
0.00246643950231
0.0320705063641
0.0257365144789
0.0253720935434
0.0459140986204
-0.0167111251503
-0.0772588178515
-0.0472688265145
-0.0227097850293
-0.03807336092
0.0431029461324
-0.0233859289438
-0.0265594422817
-0.0457072742283
0.0625306516886
0.0255159623921
0.0265871975571
-0.0057694488205
0.0198068767786
0.0228786487132
-0.024675829336
-0.0644041150808
-0.0572357773781
0.0563935674727
0.0349421985447
0.0262997467071
0.030865047127
0.000749904720578
0.00178480905015
0.0129465060309
0.0319408588111
-0.0252607259899
0.0523700006306
0.0147498995066
0.0281783379614
-0.0424941405654
-0.0630048364401
0.0459903515875
0.0585728622973
-0.0109275560826
0.0331478714943
-0.0346839800477
-0.0283668935299
-0.00092429225333
-0.0951665863395
-0.00945857260376
-0.0156477112323
0.018974237144
0.0515911057591
-0.109502911568
-0.10383490473
0.034936606884
0.0244375765324
0.0158668607473
-0.0526001825929
-0.0735795274377
0.0853831171989
0.00506269373
-0.0197103656828
-0.0699075758457
-0.00989147461951
-0.0294716581702
-0.0039017975796
-0.0369141213596
-0.0571678243577
-0.0492251478136
0.0220893584192
0.0408883467317
0.0249264147133
-0.000269859854598
0.0364365912974
0.00514067430049
0.0572597458959
-0.0027264172677
-0.0818306207657
0.0279228277504
-0.0536707602441
-0.0159781407565
0.0337347984314
-0.0129397362471
-0.0565012209117
0.046045448631
0.0213061962277
0.0434569381177
-0.077495791018
-0.0445662438869
0.00429431861266
0.0551287196577
0.00195835717022
-0.0121364602819
-0.047843568027
0.0142797166482
0.0117555717006
-0.041237089783
0.0529953762889
-0.0156213976443
-0.0473164543509
-0.0242497324944
-0.0177216976881
0.0483829602599
0.0527191907167
-0.044706415385
-0.0699530094862
-0.0308645162731
0.0113808708265
-0.00544426776469
0.0222051218152
-0.0425428189337
-0.0126014314592
-0.00506790587679
-0.0261621866375
-0.0680432915688
0.0523075312376
0.0506680905819
-0.00528954667971
0.0286069102585
-0.00352553464472
-0.0347213037312
-0.000893316755537
-0.00309934047982
0.0557130947709
0.00187765061855
-0.0152051541954
0.0063838949427
-0.0157617274672
0.0410623811185
-0.000278580235317
-0.0473154224455
0.0321741700172
0.0370899401605
-0.0519998334348
-0.00485171098262
-0.0478946380317
-0.0292426478118
-0.0244376640767
0.0110414717346
-0.0588788427413
-0.0411293208599
-0.0755375623703
0.0227439180017
0.00726384390146
-0.063351534307
-0.0745266824961
0.0230218321085
0.0124990632758
-0.0380201861262
-0.0136576071382
0.0493017584085
-0.0603849776089
0.0519826933742
-0.0370173193514
0.0083251260221
-0.00567165436223
-0.0439464859664
0.0277990549803
-0.0391102917492
-0.0527236647904
0.0254697110504
0.0144548937678
0.0170747041702
0.0132821081206
-0.00902084447443
0.0495765656233
-0.0404126569629
0.0257835704833
0.0583533830941
-0.0015068204375
0.0174790006131
0.00903393048793
0.0213593076915
-0.036417093128
0.0449040979147
-0.00819529592991
0.000164449287695
-0.0421010442078
-0.052438955754
-0.0609071142972
0.0253211501986
-0.0102135455236
-0.0496365055442
0.0116114309058
-0.0862809047103
-0.00399112747982
-0.0737696513534
0.0425306297839
0.0565505847335
0.0324140377343
-0.0152362920344
-0.0787442103028
-0.0986215621233
-0.0611015558243
-0.057316146791
-0.0876667499542
-0.00143821921665
0.021208582446
0.0425843186677
0.0526096448302
0.0143534345552
-0.042908038944
0.00179260293953
-0.078973762691
0.0652464926243
0.0346460677683
0.0496340431273
0.0141659239307
-0.0485292561352
-0.0314513072371
0.0249666590244
-0.0337073877454
-0.000167113408679
0.0507499314845
-0.0493831150234
-0.0166153684258
-0.0184497013688
0.0310537144542
0.0457539819181
-0.0112982494757
-0.0665928721428
-0.0203436948359
-0.00926755554974
-0.00682928785682
0.0116253122687
-0.0849758610129
-0.038524094969
-0.0823662504554
-0.0105006964877
0.0340444743633
-0.032965451479
-0.0228523910046
-0.0493417792022
-0.072758808732
0.0377104431391
-0.0213575270027
-0.00337347644381
-0.0228412859142
-0.0647622123361
-0.0981795117259
-0.0291355811059
-0.0804169401526
0.0079096769914
-0.0215342771262
-0.0140867931768
-0.01312074624
-0.0231700148433
-0.0409146398306
0.042678732425
-0.0510130040348
0.0534758716822
-0.0214591138065
-0.0661453530192
-0.073729917407
-0.0429052449763
0.0708790495992
0.0360512472689
-0.0387768931687
-0.0312247723341
0.0139010921121
-0.0192938763648
-0.0638870149851
-0.043142221868
0.0320579893887
-0.0283185876906
-0.0159391034395
-0.0750433653593
-0.0315063856542
0.0295862350613
-0.00216964120045
-0.0357027538121
-0.0334686376154
-0.0282248035073
0.0122892707586
0.0274020992219
0.0380762405694
-0.0232440512627
-0.0153637640178
0.0399800725281
-0.0646138936281
-0.0354272574186
-0.0132269822061
0.00278562447056
-0.0409308038652
0.00582213280722
0.0202838182449
-0.040305968374
-0.0219248309731
-0.0409774295986
0.0147636719048
0.0279665831476
0.0233105104417
-0.0406766161323
0.0129092866555
0.0655260235071
0.0486240573227
0.0650046095252
0.0333507880569
0.0250533092767
0.0884229466319
-0.00500047951937
-0.05386871472
-0.0793519988656
0.040948677808
0.0235121101141
0.00538506964222
0.0614514350891
-0.00930570624769
-0.0645011216402
-0.0105401715264
0.0177331846207
0.0967766717076
0.040984403342
-0.0265840291977
-0.0466272868216
-0.107468664646
-0.0149878133088
0.0782221481204
0.0780877992511
0.06731056422
-0.0662551522255
0.0199656952173
-0.046246021986
0.00646860897541
-0.0665947794914
0.0375065952539
0.0510196872056
0.0263366382569
0.0196491125971
0.0165298487991
-0.014594568871
-0.017676955089
-0.0104961078614
-0.0297724232078
0.0595461465418
-0.0616373792291
0.0393613986671
-0.0340882912278
0.0744393244386
0.0215104278177
-0.0293387603015
0.0670778974891
-0.00614510057494
0.0727160125971
0.0463931113482
0.0448530986905
0.00605964520946
-0.0628118291497
-0.0142910405993
-0.00580625934526
-0.0499486960471
0.0577396973968
-0.0148032624274
-0.0879047587514
-0.0146517008543
-0.00750228902325
0.0214861445129
-0.026261979714
-0.00197190186009
0.00870901159942
-0.0663994625211
-0.0170866250992
0.0807939693332
0.0706665217876
0.0232013631612
-0.0407941713929
-0.031974542886
0.0614819936454
0.00526586128399
0.104280300438
0.113746106625
0.0750759020448
-0.0409700870514
0.0585705675185
0.0011892960174
-0.0333185978234
-0.0114938532934
-0.0169352181256
0.0151906805113
0.0586645156145
0.0515713132918
-0.0308428220451
-0.0639184936881
-0.0563767179847
-0.0231954492629
0.044243298471
-0.0370925590396
-0.0683312043548
0.0228059068322
-0.0267404355109
-0.0703540891409
0.0335248820484
0.0618629641831
0.0279167704284
-0.0156096862629
-0.0815971046686
-0.0666435137391
-0.0142684653401
-0.0113634672016
-0.0540710762143
-0.0489190928638
0.00134186760988
0.0149275325239
0.0381536819041
-0.0391678735614
-0.0102800820023
-0.0322165973485
-0.00946806184947
-0.0264146793634
-0.0481331571937
-0.0132616469637
0.0251543726772
-0.0509984530509
0.028920525685
0.0531668998301
-0.00699175288901
-0.0417956337333
-0.0334104113281
0.0106783472002
0.0309472419322
0.0336998030543
-0.0508514791727
0.0626166760921
0.0793189406395
0.0510874353349
0.0282072927803
-0.0678206458688
-0.0236184280366
0.048846270889
0.0682164654136
0.0679836347699
-0.0312760733068
0.00876088533551
-0.0787792876363
-0.0193522311747
0.0388732813299
0.108681514859
-0.000939355813898
-0.0866443216801
-0.0561115145683
0.0480233244598
0.0793139562011
0.0372107475996
-0.0349518433213
0.00567154400051
-0.0161564555019
-0.0894358530641
0.057945407927
-0.0205547492951
-0.0305536016822
-0.0510807521641
-0.079387165606
0.0308302789927
0.0172147415578
0.0798711031675
0.0180789083242
0.0646385923028
-0.0934957489371
-0.0734255760908
0.0183023661375
0.0323941297829
0.0984226614237
-0.0225827526301
-0.10230524838
-0.050104226917
-0.0771804749966
0.0416668206453
-0.0415428616107
0.0321869216859
0.00132972362917
-0.110946878791
-0.0245415251702
-0.0296113714576
-0.054388884455
0.0151868779212
0.0463895089924
-0.0533044487238
0.0681294724345
0.0465116389096
-0.00473841652274
0.0909101516008
0.0532227866352
0.0220369938761
0.0235926993191
-0.0178293418139
-0.042813539505
-0.0165481027216
0.0121348975226
0.00887466408312
-0.0153702851385
-0.0454657077789
0.00482253404334
0.00251162727363
0.00682401424274
-0.0721183270216
-0.0263031311333
0.0386422686279
0.0106903137639
-0.0628452599049
-0.0638925135136
0.0463863126934
0.0419212244451
0.0333387702703
-0.0307204741985
-0.0820864886045
-0.0845553651452
-0.037288479507
0.0621428489685
-0.000385178311262
0.039373781532
-0.0581260435283
-0.0918445438147
-0.0481609962881
0.0196618270129
-0.00498108193278
0.0422134585679
-0.0360517688096
-0.0388232730329
-0.0511540360749
0.0155759453773
0.0104596549645
0.0175950769335
0.0284168217331
0.0791846737266
-0.0117889763787
-0.0472070612013
0.0062178755179
-0.0196872521192
-0.00590463588014
0.0131812803447
-0.00518848281354
-0.0674452409148
-0.0141196772456
0.0227058380842
0.0937105119228
0.0143352393061
-0.0139137366787
-0.0598347112536
-0.0586689561605
-0.0287382639945
0.0940162539482
0.00609858520329
0.0297825690359
0.0577533654869
-0.0100113395602
-0.0127699319273
0.0419766120613
-0.0502227693796
-0.0423735789955
0.0516971871257
-0.00390387931839
0.0257356092334
-0.0587982721627
-0.082929007709
-0.0648002400994
-0.00612703012303
0.0592822805047
0.0261768884957
-0.0306880827993
-0.0145410485566
-0.0987418740988
-0.0480906963348
-0.0164125990123
-0.00163800735027
-0.0623498894274
-0.0545534342527
-0.0374076031148
0.00710340123624
-0.0153578426689
0.0498184412718
-0.0283397044986
0.0121281221509
-0.017705341801
0.0144108720124
0.0456767529249
0.0787567570806
0.0288304872811
-0.0390363298357
0.0352464728057
0.0288329962641
0.0218019373715
0.0810189545155
-0.0526806786656
-0.0623745918274
-0.00435828510672
-0.00955762341619
0.100731261075
0.00952323153615
0.037606112659
-0.048401914537
-0.00852824375033
-0.0419870205224
0.0520297661424
-0.0260828156024
0.0505842380226
-0.0410757027566
-0.013516869396
0.0353017561138
-0.0517457723618
0.0321422815323
-0.0434978157282
0.0624190829694
0.00707014556974
0.0309194736183
-0.0672569423914
-0.0223888643086
-0.00133381830528
0.0330517664552
-0.0269305221736
0.0726431310177
0.0396639145911
-0.048880841583
0.00584982289001
0.0479959510267
0.0345875583589
0.0842970907688
-0.061376851052
0.0337379127741
0.0409121066332
-0.0376931913197
0.0435701422393
-0.0307284351438
-0.0513741001487
0.0329524166882
0.0674036443233
0.0502754040062
-0.050076726824
-0.0422643572092
0.0224141795188
-0.0196642875671
0.00417728489265
0.0244264248759
0.0517246387899
-0.0639486759901
-0.0676439404488
-0.0417049340904
0.0180871952325
-0.0578539669514
0.0508147031069
-0.0233009457588
-0.0821295306087
0.00703223608434
0.0376173779368
-0.0436473637819
-0.0283968169242
-0.0286608077586
0.00856683030725
0.0506444089115
0.0239079426974
0.00490090763196
0.0174576994032
0.0425251536071
-0.0366813875735
0.0442556664348
-0.012282888405
0.0312399379909
0.0511614009738
0.0584332160652
0.0436943508685
0.00914382003248
-0.0613340325654
-0.0304758250713
0.0441907607019
0.0331696234643
0.0321132689714
-0.0414782203734
0.0430394075811
0.0202673766762
-0.0305474102497
0.0310576446354
0.05567208305
0.0425284057856
0.0510634109378
-0.0115336105227
-0.0492427907884
0.0564252473414
-0.00669509032741
0.0631280839443
0.0820387750864
0.0664938092232
-0.00655447645113
-0.065673686564
0.029374288395
-0.0617449432611
-0.040394987911
0.0378637649119
0.0966965034604
0.0369692854583
0.0293018482625
0.0704687014222
0.0342244021595
0.0151086049154
0.081550732255
0.0214296877384
0.0167135111988
-0.0407416597009
0.0378049574792
-0.0194192212075
-0.0597516484559
0.0334879085422
-0.0236084889621
-0.0148200290278
0.0182861760259
0.00383785949089
-0.0225876681507
-0.0344683788717
0.0262581296265
-0.0392576828599
0.0115486811846
0.0426517352462
-0.00810132082552
-0.0800181850791
0.0204173978418
0.0111810164526
-0.0278386063874
0.0029049073346
-0.0933407098055
-0.0782513841987
-0.02927881293
-0.028138268739
0.00486039370298
-0.0266172010452
-0.0317250154912
-0.0192417558283
0.0181094892323
0.0212872475386
0.0160065665841
0.0160082671791
0.00276725040749
0.0363471880555
0.0423895120621
0.0101535273716
-0.00478844996542
0.0430167838931
0.0621118918061
-0.017768945545
-0.0666146427393
0.0713494643569
0.035863827914
-0.029833830893
-0.0523834563792
-0.00575989065692
0.0456731133163
-0.00744659686461
-0.0790206119418
-0.0614723153412
-0.0541313178837
-0.0450079329312
-0.0582120977342
-0.0192127525806
-0.0466138869524
-0.0625487342477
-0.0365074276924
0.0212530922145
0.0224251225591
0.0428538434207
-0.0314121171832
0.0402834974229
0.00870173703879
-0.018714286387
-0.0154297975823
0.0310136526823
-0.053692612797
-0.0573546923697
0.0124274287373
0.0751767382026
0.0332295186818
-0.0039126817137
-0.0125551652163
-0.0442488417029
-0.0332970395684
0.0033873047214
-0.0465524159372
-0.0712687447667
0.0308775641024
-0.00746683869511
-0.0350572280586
-0.0225330870599
0.0154998088256
0.00710707949474
0.015681443736
-0.0586572214961
-0.0198049489409
0.0102860564366
-0.0646994039416
-0.0439484529197
-0.0743291378021
-0.00980978831649
-0.0802701935172
-0.031198034063
-0.0233848448843
-0.0674570426345
0.000171926134499
-0.0245723892003
0.024542119354
-0.0293498262763
0.00250055477954
0.0424526035786
0.0631174892187
0.0202424041927
0.0436674840748
-0.0441794097424
0.0135240927339
0.0733648836613
-0.0578107796609
-0.0747883841395
-0.061781026423
0.0659901127219
0.0453860387206
-0.0750479921699
-0.0687501206994
-0.101597175002
0.0645480528474
0.0154824880883
-0.0264256261289
0.0349181368947
0.0399295128882
-0.04887284711
-0.0721135661006
0.0259698461741
-0.0838425457478
-0.00521205831319
-0.00874262768775
0.00195281114429
-0.0113334525377
-0.0676340386271
-0.0220790375024
0.0372024774551
0.0335410945117
0.00654640886933
-0.0731143280864
-0.0481791868806
0.0573536232114
0.0449985861778
-0.00892850477248
-0.0348414517939
0.0631426796317
0.0562688931823
0.0527552030981
-0.0142985936254
-0.0190823432058
0.0856490880251
-0.0427008494735
0.0435267277062
0.0617862716317
-0.0192048847675
0.0465340018272
-0.0394705794752
0.0243607386947
-0.00370552670211
-0.0163464490324
-0.0805788636208
0.0784096419811
-0.0428147427738
0.0472289249301
0.0158364269882
-0.0495163202286
-0.00320704956539
0.0755438730121
0.0658998638391
-0.0480648353696
-0.0471983365715
0.0526492372155
-0.0208630878478
-0.0883538648486
0.00816872343421
-0.0332140251994
0.0658655390143
0.00103640276939
-0.00407804222777
0.0628143101931
0.0612076036632
-0.0420795157552
0.027760265395
-0.038196913898
0.0709164738655
0.0379454083741
-0.0324352420866
-0.0312430355698
0.0760341510177
0.0485944338143
0.0375280305743
0.0141222476959
0.0952485352755
0.0319123417139
0.0117225516587
0.0125003596768
-0.0308176130056
0.00204047327861
-0.0391907915473
0.00161170773208
-0.0180562846363
0.0488357320428
0.0250040013343
-0.0158772747964
-0.0128499306738
-0.0705118402839
0.0540702827275
-0.0358503088355
0.0246956665069
0.0419082120061
-0.0259004160762
0.0450346767902
0.0157836955041
-0.0390160232782
-0.0332060456276
0.0633360669017
-0.0512501522899
-0.031569223851
0.00961606577039
-0.0396676138043
0.0130468904972
0.0551823042333
0.038218408823
0.0385981760919
-0.00173940917011
0.0493491180241
-0.02760338597
-0.0482628904283
-0.0140392156318
0.0358547195792
4.11618239013e-05
0.0617345534265
0.00102507392876
-0.0343983843923
0.0259688887745
-0.000321603438351
-0.0338174588978
-0.0272559933364
0.0299130454659
0.035407088697
0.0104366270825
0.0627366229892
-0.024746671319
-0.0393695645034
-0.0066521759145
0.0307597275823
0.0262133292854
0.0140900053084
0.0279523804784
-0.0376631915569
0.0364252887666
-0.0123189212754
-0.0425896421075
-0.0422131232917
0.00719025265425
-0.0546344965696
0.0275295972824
0.00574726890773
0.061864156276
0.0149401463568
-0.0512194521725
-0.0824931785464
-0.0540622510016
0.0778979584575
0.000629965215921
0.0398862399161
0.0210644025356
0.0587525516748
-0.000170331302797
-0.00485172215849
0.0538534931839
0.0337895341218
-0.0251155756414
-0.0153976203874
-0.0202268566936
-0.0720809102058
-0.078292876482
-0.0296705178916
0.0204863827676
-0.0226580873132
-0.0685485005379
-0.0679881051183
0.046830046922
0.0643340349197
-0.0120044387877
-0.011878461577
-0.00292485719547
0.0393261350691
-0.0343657843769
0.0024557011202
0.0225607715547
0.0583614632487
0.0386573337018
-0.0171413142234
-0.0123224956915
-0.0129529954866
0.0637718141079
0.00550276506692
0.096440680325
0.0852010175586
0.0199700258672
0.00457712868229
-0.0490253083408
0.0368554666638
0.0451542474329
0.00813893321902
0.000285068643279
-0.0196588523686
0.0280037932098
-0.082191772759
-0.00446176389232
0.0320359505713
0.0206777490675
-0.0558353066444
-0.0697260051966
-0.0036749439314
0.0434644073248
-0.00484623666853
-0.100434839725
-0.0822934508324
-0.0461265929043
-0.0497499145567
-0.057183727622
-0.0212178882211
0.0330983474851
0.0019427187508
-0.0149773471057
-0.00899355858564
-0.00105494330637
0.0316514968872
0.0277896821499
0.0576281659305
0.0659210383892
0.031624391675
-0.0699137747288
-0.0634355172515
0.0260748509318
0.0466809123755
0.013827374205
-0.0270390510559
-0.0396658033133
-0.0377856008708
-0.0181380342692
-0.00536871096119
0.00502826971933
-0.00487830676138
0.0659576505423
-0.0425898805261
0.0543142668903
0.056069958955
0.0474045984447
0.020297024399
0.0557903200388
0.0275214165449
-0.0281880293041
0.0012379164109
-0.00311300903559
-0.075046017766
-0.0324719063938
-0.0426110997796
0.0887671411037
-0.0164276473224
-0.0647632628679
-0.0645989924669
0.0637879520655
-0.0162796434015
-0.0448274202645
-0.0961856395006
0.0454286672175
-0.00878301635385
0.0136541137472
-0.0282363519073
-0.00561218056828
0.0661696344614
0.00315264100209
-0.0446333326399
-0.0488304011524
0.047817055136
-0.05697337538
-0.000389555876609
0.00417927652597
-0.0152209391817
-0.0136555461213
-0.0310064591467
0.0388335697353
0.0342977195978
-0.0336396358907
-0.0214336104691
-0.0387736968696
0.0455027706921
-0.0733594968915
-0.00421086372808
-0.0749661028385
-0.0500519014895
-0.0205862466246
-0.0294655561447
0.0196185577661
-0.090856783092
-0.0738229677081
-0.0374676585197
-0.037422850728
-0.0545417517424
-0.0826103016734
-0.06884534657
-0.030437938869
-0.0748854801059
0.0407837554812
0.0654548630118
0.0438438132405
-0.0448399595916
-0.0406879633665
0.0492367111146
0.0517047829926
-0.0344430916011
-0.0237928088754
-0.0428501591086
0.000208207726246
0.00359437614679
0.00353813706897
0.000237797692535
0.0470208600163
0.0193461179733
-0.0349947884679
-0.0646873340011
0.0329741463065
0.0331840142608
-0.0292510315776
0.0573095083237
-0.0307918805629
0.00855112727731
-0.0153512656689
-0.00807954184711
-0.0385409705341
-0.0653793513775
0.0472513064742
-0.000138981340569
0.0525650121272
-0.00882231537253
0.0547713786364
-0.00571749825031
0.000383779173717
-0.0387297458947
0.0280830822885
0.0529384687543
-0.0182652678341
-0.0619056709111
-0.0172020979226
-0.00886307097971
0.0521006397903
-0.014939990826
-0.0619300231338
0.0361244902015
0.0235012639314
-0.0264227222651
-0.0467855669558
-0.00539540033787
0.0327230207622
-0.00631354376674
0.0340373627841
0.0443202257156
0.0390978120267
0.00949158612639
0.0678120478988
-0.049655046314
-0.00944339111447
0.0330982767045
-0.0399443395436
-0.0475075766444
-0.0410930030048
0.039354480803
-0.0544614158571
0.0594319477677
0.0605752803385
-0.0566675998271
-0.0524310581386
-0.0649356767535
0.024269266054
0.0249636173248
0.0441832244396
0.0562930554152
0.0119291869923
-0.0691201686859
0.00912183523178
0.0437142327428
0.0265820231289
-0.0117201749235
0.0214277729392
0.0488244481385
-0.0592900067568
-0.00310669350438
0.0132297798991
0.022133782506
-0.0437384732068
0.0116638056934
-0.0230307653546
-0.00338478316553
-0.0196253955364
0.0759584754705
0.0887256488204
0.0301723405719
-0.00899336766452
0.00135901640169
0.0742901489139
-0.0528459064662
-0.0312707871199
-0.0435637123883
-0.0567300841212
0.0592764094472
-0.0358713530004
-0.0413256399333
-0.00890519842505
-0.0589450076222
-0.0194762684405
0.02696050331
0.0379764288664
-0.0136745870113
0.0169472377747
0.0487240403891
-0.0220920592546
-0.0680199638009
-0.00508714606985
0.00787360779941
0.0297303069383
0.0546240955591
-0.0519637949765
0.00760549400002
0.0108805904165
0.00866640545428
-0.00343685690314
-0.0159330107272
0.0542742758989
-0.0350920297205
-0.0170464608818
-0.0886953994632
-0.0597823001444
-0.0128865772858
-0.0403916090727
0.0722149387002
-0.0561740584671
-0.0735363066196
-0.0102713173255
0.0471539981663
0.0659152790904
-0.0248770564795
0.0426011793315
0.0694802179933
-0.00921671278775
-0.0110925687477
-0.0682029277086
-0.0120141385123
0.0954132378101
-0.0221143681556
0.0417514778674
-0.0400713048875
-0.0136120608076
0.106098040938
0.029131969437
0.000106242194306
0.0192305874079
0.0407175943255
-0.0392471179366
0.0275488905609
-0.075359582901
-0.0417147576809
-0.0125457802787
-0.0180043950677
0.0378873310983
0.0290478859097
0.0457973778248
0.0354448705912
-0.018925389275
0.0205679368228
-0.0578076392412
-0.0141798192635
-0.0224966946989
-0.0663373544812
-0.00793600454926
0.0198440626264
-0.0488320998847
-0.00851652678102
-0.0532542876899
0.0396749600768
-0.0227154474705
-0.063215456903
0.0493592061102
-0.00152506027371
0.00580611312762
0.0183474011719
-0.00538496533409
0.0367158651352
0.0339045412838
0.00617852946743
0.0356618389487
-0.0627358257771
-0.0430503115058
0.0208497736603
0.0225241798908
0.00611530477181
0.0200887024403
0.0133382910863
-0.0379125028849
-0.02415962331
0.0264300536364
0.0279629025608
0.0700108781457
0.0203983467072
0.0473576821387
0.0907327532768
-0.0180789846927
-0.0441560447216
0.0759921818972
-0.0484673306346
0.0253844372928
-0.0503206290305
0.0131661193445
-0.0275443401188
0.0255668330938
-0.0622724667192
-0.0752083882689
-0.0505775138736
0.0402363799512
-0.0148534560576
0.025905681774
-0.00875558517873
-0.0318049006164
-0.00627584708855
-0.034875344485
0.0459892079234
0.037197984755
0.0256624612957
-0.0579103939235
0.00478537706658
0.0437487661839
0.0237830206752
0.0459188148379
-0.00199462310411
0.0501391924918
-0.0132446549833
-0.0608135201037
0.0401806980371
0.00726603576913
0.0548857264221
0.0142396157607
-0.00357522070408
0.0646586343646
0.039526257664
0.00210236664861
-0.00371155212633
-0.0335482805967
0.00386936496943
-0.0672430992126
0.0515202097595
-0.0027197857853
-0.0450732968748
0.0473951883614
0.049619037658
-0.03649026528
-0.0821783468127
-0.0392773896456
-0.0320275090635
0.0679459646344
-0.00681092590094
-0.0302076209337
-0.0983558222651
0.0494484864175
0.0313307307661
0.00371773401275
-0.0215084496886
-0.0703979879618
-0.0086047751829
-0.0438747294247
0.0630273595452
-0.0439837239683
0.0518903620541
-0.00364715931937
0.03595950827
-0.0468501895666
-0.00542909512296
-0.0688820704818
0.0551200546324
-0.0185770653188
-0.0507839098573
0.0485126301646
-0.0641434118152
-0.0776901990175
-0.0251124836504
0.000293938122923
-0.00852252263576
0.0313125997782
0.0285728108138
0.0550528876483
-0.0245613828301
-0.0211177021265
0.0515301562846
-0.017318578437
0.0594344846904
-0.0453188307583
0.0388576984406
0.0517621822655
-0.0567375123501
0.0336430892348
-0.0459632836282
0.0129061145708
0.0259808916599
0.0478547587991
-0.00690796319395
-0.0390800051391
0.0257136486471
0.00930960755795
-0.0195288974792
-0.00363995670341
-0.0239927060902
-0.00363924191333
-0.0476245246828
-0.0364468879998
0.0317492894828
-0.0186870973557
0.0225562695414
0.0519414134324
-0.0615856684744
0.0287722162902
0.0319910645485
0.0298802498728
0.0168179124594
-0.0063236025162
0.0518017597497
0.0131578855217
0.0412972196937
-0.0443532802165
0.0301657710224
0.0184709988534
-0.000580259016715
0.0855746790767
-0.0435059033334
-0.00290276389569
0.0555205382407
-0.0291691515595
0.0175530724227
0.080567650497
-0.0375533178449
0.0364733040333
0.0210691355169
-0.0105265909806
0.00122178683523
0.0117013603449
0.00347201619297
-0.0431608110666
-0.0523856952786
-0.0476527772844
-0.0137308519334
-0.0349540822208
0.0214326642454
0.00537098012865
-0.0185213796794
-0.048922739923
-0.0454556718469
0.0475282371044
0.0578926950693
0.0331922322512
-0.0549525544047
-0.0458578765392
-0.0165138896555
-0.0591477900743
-0.038757737726
-0.0259966272861
-0.0333881527185
-0.0633981525898
-0.0667421892285
0.0234706662595
0.0179181266576
-0.0148495091125
0.0531990043819
-0.0442629009485
-0.0377639643848
0.0280481856316
0.0345729403198
-0.0260771326721
0.0635854005814
-0.0162819549441
-0.00578586524352
-0.0039971396327
0.0551560632885
0.0702214837074
0.00829003937542
-0.0862848833203
-0.0230155996978
0.00956670101732
0.0587679296732
0.0141800669953
0.0401609502733
-0.00262621627189
0.025533773005
-0.0215995814651
0.0357367545366
0.0523035787046
0.0293121784925
-0.0069501590915
0.000181849754881
0.0197577476501
-0.0229893811047
-0.0103759812191
-0.0139235621318
0.0298210680485
-0.0491067133844
0.044164467603
0.0329993255436
0.0423369966447
-0.0661147385836
0.0593693107367
-0.00272681866772
-0.0394270196557
0.0815609842539
-0.0636611059308
-0.0185534358025
0.0329541824758
0.0221036449075
0.0415447726846
-0.021378243342
0.00331855029799
0.0458627492189
-0.0522946119308
0.0375343337655
0.0519171766937
-0.0217560194433
-0.0548180006444
0.0270282104611
0.0552632473409
0.02951352112
0.0405651591718
0.0452063754201
0.0179759822786
-0.00985258817673
-0.000838350970298
0.00766618875787
-0.0446439050138
0.0163754727691
0.0470889136195
0.0667657926679
-0.001255076495
0.00137554085813
-0.0345492660999
-0.0497049465775
-0.000333232863341
-0.0313474014401
0.0408189147711
-0.0531651824713
-0.040614053607
-0.0509166345
0.0206534955651
-0.0257849562913
0.00761431176215
-0.0197781156749
-0.0310953650624
0.0643876641989
0.0240749549121
0.0169022679329
-0.0713646262884
-0.0254447422922
0.0549170672894
0.0574642159045
0.0412658639252
0.0226629562676
-0.0778205767274
0.074201092124
0.0201583560556
0.0366822518408
-0.0474853143096
-0.064598813653
0.0470603108406
0.0368839539587
-0.0299059078097
0.013341922313
0.0590245053172
0.0599000230432
0.00549152726308
-0.0819773003459
-0.0720304399729
-0.0686649605632
0.0126778976992
-0.063368357718
-0.0610734894872
-0.0255296416581
0.06737075001
0.0581076592207
-0.0188498347998
-0.00667466782033
-0.0728071480989
-0.0520801618695
0.0410131700337
0.0278351958841
0.0695278868079
0.0183977857232
0.0232530366629
-0.0078718457371
0.0375635251403
-0.045702368021
-0.00815502461046
-0.0660722777247
0.0436527840793
0.0349649563432
-0.0512770786881
-0.0369924977422
0.0336672738194
0.0471434779465
0.0176201332361
0.021020501852
-0.0354612618685
-0.000235818864894
-0.0413372553885
0.0144452834502
-0.00222356803715
0.0750018209219
0.0519748963416
-0.00632355548441
-0.0282369274646
-0.0470556840301
0.0478445924819
-0.057802207768
-0.0348101109266
-0.0444009453058
-0.0382516756654
-0.0478130429983
0.0553417652845
-0.0310563258827
-0.00124273588881
0.0207725390792
0.0294283926487
0.0587661042809
-0.0495187863708
-0.053777769208
0.0442570000887
-0.0100216632709
0.0584972836077
0.0102248601615
-0.0171446036547
0.00330065353774
-0.0490432307124
-0.072764120996
-0.0276181958616
-0.0565205030143
-0.0151001112536
-0.0155334882438
-0.0508703961968
-0.0262511558831
-0.0702258422971
-0.0142576852813
-0.0497278608382
-0.0186937022954
-0.0472277216613
-0.0751983374357
-0.0446758680046
0.0393770113587
0.0382721200585
-0.00526442099363
0.0591376684606
-0.0373857617378
-0.0435030534863
-0.0521518662572
-0.0192877016962
-0.0569940321147
0.0313589610159
-0.0384497717023
-0.017982352525
0.0404673218727
-0.0426076129079
0.0217333361506
0.0497140623629
-0.0243573449552
0.056757632643
0.0214853137732
0.000202452079975
0.00945442542434
0.0263081844896
0.0513644404709
-0.0122750019655
0.0142989289016
0.0459913350642
-0.0519453473389
0.0328814461827
-0.0399015657604
0.0585770718753
0.0256895702332
-0.00377003476024
0.013858362101
-0.0633349865675
0.0295904744416
-0.0843882933259
0.0335855297744
-0.0559249296784
-0.0556602142751
0.0229636002332
-0.055260039866
0.0218495894223
-0.0573456212878
0.0210617631674
0.0226698815823
-0.0619270578027
0.0234572254121
-0.048243176192
0.0349363870919
-0.0764383897185
0.0842282399535
-0.0119415810332
-0.0262473728508
-0.0474898628891
0.00316186342388
-0.0407674573362
-0.0860359668732
-0.0563468448818
0.0560508705676
0.0469430238008
-0.0375667624176
0.0145204458386
0.00315109244548
-0.0706866681576
-0.037519954145
0.0478828921914
-0.0090246591717
-0.0173652283847
-0.019998839125
-0.0618309490383
0.0150552839041
-0.0279266033322
0.0217907670885
0.0001091552258
-0.0124746207148
0.00636012060568
0.0163553599268
-0.0240686051548
-0.00939390342683
-0.0374298319221
-0.0129388161004
0.0117407152429
0.0285339336842
0.0904534012079
-0.0145367756486
-0.0482159294188
-0.0043831365183
0.0563657432795
0.135010391474
-0.0206453464925
-0.0524041987956
-0.0518160872161
0.0826657265425
0.127054616809
-0.107030205429
0.0223758202046
-0.0730444043875
0.103438422084
0.0562895312905
-0.022927140817
-0.0203516744077
-0.0335535928607
0.0948014184833
0.0500231646001
-0.119218759239
0.0313593558967
-0.0927764177322
0.000113590678666
-0.0492039658129
-0.00806586071849
0.0320601500571
0.0127337137237
0.0102977184579
-0.00946898385882
0.0564382784069
-0.0463840663433
-0.0246682167053
-0.0791376382113
-0.0529181361198
0.0616191364825
-0.0411263369024
0.023479282856
-0.0815909281373
-0.012525816448
0.0908513441682
-0.0366176478565
0.050700020045
0.0245957691222
0.0306861400604
0.025755032897
0.0202159304172
-0.0193381402642
0.072707682848
0.0815495401621
-0.0491178408265
-0.0529955923557
-0.0365337729454
0.0473247952759
-0.0313436463475
0.000323644606397
0.000929795089178
-0.0521145053208
0.0152863152325
0.00602368311957
0.00577452220023
-0.0406889356673
-0.0377023667097
0.0265815630555
-0.0495490431786
-0.016219554469
0.0158859286457
0.0272998996079
-0.0304944533855
-0.08804153651
-0.0152242835611
0.0158431790769
-0.0759676173329
0.0797041654587
0.0711301937699
0.0166559610516
-0.061861526221
-0.0856763720512
0.0480179972947
-0.0402758233249
-0.00391299230978
0.0146432928741
-0.0395773164928
0.00608440535143
0.0359917469323
-0.0974028110504
-0.0598179847002
0.0416493788362
0.0272213742137
0.0264238473028
-0.0323186144233
0.0385902710259
0.00139350362588
0.00903709419072
-0.0350078977644
0.0230528879911
0.0680627524853
0.0100731803104
-0.0390803776681
0.0393205061555
-0.0587120167911
0.0600158795714
0.0166198834777
-0.0471627935767
0.0426835119724
0.0247571971267
0.00733717437834
-0.0461485423148
0.0282985735685
-0.0364349037409
0.0159393604845
0.0095669105649
-0.0193899776787
0.022089060396
0.00143405387644
-0.0340506993234
-0.0183337517083
-0.0124449077994
-0.0510380379856
-0.00180659187026
0.0506805442274
-0.0160561092198
0.0156765282154
0.045549262315
-0.00722665106878
-0.0279158372432
-0.0148279583082
0.0102322045714
-0.0393091216683
0.00379691994749
0.0245320592076
0.0260455645621
-0.00250568520278
0.0611068233848
-0.000128176019643
-0.0833049044013
-0.00146943680011
0.0644785389304
-0.0305496957153
-0.0210792664438
-0.0415785424411
-0.00677015492693
-0.0781142115593
0.0460472926497
-0.110912047327
-0.0763508081436
-0.0100168790668
0.0197796877474
-0.0493738949299
0.0528110861778
-0.0470251515508
-0.0211990438402
-0.0813044011593
-0.0346107631922
0.0683992579579
-0.0158595461398
0.0327234752476
0.0350782647729
-0.0368102379143
0.0204201638699
0.0479439273477
-0.0078190676868
-0.0173894241452
-0.00179170200136
0.0166836176068
0.00650257710367
0.0289040338248
-0.0154710765928
-0.0656686276197
0.0231332760304
-0.0650717914104
0.035894498229
-0.0409311726689
0.00361135671847
0.0402463413775
0.000502780661918
0.0369974374771
-0.00467776274309
0.00934763625264
0.00133251317311
-0.0276145655662
-0.0449027046561
-0.0489819571376
0.0047952933237
0.00255787558854
-0.0208555180579
-0.00977335777134
-0.00184023717884
-0.0600183978677
0.0695826038718
-0.0547963008285
-0.0098632266745
0.00264482293278
0.0165911819786
0.0359517075121
0.0163583531976
-0.0459789931774
-0.0018927291967
-0.0136153120548
-0.0176451355219
-0.069131359458
-0.0073636751622
-0.0300138685852
-0.0233225226402
-0.00480230199173
-0.0361062958837
0.0322270914912
0.0314750410616
-0.00902243237942
0.00885796546936
-0.00308522582054
-0.052644751966
-0.0232465565205
-0.0667432546616
-0.0064995996654
-0.00127659051213
-0.0292652882636
-0.0456877760589
-0.0202955584973
0.0444417707622
-0.0251236334443
-0.00283120828681
-0.105428397655
-0.0870003700256
-0.0916913300753
-0.0696695372462
-0.0719060972333
-0.0662462413311
-0.0564554259181
-0.083690084517
-0.0710721462965
-0.083610586822
-0.015049489215
0.0159221310169
-0.0135385477915
0.0350797586143
0.022451357916
-0.0692705959082
-0.0240851473063
0.0199456773698
0.00577159086242
-0.041274741292
0.010138544254
0.0548019818962
-0.0266941748559
-0.0211995784193
-0.0226829033345
-0.0490899048746
-0.0528307668865
-0.0517264343798
-0.0549006052315
-0.026157932356
0.0335647016764
0.0486809536815
-0.0360787138343
0.0296756401658
0.0402718782425
0.0175913348794
-0.0878949984908
-0.0433617830276
0.068577773869
-0.0453107357025
-0.0399678535759
-0.0208868216723
0.0334927551448
-0.00155831850134
-0.0126283001155
0.0140657965094
0.0266424138099
0.0631660819054
0.0698483735323
-0.0147552201524
-0.0356636345387
0.0180271528661
-0.049607720226
-0.0437070541084
-0.038574770093
0.08519731462
-0.0400997586548
0.0203828960657
0.0659277439117
0.0423527546227
0.0488414093852
-0.0468046888709
-0.059489261359
-0.0238143131137
-0.0679120793939
0.0433031283319
0.0358852446079
-0.0760037228465
-0.0256663151085
0.0152020091191
0.0190538093448
-0.00957332272083
0.0134255522862
-0.0189981851727
0.0353882722557
-0.0352630205452
-0.0112285288051
-0.0771378725767
0.0267099160701
-0.0521988086402
-0.0633635669947
0.00234668143094
-0.0519720092416
-0.0515214763582
-0.0350017696619
-0.0118325762451
0.0159799195826
-0.083188354969
-0.0223644375801
-0.0470897741616
-0.0473937913775
-0.03295635432
-0.0465817265213
0.034279961139
-0.0435549728572
0.0287476573139
-0.0108483694494
0.0530484691262
0.00918006151915
0.0504541769624
-0.0342079512775
-0.0561908781528
-0.0619027577341
0.00470538716763
0.00459717493504
0.0626594871283
-0.0623119436204
-0.0107314996421
0.138116821647
0.0651439502835
0.0756778419018
-0.0310606304556
-0.00960434414446
0.136847555637
0.0450368672609
0.0472317375243
0.0260527804494
0.0320061221719
0.112670406699
0.0740574523807
0.0370408557355
-0.021986650303
0.0235624089837
0.0996373966336
0.0192232877016
0.031636852771
-0.00965970568359
0.0734273642302
-0.0478602088988
0.00769962277263
0.0253584049642
-0.00591252464801
0.037820070982
0.0619952641428
-0.0269564893097
0.00845259800553
-0.0675236210227
0.0137548875064
-0.00297677353956
0.0688075721264
-0.0278449170291
-0.0817016512156
-0.00486846826971
0.0252092145383
-0.0014272001572
-0.0612000413239
-0.0819921940565
0.0481820181012
0.0206394623965
0.0604538060725
-0.0102235591039
0.0301103778183
-0.029296355322
0.0204120948911
-0.0509039796889
0.0138752441853
0.0621386580169
0.0270114131272
-0.000568646355532
0.0394736230373
0.0543722175062
-0.000262641289737
0.0356815420091
0.0173637960106
-0.0581124275923
0.0351580120623
-0.0369381718338
0.00734594184905
0.0442014299333
-0.0227622278035
0.0030319923535
0.0232495479286
-0.0478606931865
-0.010417769663
0.0355370827019
0.0125436447561
-0.0262316018343
-0.0492909476161
0.00980305764824
0.00598557665944
-0.0419867150486
-0.100383415818
-0.0262482985854
0.0815906822681
-0.0292517468333
-0.0654708743095
-0.00929527264088
-0.0713686645031
0.0157978832722
-0.0130382822827
-0.0122108338401
0.00193606317043
-0.0442757084966
0.0508000180125
-0.0507265739143
-0.0369640253484
-0.0482993833721
0.0553586706519
0.0148772438988
-0.0444555170834
0.0443576611578
-0.0471851751208
0.036215621978
0.0646135360003
0.0322788693011
-0.0150352707133
-0.0520830862224
0.0503390282393
0.0337112173438
0.0558083020151
0.0498612560332
0.0418271645904
-0.0291550308466
-0.00198668986559
0.0495352074504
0.0404822900891
-0.069180957973
0.0607312619686
0.0262964572757
0.0600095018744
-0.0487780161202
-0.054731592536
0.0529487170279
-0.0273785330355
0.0181193817407
-0.0078749563545
-0.0164105314761
0.0105529874563
-0.097711071372
0.0115158511326
-0.0483479127288
-0.0465596430004
-0.0856653898954
0.0115432459861
0.0129760410637
0.0191818606108
-0.00922758504748
-0.064714923501
-0.034506931901
0.015070233494
-0.0406550243497
-0.101074554026
-0.00245842756703
-0.0146194277331
-0.0342390500009
-0.0317315049469
0.0275666657835
-0.0349815785885
-0.0391513966024
0.0492406785488
-0.0533508919179
-0.0399727113545
-0.00188725907356
0.064211897552
-0.0308283157647
-0.0223864000291
0.031334541738
-0.0379216112196
0.0384025350213
-0.0640889331698
-0.0189037267119
-0.0239030439407
-0.0317527614534
-0.0127916187048
-0.0390138067305
0.016298931092
-0.0374434925616
0.0227716322988
-0.0781694725156
-0.0335565805435
0.0647460147738
-0.0429434366524
-0.0146972658113
-0.0434098131955
-0.0345489308238
-0.00990921445191
9.98642135528e-05
-0.00199994537979
0.0321303158998
0.0128697734326
-0.0525590740144
-0.0233457125723
-0.039900675416
0.0104917576537
-0.00401355931535
-0.0389137268066
-0.0228073708713
0.011569134891
-0.0170905850828
0.00927642639726
-0.0550005547702
-0.0142393698916
-0.0786173045635
-0.00161278434098
0.00511931115761
0.047927621752
-0.0687334761024
-0.0317429788411
0.0407443791628
-0.0715032815933
0.0378355234861
-0.01608286798
0.0291482266039
0.0539089739323
0.0247115138918
-0.010519864969
0.00782055128366
0.0287087094039
-0.0527909435332
0.0545327216387
-0.0539333894849
0.00685038836673
-0.0235472861677
0.0215701665729
-0.0558533631265
0.00248986715451
0.0244860909879
-0.0508071929216
-0.0349119864404
0.0396334156394
-0.0308297332376
-0.049395956099
0.00863524805754
-0.00791818276048
-0.0623003914952
-0.0306529998779
0.0579339116812
0.052881423384
-0.0259738899767
-0.0270762275904
-0.0542472861707
-0.0512834750116
0.0474476143718
0.0147046577185
0.00219047814608
-0.0109379552305
0.022810511291
-0.0609732121229
-0.0387537665665
0.0549492798746
-0.0385887660086
-0.0045556332916
0.0231414157897
0.00463452842087
0.00882197264582
0.0132743008435
-0.0141762625426
0.0354263111949
-0.0056461985223
-0.028870029375
-0.0389932990074
0.0254334323108
0.00993216689676
0.0298740975559
0.0265245810151
0.0239424873143
-0.0558605119586
0.011798882857
0.0737074688077
-0.00446040881798
-0.00942883826792
0.0432330369949
0.0495725609362
0.00122794683557
0.0785044282675
0.065872490406
-0.0378790982068
-0.0646217390895
-0.0892508104444
0.0445861145854
0.0558013096452
-0.00877683330327
-0.0244616437703
-0.0459066033363
-0.0499901920557
0.0491507425904
0.0382156930864
-0.00227631535381
0.032866127789
-0.0474488064647
-0.048081792891
0.0576756298542
0.054935503751
-0.0471005998552
0.0245937220752
0.020552136004
-0.00258948048577
-0.0265474822372
0.0214252863079
-0.0440462566912
0.0607303828001
-0.0644777268171
-0.024234674871
-0.0595162585378
0.0262664742768
0.0323993712664
0.0222180634737
-0.0772737413645
-0.0358923897147
-0.0479753427207
-0.0626363307238
0.00825380906463
-0.0315593667328
-0.0313833169639
0.0107223466039
0.018354518339
0.0380254276097
-0.00260458467528
0.0430373065174
0.0775899887085
-0.00644291425124
0.0772225111723
0.00198480067775
-0.0650834143162
0.0216181594878
-0.0151128200814
0.0446978770196
-0.0209676362574
0.0287933982909
0.041416734457
0.000896626617759
0.0512084960938
0.0191798917949
0.0456640981138
-0.00922762416303
-0.0585263445973
-0.0364338569343
0.00928819365799
-0.041464291513
0.00427540577948
-0.0569656603038
0.00990603864193
-0.032154686749
-0.00504814041778
0.01432757359
-0.0292502976954
-0.0740639194846
-0.0795713216066
-0.0681740492582
0.0559357777238
-0.016471799463
-0.0765954628587
0.0445343442261
-0.0670400038362
0.0130857722834
0.077493570745
-0.0142029291019
0.0226984079927
0.000805782619864
0.0333341471851
-0.0327635332942
-0.0159051716328
-0.0426262505352
-0.00974008534104
-0.0188221596181
0.0459370836616
0.0348792523146
0.0001028868719
-0.00911441352218
-0.0470342375338
-0.0362589322031
0.0346307866275
0.0299086086452
-0.0576933473349
-0.0481316819787
0.0159635208547
-0.0273005980998
-0.0523065105081
-0.0303795263171
-0.0269723460078
-0.0145532870665
-0.000562126981094
-0.0574413277209
-0.0129181221128
-0.0125677455217
0.0367904342711
0.0248575676233
0.00810582004488
0.00846825167537
-0.0483897551894
0.0522377863526
-0.0408607684076
0.0143358735368
0.0261490382254
0.00452539604157
-0.0353663191199
0.0380303189158
-0.0254806298763
-0.00487159565091
0.0512073896825
0.00645813997835
0.0462123975158
0.0395986549556
-0.00176483194809
-0.0127030583099
-0.0234024077654
-0.0049297711812
-0.0486516356468
-0.00826719682664
0.00351144233719
-0.0516498535872
0.0575689151883
0.0705105289817
0.0281884390861
-0.0286344662309
-0.0547743290663
0.055538225919
0.0969813019037
0.110036201775
-0.0474740713835
-0.0741522535682
-0.0782758072019
-0.0670683458447
0.00195217912551
0.0349450409412
-0.0231324099004
-0.0340496227145
0.0208584349602
-0.0318715795875
0.0339199081063
0.019841991365
-0.013077612035
-0.050352782011
-0.05428641662
0.027198927477
0.0123899783939
-0.0279171913862
0.0105225285515
-0.0333010107279
0.0276655554771
-0.0496135950089
-0.000964537204709
0.0852625146508
0.042808867991
-0.0581192038953
-0.0177346747369
-0.0379704982042
0.0447777323425
-0.0575340464711
-0.0534690059721
0.0251921769232
-0.0517582073808
-0.0321851968765
-0.0560502335429
-0.0593575276434
-0.0230295453221
0.00319508207031
0.00794771313667
-0.0616768933833
0.0565540194511
-0.0136754177511
-0.0168776586652
-0.035551328212
0.0289583113045
-0.0402606129646
-0.0296765081584
-0.0485823154449
-0.0257388968021
-0.0504875257611
0.00174768886063
0.045638486743
0.0526131168008
0.0470448918641
0.00393378315493
0.0514513067901
0.0235213413835
0.0455347038805
-0.0396761782467
-0.0426547080278
-0.0782930329442
0.0344854481518
-0.0555924214423
0.0258352831006
0.0567440092564
0.036338172853
-0.0483261011541
0.0476213879883
0.00525706354529
0.0410219542682
0.00388083560392
0.00944990478456
-0.0277722310275
0.0138691738248
0.011495757848
-0.0442846566439
0.0621657893062
-0.0160233043134
0.0823727622628
0.0452250614762
0.00386182311922
-0.0741572231054
-0.042623244226
-0.072022639215
0.0335859358311
-0.0219223983586
-0.0607144534588
-0.0914533212781
0.0154309319332
-0.0357265807688
0.0455874167383
0.00812256988138
-0.051197681576
-0.0620597712696
-0.0210843589157
-0.0185705050826
-0.0643888190389
-0.0400509387255
-0.0100444564596
-0.0582029409707
-0.0453076325357
-0.05321925506
-0.00153642753139
0.0550409555435
-0.0350986085832
-0.0548045523465
0.0674715191126
0.0821850374341
-0.0322486758232
0.0331004410982
0.0510953739285
0.0511469580233
0.0819635689259
0.067839153111
-0.0375071056187
0.0195353087038
-0.00664703547955
0.0133112529293
0.0718949884176
-0.0331974215806
-0.0471024736762
0.0290308501571
-0.0270335320383
0.0429889410734
-0.0196678489447
-0.0601318739355
-0.00787669792771
-0.0373367294669
-0.0162426047027
-0.00344814662822
0.076308876276
0.040364202112
0.0246764291078
0.0299239642918
-0.091763406992
0.0370248928666
0.0478559881449
0.0677266642451
0.0295998081565
0.0224107243121
0.000663305923808
0.00227656355128
-0.0653893724084
-0.00615370785818
-0.00583830429241
0.0163077171892
-0.032827951014
0.0617611184716
-0.0145927099511
0.00195584655739
-0.0284550767392
0.0166806131601
0.0167756546289
-0.0555069297552
0.0230850819498
0.0180082377046
0.0307680573314
-0.0446990579367
0.0729305893183
-0.0245805494487
0.00581735977903
-0.0385980680585
-0.0426855310798
-0.0571954324841
0.0489093288779
-0.019327301532
-0.0350139252841
0.0596744455397
0.0250615123659
-0.0339415036142
-0.0342030823231
-0.0498958192766
0.0328390970826
-0.057968556881
0.0590621605515
0.0457180887461
-0.0668770372868
0.0457032211125
-0.0371616743505
0.0370739847422
-0.0280058942735
0.0615063533187
-0.0590391419828
-0.0502963289618
-0.00361073971726
-0.0379160270095
-0.0173908956349
0.0472806580365
0.0110084228218
0.0136580597609
-0.0220170598477
-0.0333769246936
-0.0224203858525
-0.0262687001377
0.0408692546189
0.036934543401
0.0262107606977
0.0471039675176
0.0641303509474
-0.0093099810183
-0.00731400493532
-0.00788195524365
-0.0370883978903
0.0404642187059
0.0326727628708
-0.00979036372155
0.0307243540883
0.0663424730301
0.0254697501659
0.00332807423547
-0.0514565333724
-0.0328748039901
-0.0128390518948
0.0623723715544
0.0512553490698
-0.0486760362983
-0.039915330708
-0.00394876440987
0.0127647770569
0.0343446582556
0.0733008384705
0.0456286333501
0.0216733384877
0.0939349159598
0.0770219564438
-0.0289604384452
-0.00467022322118
-0.0708128362894
-0.0102384565398
-0.030565911904
0.0400323346257
-0.0043931696564
0.0176773574203
-0.0543261095881
-0.0531578958035
0.00622186297551
-0.0507593117654
-0.0567511282861
-0.0206946842372
0.0112602636218
-0.0369934253395
-0.0511270537972
-0.0100724063814
-0.0304550845176
-0.0227169226855
-0.00853353645653
-0.00924368575215
0.0280145984143
-0.00926177855581
-0.0579394437373
-0.0117890238762
-0.0615542307496
0.0722955539823
0.0285005364567
0.0113272899762
-0.0519837625325
0.0447981059551
0.0347263216972
0.0303048491478
-0.0368916913867
0.00373195530847
-0.0761354267597
-0.0814562439919
0.0296386703849
-0.0219438895583
0.0593396574259
-0.0236323513091
-0.0656646043062
-0.0098786316812
-0.0156839936972
-0.0402322262526
0.00795224681497
-0.0417892970145
-0.0348309911788
-0.0345352627337
0.0377825759351
-0.0161621682346
-0.0456544086337
-0.0648924186826
-0.0649804621935
0.0176726542413
-0.0263874232769
-0.0150931468233
-0.0274028368294
-0.033126540482
-0.1005044505
-0.0426591597497
-0.0440456569195
0.00443452503532
0.0153031470254
0.0405599549413
0.0129481134936
0.0415089614689
0.0227599535137
-0.0258224029094
-0.0725109279156
-0.0171214565635
0.0469931699336
-0.0463380068541
-0.0765653029084
0.0491905882955
0.0374760366976
0.0489052571356
-0.0300729870796
-0.0247353799641
-0.0086234556511
0.0290093645453
-0.0453199706972
0.0566325075924
0.0415380932391
-0.0060207801871
-0.010012537241
-0.0607248283923
-0.0380242057145
0.0589890033007
-0.0398993678391
-0.0442513227463
0.0143847148865
0.00112345989328
0.00889092404395
-0.0132550513372
0.0111940167844
-0.0182097721845
-0.0248871762305
-0.00459825852886
-0.0452441237867
-0.0705507025123
-0.0188689418137
0.00577033683658
0.0540684387088
0.0253469385207
-0.0245939809829
-0.0398688279092
-0.0502696968615
-0.0198297444731
-0.0246999580413
-0.029798315838
-0.0576450116932
0.0438523553312
-0.0160685237497
0.00362280523404
0.00282488833182
-0.00865219440311
-0.0803728997707
-0.05220188573
0.00325110461563
-0.0077205169946
-0.00725664431229
-0.0485192537308
-0.0478744767606
0.0372777022421
-0.0229679681361
0.0881536081433
-0.0240951050073
-0.0680128633976
-0.0184500683099
0.0743987336755
-0.00155838439241
0.0433844141662
0.0283015761524
0.0492703169584
0.00156390969642
-0.0345160625875
-0.0132635524496
-0.0345439091325
-0.0409951582551
0.033854521811
-0.0633550956845
0.0543488301337
-0.0148373451084
0.0273419227451
-0.0302813369781
-0.0224442742765
-0.0192914288491
-0.0272481292486
-0.016558745876
0.000818600005005
0.0220099389553
-0.000310647796141
-0.0785697698593
0.0466725975275
-0.00839956756681
-0.00487816380337
0.0482246801257
-0.0346038676798
0.0503891147673
-0.0287678707391
0.0422517769039
-0.0185570679605
0.0390942022204
-0.022816831246
0.0295135080814
0.0455041341484
0.0518690645695
0.0343924835324
0.032518453896
-0.0776605606079
-0.0280513092875
0.0654990449548
0.0146224191412
-0.0566891245544
0.0366759486496
0.0164777860045
0.0637549683452
-0.0168913677335
-0.0587052032351
-0.061157669872
0.00392948603258
0.0339909791946
0.0750514045358
-0.0229678377509
0.0294594317675
-0.0858174413443
0.0157207548618
0.0452760569751
0.01644263044
0.00202890811488
-0.0257857013494
0.0298641975969
-0.0453012958169
-0.0332715772092
-0.0063283611089
0.0101523948833
-0.00282239238732
-0.0360193550587
-0.00702595151961
-0.0232853572816
0.0209265891463
0.0220458116382
-0.0187015552074
-0.0207898560911
0.0254956074059
0.00278237764724
-0.00916730705649
-0.0373142696917
-0.0609515160322
0.0406694151461
0.018664650619
0.0393560603261
0.0202395562083
-0.0618030540645
-0.0338182337582
0.0183529481292
-0.0378011278808
-0.0629907250404
-0.0218993034214
0.00115584663581
0.0327825210989
0.0289492271841
0.0165101792663
0.0287574119866
0.0443703271449
-0.0502535365522
-0.0125643992797
-0.021792858839
0.0536969341338
0.0632381215692
-0.0151191558689
-0.0474489480257
0.0155634209514
0.0343483798206
0.0331543572247
0.0489307492971
0.0661157295108
-0.0464452281594
0.0469887331128
0.0208393149078
-0.071859061718
-0.0755002200603
-0.0185899995267
-0.0551556684077
-0.0111521827057
-0.0233028829098
-0.0344452597201
-0.0234295856208
-7.08230945747e-05
-0.0334658585489
0.011706167832
-0.0683099925518
-0.0100987590849
0.0304371919483
-0.0236584842205
0.00541968038306
0.0468900874257
0.0482895709574
0.0381578803062
0.0373838841915
0.0213963557035
0.0563866905868
0.0594291947782
0.0469566360116
-0.000618889578618
-0.0501616336405
-0.0595079623163
0.00714496755973
0.0240727476776
-0.0291785579175
-0.0216867737472
-0.0349645614624
-0.0747512727976
0.0482545234263
0.0791817680001
-0.0164469704032
-0.0204770192504
-0.00676190154627
-0.0217676591128
0.034349899739
0.0467479377985
-0.023810243234
-0.00293890270405
-0.0714943781495
0.00794606655836
-0.020235190168
0.00984914507717
0.0413690507412
0.0231203995645
-0.0236354563385
-0.0323370657861
-0.0994102954865
-0.0219607204199
0.0276891496032
0.0176061950624
-0.03390198946
0.0247446037829
-0.0312263555825
-0.0214610472322
-0.00307848933153
0.0502732992172
-0.0200489182025
-0.0576385036111
-0.0135922227055
0.000177290523425
-0.0201993621886
0.0100006135181
-0.0599303357303
-0.0228689294308
0.00928132794797
0.089192673564
-0.00545072741807
0.0687769576907
-0.00441088760272
0.0437308140099
-0.00310641434044
-0.0285363122821
0.0218439232558
-0.0776606947184
-0.0680620521307
0.0510274544358
0.00905691366643
0.00499406969175
0.0224275775254
-0.0206198059022
0.0385794229805
0.0436903014779
0.0609165802598
-0.0265376474708
0.0297369603068
-0.0546381026506
-0.0584739930928
0.0503457076848
0.0459779500961
0.0655950754881
0.0266166683286
-0.0770086050034
-0.0343634225428
-0.0249704495072
-0.0163429770619
-0.044337708503
-0.0378885753453
0.00331358332187
0.0374441370368
0.0251411665231
-0.0411511547863
0.0208423566073
-0.0352738127112
0.0114870378748
0.0575753934681
0.039542734623
-0.0542707443237
0.0543592683971
0.0759910419583
0.0847521051764
-0.00277712149546
0.0126914596185
-0.0392004586756
-0.004337196704
0.025345094502
0.00145045609679
0.0554735101759
-0.0445512123406
-0.0290259048343
-0.0295870043337
0.0364197604358
-0.0741147175431
-0.0669323727489
-0.004429792054
0.00514319166541
0.0677214860916
0.0654857680202
-0.0730105042458
-0.0377900674939
-0.00324602331966
-0.0418289341033
0.028339959681
-0.0630134269595
-0.094056636095
-0.00730984704569
-0.0837790593505
0.0101126655936
-0.0297998413444
-0.113721936941
-0.0446828268468
-0.103833705187
0.041835848242
0.0253823772073
-0.0337892398238
0.0694087147713
-0.0106525598094
-0.0872717574239
-0.0968659892678
-0.011008599773
0.0833552852273
0.0695634931326
0.0204683803022
-0.0477377772331
-0.0162829179317
0.0542559884489
0.0972946509719
0.0316647477448
-0.049095351249
-0.0668464303017
0.0442977137864
0.0293505117297
0.0805970132351
-0.02417912893
-0.0603361129761
-0.0318365246058
0.0122618321329
0.0514675267041
-0.0130163226277
0.0396848917007
-0.0424523204565
-0.0463741123676
-0.0291525032371
0.0278892312199
0.0201349668205
0.0246611982584
0.00698297889903
-0.0475130304694
0.0740886777639
0.0207588989288
-0.0512157268822
-0.0157908424735
-0.0522159859538
0.0470767952502
-0.0115105435252
-0.0499314069748
-0.0475226268172
0.0193377658725
0.0195428468287
0.0262298099697
0.00716469809413
0.00421091681346
-0.0306285005063
-0.0117130707949
-0.0167115479708
0.0100675709546
-0.0553080700338
-0.057538561523
-0.0233875364065
0.0495328865945
-0.0492711178958
0.0173829160631
-0.0379815623164
-0.0111841401085
0.0398876927793
-0.0489787571132
0.0437967255712
0.00214386289008
-0.0579101517797
0.0494640953839
0.0417446084321
0.073132276535
0.0765427574515
-0.00195611570962
0.00368449673988
0.0366717018187
0.0295569598675
-0.0228265617043
0.0774283409119
-0.00374148134142
0.0452047847211
0.0320837460458
0.00833887979388
-0.0430617704988
-0.0173851326108
-0.0305099412799
0.0684848874807
0.0251501016319
-0.00479672290385
-0.0328239314258
0.0471648238599
-0.000947393069509
0.0239441748708
-0.0738042369485
-0.0408984906971
-0.0574420616031
-0.043116107583
0.0205668825656
0.0278210733086
-0.0235381033272
0.0521338321269
-0.0451702550054
0.0151254441589
0.047708068043
-0.0236368663609
-0.00943456031382
-0.085817784071
-0.0804535374045
-0.0548303537071
-0.0692856535316
0.00767860747874
-0.037199202925
-0.053557433188
-0.00867606326938
0.0179480966181
-0.0412157215178
0.0247476063669
-0.0741190761328
-0.0183123480529
-0.0267306175083
-0.0172171220183
0.0903744399548
0.0639257803559
0.0395842567086
0.0364187732339
0.0924785286188
0.108730882406
0.00385708478279
0.0278936233371
-0.0577965937555
-0.0545454099774
-0.0488103628159
-0.0113977286965
-0.024207437411
0.0412403158844
-0.075171045959
-0.0681281760335
-0.06582159549
-0.0466254875064
0.0603499189019
0.0890264585614
0.0433277674019
0.0227229390293
0.0281935054809
0.0315350331366
0.0393138378859
-0.0731110274792
-0.00329517223872
0.0182712115347
0.0359379835427
-0.0173224434257
-0.0248614419252
-0.07518209517
-0.00717484625056
-0.0287204533815
-0.0515450052917
0.000572240853216
0.00285849743523
0.0755765736103
-0.0302086491138
-0.119763761759
-0.00794052984565
-0.0103154024109
0.0217702910304
0.0534093864262
-0.144038200378
-0.0588988363743
0.0268623139709
-0.0285013671964
0.113089345396
-0.00730311125517
-0.0803310349584
-0.060702290386
-0.0374377928674
0.0715619772673
0.0838149487972
-0.00392916984856
-0.0584042929113
0.101984843612
-0.0474094040692
-0.0385424643755
-0.0318092219532
0.000625978515018
-0.051027700305
-0.0266942139715
0.0647050887346
-0.0345550104976
0.0327707193792
0.00224316120148
0.0371407903731
0.0175523441285
-0.000480789371068
-0.0496979467571
-0.0797723457217
-0.00585933262482
0.0381080657244
-0.0229623746127
0.015459661372
0.0263822153211
-0.0707294568419
-0.00992041733116
0.0588645525277
-0.0318131037056
0.0295990146697
-0.0452534332871
0.0223465114832
-0.00893942825496
0.0304051339626
0.0353348404169
-0.0368101000786
-0.00753269763663
-0.00617356831208
-0.0140711823478
-0.0437021404505
0.0210199579597
0.00816885381937
-0.0496657714248
0.0142879812047
0.0125347515568
-0.0263522993773
0.0471559911966
-0.0518633127213
0.0693707168102
-0.0258225742728
-0.0389278717339
0.03475689888
-0.0381997190416
-0.00899442844093
-0.00981378089637
-0.0500983148813
-0.0623324178159
-0.0211231578141
0.00362664996646
0.0603806525469
0.0724424868822
-0.0789333954453
-0.107538126409
-0.073213942349
0.0443002544343
0.113847747445
0.0964931249619
0.0741615071893
-0.0529257506132
-0.0622246004641
0.0599021241069
0.0298545751721
0.037912864238
-0.0331716015935
-0.056929115206
0.0258768238127
0.034318625927
-0.0719222873449
-0.0122354058549
-0.0200797673315
-0.0412227138877
-0.0754242017865
-0.0407627001405
-0.0351404510438
-0.0684592723846
0.0617823302746
-0.00890750344843
-0.0203637536615
0.0318904481828
0.0208081491292
-0.0602995976806
-0.0215072669089
-0.00306435022503
-0.0346802026033
-0.0233988463879
-0.0203687362373
-0.0907822102308
-0.0378499031067
-0.0558296218514
0.0328703187406
-0.00889128539711
-0.0156004577875
-0.0109614469111
-0.0103513943031
0.0352675355971
0.0222548544407
-0.111243352294
-0.0450963303447
-0.0370028540492
-0.0143564892933
0.0602986812592
0.0109927654266
-0.0275872591883
-0.0449352376163
-0.0687976628542
-0.0002976237447
-0.0320743583143
0.013693834655
-0.0330895483494
-0.0412088669837
0.0132002094761
-0.0469442903996
0.0433553159237
-0.0409176126122
0.065865509212
0.0119487242773
0.0281303152442
-0.0752451866865
-0.0291809141636
0.00250243698247
0.0155559023842
-0.0773235708475
0.0297648590058
-0.0417750701308
-0.0484440661967
0.0297795049846
-0.0605198219419
-0.0164850838482
-0.0939793214202
-0.01731675677
-0.0274398718029
-0.0615255273879
-0.0506900437176
-0.018615655601
0.0134225683287
0.00201131636277
0.0528928674757
-0.0423403605819
-0.0637060925364
-0.0294954068959
0.000722698983736
0.0264969263226
-0.0385949127376
0.0111136166379
-0.00158488634042
-0.0263113342226
-0.0138167943805
-0.026757741347
0.0514565706253
-0.0353817828
-0.0224644113332
-0.0464172624052
-0.0100918458775
0.0382381975651
-0.0358073748648
-0.0581194274127
-0.0826697722077
-0.0157729424536
-0.00891419220716
-0.0164713356644
0.0314947403967
0.01552360598
-0.0632544234395
-0.0518179833889
0.00401408551261
-0.0291413161904
-0.0351830981672
0.0342571772635
-0.0148633820936
0.0354685559869
0.0160372946411
0.00332551868632
-0.0397750847042
-0.0283161774278
0.0721603855491
0.0622799880803
-0.0788579583168
-0.0793384090066
0.0188741702586
0.0592420324683
0.074793882668
0.0222074091434
-0.0899209156632
0.0292660351843
-0.0294058322906
-0.0289776064456
0.0712232291698
-0.0381263643503
-0.00149394758046
0.0397206917405
-0.0191045217216
0.0157012026757
-0.0724245682359
-0.0781945288181
-0.00554936472327
-0.00613303203136
-0.0486252903938
-0.0420395582914
0.0662337914109
0.0276319682598
0.00377809070051
-0.0214631203562
-0.0332411266863
-0.0825218781829
0.0247597545385
-0.0488849915564
-0.00388367357664
-0.0193758253008
-0.06145003438
0.0250983964652
0.0281847286969
-0.0393386818469
0.00977564789355
-0.0987370535731
-0.0956942662597
0.0209184214473
0.0266128741205
-0.0375965945423
-0.0514193288982
0.00304963812232
-0.0683849155903
-0.016464645043
-0.0592182278633
-0.00219312286936
0.0531160570681
0.00039671556442
0.0244492273778
-0.00375611451454
-0.064844161272
0.0684212371707
-0.00148368289229
-0.0173040367663
-0.02108017914
-0.0911114737391
-0.00993958115578
0.0587353520095
0.0584170147777
-0.0568275637925
-0.0824341475964
-0.0346268825233
-0.0241409465671
0.0110845044255
0.0290761627257
-0.044074870646
-0.0704214423895
-0.0528820566833
0.0363027080894
0.0706304460764
0.0229931883514
-0.00118234066758
-0.0292102973908
0.0442097149789
-0.00100520229898
-0.0294369999319
-0.0209057573229
-0.0167547725141
0.00139657838736
0.099951274693
0.0356496199965
0.0028954364825
-0.0331267863512
-0.00573894148692
0.02964746207
0.0836831778288
0.00849184766412
-0.0164746139199
-0.0824283137918
0.0529175251722
0.0572576634586
0.0346400812268
-0.0349377915263
-0.0191779918969
0.004221950192
0.0113853989169
0.0146580599248
-0.00275612343103
0.0433803834021
-0.0183381773531
0.057486269623
0.0371092073619
0.0331266820431
-0.0451739355922
-0.0463199950755
0.0503480285406
-0.0253652092069
-0.0116110900417
-0.00956454221159
-0.034135337919
-0.0618521273136
0.00584209570661
-0.0664893761277
-0.0269918721169
0.0219955388457
-0.047215115279
0.0253863148391
0.00764466216788
-0.00213144370355
-0.0970453247428
-0.00243468489498
0.0110205244273
0.0122338775545
0.0639705508947
-0.0297904815525
0.0184876285493
-0.0690051987767
-0.0125477304682
0.0594553239644
-0.021826190874
0.0160432308912
-0.0938255414367
-0.00889814738184
-0.00582034792751
0.0698073729873
0.0132817402482
-0.0463979169726
0.0269005130976
0.0223388932645
0.0892946571112
-0.0217787101865
-0.00367386755534
-0.0704294666648
0.00665114587173
-0.00742584234104
0.0499260276556
0.0054059443064
0.0362829975784
0.00683672213927
-0.0603188313544
-0.0235615242273
0.0825458317995
0.146552607417
0.0975027382374
0.00910861045122
-0.0757247433066
-0.0287642907351
0.00496132252738
0.0817765221
0.0919654145837
-0.042430434376
-0.0368090346456
-0.012662335299
-0.011964221485
-0.0151018835604
-0.0545768253505
-0.0452696382999
0.0123381102458
-0.0493985116482
0.0111822774634
-0.0412232913077
0.0487238131464
0.0180877428502
0.073471352458
0.0707987397909
-0.0144633054733
0.0311170034111
-0.0398100875318
0.0331692397594
0.0841859206557
0.0158972498029
-0.0140641434118
-0.0649877786636
0.00557405175641
-0.00216200854629
-0.0378171876073
-0.000516038155183
0.0019989204593
0.0154854590073
-0.031826287508
0.0349845178425
0.0215865857899
-0.0665811598301
-0.046896032989
-0.0515834987164
0.0388328097761
0.0366194061935
-0.0123239643872
-0.0146355526522
-0.0919018760324
0.00143740372732
-0.029211524874
-0.0125524951145
0.02184875682
0.0351014360785
-0.0627937242389
0.0065154498443
-0.0105055049062
0.0313243716955
-0.0545590408146
-0.0184414051473
-0.0742433071136
-0.0135369366035
-0.0254525467753
-0.0587196163833
-0.0767497494817
-0.0572786740959
-0.0251651443541
-0.0559690147638
-0.0279184617102
0.00369304046035
-0.0470855645835
-0.0284711793065
-0.0153738316149
-0.0201567411423
-0.0520784333348
-0.0650093704462
-0.0493540205061
0.0503601133823
0.057400342077
0.014024246484
-0.0515931583941
0.0413890071213
0.012956158258
0.0242186561227
0.0573935247958
0.0326546095312
0.00587235949934
-0.0637983605266
0.0222211033106
-0.02758214809
-0.00896818377078
0.0318485349417
0.00723721459508
0.0225038323551
0.0617886818945
0.0873096361756
-0.0299549829215
0.00176415254828
-0.0235159639269
0.00576292444021
-0.0539853014052
-0.0832382068038
-0.103435479105
-0.0611089505255
-0.0690554901958
-0.00363211869262
0.0227373410016
-0.0789414122701
-0.122610136867
-0.0974086150527
-0.0184455793351
0.0419204495847
-0.00184251053724
-0.044386383146
0.019374312833
-0.0175991225988
-0.0365296825767
-0.0720371603966
0.00486420979723
-0.0286297630519
0.0484731607139
0.0706716477871
0.0710768327117
0.0757386386395
0.0695218667388
0.0844645425677
-0.0225906744599
-0.0270774029195
-0.0455055274069
-0.00882541388273
0.0379703491926
0.00831652805209
-0.0550319552422
-0.0185858365148
0.00506090186536
-0.0527536682785
-0.0690268948674
-0.021630557254
0.024397527799
0.0221989527345
0.00322979548946
0.0215372405946
-0.0784625634551
-0.0693827494979
-0.0455089360476
-0.0239240601659
0.00464990315959
-0.0469176247716
-0.0707557201385
-0.0590076744556
-0.0346217639744
-0.0411271303892
-0.0600015409291
-0.0841158851981
-0.0174632184207
-0.0121947005391
-0.0670168399811
-0.0223936717957
0.00535301165655
-0.0665812268853
-0.0288795307279
0.0367761924863
0.00936341378838
-0.0518121123314
-0.0758658796549
-0.023704836145
0.0135281682014
0.00221292488277
0.00959820486605
0.00269004516304
-0.0556625574827
-0.0345675423741
0.0541355796158
0.00770331500098
-0.0577611066401
-0.0649432688951
-0.0435605347157
0.0189641974866
-0.0195801053196
-0.0219409596175
0.0679111555219
-0.0179149806499
-0.0772866755724
-0.0179996453226
-0.0216066744179
-0.0033314616885
-0.0178959649056
-0.0212060771883
0.0288487393409
-0.0162595864385
0.0529761463404
-0.0561958923936
-0.032473295927
-0.0335494764149
-0.0290836300701
-0.0451735332608
-0.0100718429312
-0.0225799977779
0.00462454976514
-0.0196118503809
0.0430305451155
-0.0278659649193
-0.0352219380438
-0.0423553586006
-0.034134786576
0.0532529987395
-0.0197596587241
-0.0346707440913
-0.0471613034606
0.0104477973655
-0.00228998414241
-0.0435357429087
-0.0177882183343
0.00278810318559
-0.00892875995487
-0.0205955598503
-0.00996230728924
-0.0644097179174
0.0272690616548
-0.0497165732086
-0.0632771402597
0.0102210845798
0.100867643952
-0.0131294131279
0.0608713105321
-0.0418143793941
-0.0140561843291
0.0216632895172
-0.0123882126063
0.06050042063
-0.0159951392561
-0.0293199438602
0.0435744449496
0.0533389039338
0.0669826567173
-0.0284953154624
-0.0591788738966
-0.00154693727382
0.0504998080432
0.0469476059079
-0.0456652864814
-0.054789211601
0.0413991510868
0.0517400316894
-0.00643628789112
0.0530471988022
0.00175851467066
-0.0723923668265
0.0276714619249
-0.0192087497562
0.012012142688
-0.0566836223006
-0.0854733586311
0.031735766679
0.0254386868328
0.0579629652202
-0.0377655960619
-0.0500307753682
-0.057176951319
-0.0173753760755
-0.0541751421988
0.0239367391914
-0.0186160299927
0.0389903225005
0.0158477481455
-0.0418821834028
-0.0440235361457
0.020621009171
-0.0192602835596
0.0700073242188
0.110499478877
0.0581623241305
-0.0115672796965
0.00653202505782
0.0740078762174
0.0452544912696
-0.0366673991084
-0.00306493113749
-0.0648205280304
-0.088815972209
0.00728974444792
-0.0282903425395
-0.0458905883133
0.0103524001315
0.0236554332078
0.0707056596875
-0.0743715986609
-0.0520552098751
-0.0701587796211
0.00260055670515
-0.0109565071762
-0.0135124884546
-0.0396595597267
0.000339787395205
-0.0359511859715
-0.0191284008324
0.00330954464152
-0.00051018409431
-0.046656537801
-0.0433961525559
-0.050020609051
0.00436517084017
0.0728986933827
-0.0585402995348
-0.0288657043129
0.046288702637
-0.0101134413853
-0.0524400360882
0.0564631074667
-0.0479609631002
-0.0317647270858
0.0260807983577
0.007937788032
0.020992744714
-0.0232062470168
-0.0192355047911
-0.019308609888
-0.0282049439847
0.0362925231457
-0.0153059707955
0.0191856529564
-0.058891646564
-0.0614374503493
-0.0823955759406
-0.0628842636943
-0.0752033516765
0.0565524175763
-0.035663779825
-0.0150318620726
0.00119956803974
0.0473346561193
-0.0286570079625
-0.0289739947766
0.038336712867
0.0263920407742
-0.0550537891686
0.0488675273955
0.00230433465913
-0.0185986813158
-0.0161683280021
0.0616738498211
0.0124858794734
0.0573478937149
-0.0367270037532
0.00911210291088
-0.0485896877944
-0.0467778742313
0.0602555014193
-0.0322271063924
-0.0461387708783
0.0145332962275
-0.00951146800071
0.0936213061213
0.0269344206899
0.0774000883102
-0.0403489731252
0.0442054085433
-0.0040765972808
0.0552613660693
-0.060041371733
-0.0153719848022
0.000577020517085
0.0467142835259
-0.0280939042568
0.0228112284094
-0.0405157841742
-0.0300327837467
-0.0494447462261
-0.0151069229469
-0.0704307407141
-0.0820104181767
0.050753839314
0.0441526547074
-0.0432191863656
-0.108410492539
-0.0711341947317
0.0946677997708
-0.0140762832016
0.0579666346312
0.0495787858963
0.014860314317
0.0633191242814
-0.00909060053527
0.0227613188326
-0.00403534946963
-0.00315548293293
-0.0842644348741
-0.0347431860864
0.060569088906
-0.0116205941886
0.0130853913724
-0.0282676406205
-0.0399921499193
0.0473136678338
-0.0272364933044
-0.0214880947024
0.0404719524086
0.035439312458
-0.0572570674121
-0.0251046977937
-0.0625414028764
-0.0102235805243
0.0264035705477
-0.0107315471396
0.0497400201857
0.0793695673347
-0.0141681488603
-0.0225023888052
0.0254664383829
0.0343639850616
-0.0136667117476
-0.00743499072269
-0.0553532429039
0.0520217306912
0.0283811017871
0.0277188327163
0.0255400948226
-0.0302863698453
-0.0371401645243
0.0376467518508
-0.00582732120529
0.0159675683826
-0.0838176459074
0.0179854873568
-0.0653629228473
-0.0467945411801
-0.0708930045366
0.0122555755079
-0.0974992439151
-0.0405692458153
-0.0200543832034
0.000862043991219
-0.036711987108
-0.0128899849951
0.0505433604121
0.0525275357068
0.0219237003475
0.0330004021525
-0.0297610256821
-0.0755221098661
-0.00477582076564
-0.0439237467945
-0.0562042742968
-0.0568368323147
-0.0625426471233
-0.0610635429621
0.0653486922383
0.0536739863455
-0.000562329543754
0.0630028620362
0.0480490587652
0.0116309709847
-0.0592692010105
-0.0159677416086
-0.0655106529593
0.0403703637421
-0.0331733524799
-0.00580850383267
0.0624582394958
-0.0481603480875
0.0035390148405
0.0523648075759
0.0524324588478
-0.0411281213164
0.0507511682808
-0.0135959796607
-0.0303098224103
0.042889829725
-0.0182811338454
-0.0117431394756
-0.014312537387
-0.0907374769449
-0.0895438119769
0.0706455782056
-0.050322137773
-0.0387233197689
-0.0607796385884
-0.0876215100288
0.0613096877933
0.042566921562
0.0126825636253
-0.0813807249069
-0.000885392830241
-0.0253369044513
0.0112981423736
0.0343811735511
-0.0361617766321
0.00309695163742
-0.0660195276141
0.0596386864781
-0.0415407009423
-0.0281348451972
0.0237179528922
-0.0940889418125
-0.0132639789954
0.0317690111697
0.0380589291453
0.101032555103
0.0090121589601
0.0122213512659
0.041775174439
-0.0163594018668
0.00338130537421
0.0940986722708
0.0658621490002
0.0495223626494
-0.0780503451824
0.0319366417825
0.0571963787079
0.0185375306755
-0.0439405292273
-0.103695310652
-0.0437078848481
0.0619210340083
-0.00858231540769
0.0414413884282
0.0387621894479
0.0348906740546
-0.0191408302635
0.0302945431322
0.028333703056
-0.041975710541
0.0224332455546
-0.0376692228019
-0.0581228882074
0.026976460591
0.0170347522944
0.00941068679094
-0.0296796970069
-0.0199850872159
0.0308077260852
0.0466221421957
-0.0224278606474
0.00608307821676
-0.0492071919143
0.00909577403218
0.0650723874569
0.0355734229088
0.0124955670908
-0.0181358903646
-0.0104045039043
-0.0221212729812
0.025472143665
0.0182983931154
0.0246052201837
-0.0473388396204
0.00442113773897
0.0532230325043
0.0598822236061
0.0253033284098
-0.035065561533
-0.052532594651
-0.0275083798915
0.0425064191222
-0.0175957120955
-0.0461125038564
-0.0682057440281
-0.0379351079464
-0.0377221778035
0.0512969866395
-0.0515672601759
-0.0521311126649
0.0358635187149
0.0206435900182
0.0397546701133
0.0306603927165
0.0610066726804
0.0238658636808
-0.0130530185997
0.00797184184194
0.049570877105
0.0289401058108
-0.0675906166434
-0.0198328010738
-0.0471133440733
-0.0516670867801
0.0436076447368
-0.0289829131216
0.0268394406885
-0.0483981594443
0.00835975911468
0.0467053726315
0.0282677449286
-0.0227818060666
0.0294277817011
-0.0233704615384
-0.0295091867447
-0.0552038550377
0.0112593127415
0.00299141416326
0.0476052612066
-0.0310206227005
0.0222429316491
-0.0596695207059
-0.0215691048652
-0.0120188333094
-0.0489872545004
-0.0497531369328
0.0228330399841
-0.0305052772164
0.0686453953385
0.0733755901456
0.0591531060636
-0.0103844869882
-0.0415203608572
-0.0329556949437
-0.00639257207513
0.0217177420855
-0.012038690038
-0.0757568031549
-0.099363937974
0.0275788810104
0.0511453486979
0.0318748727441
0.0239408928901
0.00117834191769
0.0351804122329
0.0380785912275
0.0151224862784
-0.0799687579274
-0.0631296038628
0.0215587373823
0.0396095886827
0.0118864364922
0.0253158956766
-0.0178611986339
0.0602766983211
0.00771249318495
0.0518929101527
0.0528233163059
-0.0187692511827
0.0634121969342
0.0593424886465
-0.061080917716
-0.0393968299031
-0.0467987731099
0.0712324976921
0.0400258265436
-0.00153051596135
-0.0490831620991
0.026559676975
-0.10039627552
-0.104067437351
-0.00446225143969
-0.00205018091947
-0.0334545113146
0.0266063138843
-0.0841666534543
-0.0713849142194
-0.0765660479665
0.0341543182731
0.0536530837417
-0.0619217455387
0.0436480566859
0.00798588618636
-0.0646300166845
0.0851167961955
0.0964170768857
0.00365904974751
-0.050610691309
-0.0423188954592
0.0139422230422
0.0221352297813
-0.0217210296541
0.0449353940785
0.0230290759355
0.0365769825876
0.00437361793593
0.0277687031776
-0.0151585610583
0.0231238212436
-0.0147877754644
-0.0616185702384
0.0242305565625
0.0127826556563
-0.0481819175184
0.0315488688648
-0.0162814650685
-0.0304720271379
-0.014650602825
-0.00379532086663
-0.0497023500502
-0.00169572071172
-0.066829174757
-0.0293128397316
-0.00525850290433
-0.0566911101341
0.0330739319324
-0.0712188109756
-0.00446147052571
-0.00366930267774
-0.0569956675172
-0.00893348548561
-0.0529853254557
-0.0724308639765
-0.0485167726874
0.0527634620667
0.0415141880512
0.0680527612567
-0.00915805343539
-0.0590277649462
0.0466171652079
-0.03773592785
0.0171989034861
0.0241257976741
0.0213590152562
-0.0467916056514
-0.0500637404621
-0.0158650185913
0.00740554835647
-0.0631633251905
0.00863614119589
0.0157721806318
0.0137679735199
-0.00103645364288
0.0135742854327
0.0814211517572
0.0283068940043
-0.100651346147
-0.0264910571277
0.0196659695357
0.0924784764647
0.047629211098
0.0463409796357
-0.0200714953244
-0.0314567275345
0.0313969403505
0.0952571034431
-0.00872671976686
0.0943355634809
-0.00558787444606
0.0327770076692
-0.0134588181973
0.015127456747
-0.0113207139075
-0.0121566047892
0.0560795553029
-0.0595425106585
-0.0214383229613
-0.0493975542486
-0.00331244431436
0.038846693933
0.0180328059942
-0.0182325989008
-0.0815911665559
-0.00874914601445
0.0527415312827
-0.0146956937388
-0.0439174361527
-0.0735639557242
0.0398920252919
-0.014589112252
-0.0586248375475
-0.0371263176203
-0.0835895165801
0.0207450333983
-0.0286880806088
0.0307062845677
-0.0607150383294
-0.0494132973254
0.0462821088731
-0.070036701858
0.0429404899478
0.00670604640618
0.0294251330197
0.0362781509757
-0.0189626645297
0.0157508868724
0.0151121206582
-0.0242766216397
-0.0519481413066
0.0723223388195
0.0680356994271
0.0981836020947
0.0240758918226
-0.0352810099721
0.0041395444423
0.0153619507328
0.0431008376181
0.020410027355
-0.0346016697586
0.0264553949237
-0.0641360133886
-0.0215994715691
-0.0428304858506
-0.019700454548
-0.0130737191066
-0.0838561803102
0.0117725264281
0.0132893538103
-0.052020072937
-0.00318458955735
-0.0743888691068
-0.0392450690269
0.00614997697994
-0.0310060828924
-0.0246734004468
0.057024307549
-0.0602493099868
-0.0929656252265
-0.0560812540352
0.0921217352152
0.0836353749037
-0.0124009177089
-0.000366065825801
0.0299939941615
0.0636591613293
-0.0312586277723
0.0564607493579
0.062546685338
0.0108959814534
0.00963008217514
-0.00575018301606
-0.0132036600262
-0.00477578677237
0.0178353842348
0.0220268350095
-0.0481635592878
-0.00326116732322
-0.0462116934359
-0.000923911225982
0.0426652319729
-0.0576262511313
-0.0463414862752
0.0225024111569
-0.0262639131397
0.0230373926461
0.0186704881489
-0.0417206212878
-0.046940613538
-0.0168514996767
0.0049806246534
-0.0357724949718
0.0636118203402
0.0596737675369
-0.0163988154382
0.0424594245851
-0.0211715139449
0.0323017947376
-0.0196773950011
-0.0166945885867
0.013652109541
-0.0808394104242
-0.0345579795539
-0.000896639714483
0.0707370936871
-0.0196611676365
0.0521149002016
-0.0210160836577
-0.0452449545264
-0.0179385840893
-0.00658156443387
-0.0159144382924
-0.0519555360079
0.00763761624694
-0.0871287882328
0.0417968034744
-0.0449867658317
-0.0527295470238
-0.0188359804451
-0.0205544121563
-0.0314772613347
-0.0139789329842
0.0331864804029
0.00479341903701
-0.0344276949763
-0.00485790055245
-0.0792341381311
-0.119610756636
-0.0863832458854
0.0188296288252
-0.0406316965818
-0.0447606854141
-0.0233053043485
-0.0446651391685
-0.0876214951277
0.011316661723
0.00117481744383
0.0232297834009
0.0118526406586
-0.0258840043098
-0.0563802979887
-0.0165768321604
-0.0367292650044
-0.00655792187899
0.0126292668283
0.017124902457
0.0807969719172
0.0681332275271
-0.0298976209015
0.0330779366195
-0.0115801803768
-0.08580840379
0.00174187822267
0.0224255230278
0.0174734555185
-0.0168142654002
-0.0304929632694
-0.0933646708727
-0.0953503847122
-0.0324793532491
0.041702773422
-0.0627948865294
-0.0456310547888
-0.0644437745214
-0.0683480724692
0.0168534442782
-0.0366409830749
0.02031500265
0.00147437397391
-0.0668253079057
-0.0246437080204
0.0440053381026
0.0286689382046
0.013175197877
-0.0364871025085
0.0160338189453
-0.00312860286795
-0.0191344060004
-0.0161271803081
0.016424741596
-0.014189790003
0.0498227663338
-0.0260130930692
0.0442318841815
0.0344965457916
-0.0397075489163
-0.0890149176121
-0.0416339933872
0.0399156808853
-0.0570590905845
0.00909514166415
0.0355094000697
-0.0519099757075
-0.0432544089854
0.000504826428369
-0.00855812709779
-0.0198492910713
0.0217854771763
0.0560045950115
0.0163438748568
-0.0305469036102
-0.043169349432
-0.0358447991312
0.0451618432999
0.052269231528
0.0321175083518
0.00174075027462
0.0010388266528
-0.0164199862629
-0.0481247752905
0.0342786647379
-0.0288846883923
-0.0755350887775
-0.0688968971372
-0.0744308680296
-0.0439643524587
-0.0206456780434
0.0247851386666
-0.0433294028044
-0.0257193837315
-0.0356612093747
-0.0236380845308
-0.0509985201061
0.0380626097322
0.013256967999
-0.00573532050475
0.0258660260588
0.0382741168141
-0.0264476072043
-0.000195773842279
-0.00249919597991
-0.0283183734864
-0.0192372519523
-0.00876187160611
0.0263207070529
-0.0631723701954
-0.0902336090803
-0.0460165627301
0.0521309897304
0.0210263188928
-0.03875092417
-0.00984872598201
0.0796918272972
0.0481130816042
0.016304673627
-0.0405677482486
-0.00820516981184
0.0477424226701
0.0260682851076
0.0305869393051
0.0189473126084
-0.00396003108472
-0.0684394612908
-0.0490632429719
0.0145581262186
0.0263313613832
0.116399548948
0.0514365881681
-0.0093131987378
-0.101024538279
0.0197964366525
0.0601838380098
0.103003904223
0.0205220449716
-0.0204672832042
-0.0760218948126
-0.0390026085079
-0.0697846487164
0.00164459564257
0.0632101744413
-0.0167288482189
-0.0402523092926
0.0352715738118
-0.0319479890168
-0.0221220608801
0.0202463809401
0.0272783376276
0.0713658109307
0.0729450955987
0.0226820763201
0.0277066156268
0.00873743742704
0.0490112826228
-0.0025490229018
-0.0156375616789
0.0413871631026
0.0388741008937
0.0277290251106
-0.0350164398551
0.0489740632474
-0.0631657913327
-0.0013578342041
-0.0367454513907
-0.0414098538458
-0.00314601045102
-0.0581798255444
0.0318063497543
-0.0565968044102
-0.0567710958421
0.0474367588758
-0.0426782816648
0.000272280885838
-0.0524793229997
0.0312115252018
0.0212630871683
0.0188789907843
-0.0373357087374
0.0489140674472
-0.0354194045067
-0.0266139078885
-0.0284853167832
-0.0189863163978
-0.0206505805254
0.0599444806576
-0.00494525767863
-0.0605349056423
0.0337850004435
-0.0668933838606
-0.0585742592812
-0.0453880056739
0.0776867121458
0.0338648371398
-0.0446488186717
0.0365511365235
-0.0051687983796
-0.0311087965965
0.0825798735023
0.00335697317496
-0.0295053850859
0.0122624440119
0.0670856684446
0.0583190061152
0.0848765894771
-0.0245708171278
0.00732651911676
0.0177101586014
-0.0366195142269
-0.0542870424688
0.0103772496805
0.0341491699219
-0.010605815798
-0.00305388239212
-0.0548087731004
0.00782511103898
0.0168399363756
-0.0478983297944
-0.0380985364318
-0.039090976119
0.0443599075079
0.0337271504104
-0.0478052459657
-0.0546891577542
-0.0503078475595
-0.0332713089883
0.0337872505188
-0.047898914665
0.00895949359983
-0.124034836888
-0.0523844249547
-0.00458444096148
-0.00685325590894
-0.0657514706254
-0.0948900282383
-0.0905902087688
-0.101917631924
-0.0424205139279
-0.101302534342
-0.0745499953628
-0.0270935092121
-0.0955508351326
0.0192357786
0.111799553037
0.0810712277889
-0.0129496930167
-0.0142048420385
-0.0545501448214
-0.0188922751695
0.00971063692123
-0.0721693634987
-0.0151759991422
-0.0818848460913
0.00944681745023
-0.0983018875122
-0.0137275261804
0.0160969235003
-0.0352502278984
0.0132402200252
0.0404783710837
0.0168288983405
0.0330148972571
0.0344570912421
0.0351080298424
0.0244942344725
0.0167758651078
0.0471924096346
0.0287072006613
-0.0178405717015
-0.0269156098366
-0.0157745555043
-0.0337736867368
0.00288127432577
-0.0444618724287
-0.031857483089
-0.0876386240125
0.0403027050197
0.020905168727
0.00755728548393
-0.0999094843864
