-0.340831428766
-0.0719604566693
-0.352082014084
-0.315338879824
0.0775203555822
-0.238967463374
-0.106144666672
0.110580675304
0.155145183206
-0.193089827895
0.421895444393
0.339768022299
0.218070745468
0.0725927725434
0.053115978837
0.064419195056
0.190017148852
-0.0649455487728
0.200970456004
0.245992138982
-0.113931044936
0.196208968759
-0.0999277681112
0.0187452733517
0.298744320869
-0.400014072657
-0.0578100569546
-0.133302152157
0.321504086256
0.348979651928
-0.380153805017
-0.386167109013
0.0912231653929
0.196069151163
0.440818727016
-0.288536906242
-0.187234446406
0.34534278512
0.403315663338
0.104488067329
-0.32710814476
-0.181430026889
0.414880156517
0.416175991297
0.112836204469
-0.00444914074615
0.198548436165
0.289609700441
0.235290557146
-0.21810528636
0.222453460097
0.0727143511176
-0.00597549416125
0.130041927099
-0.0713758394122
-0.0957916006446
0.245471075177
-0.0577215887606
-0.0802183076739
-0.00729044480249
0.292812943459
-0.160229280591
0.0325956381857
-0.259632229805
-0.30844771862
-0.063312150538
-0.0220091603696
-0.246524438262
0.105608902872
-0.253007113934
0.201665192842
0.268600195646
-0.0919501110911
0.276390194893
0.305679142475
-0.0412982217968
-0.181055426598
-0.31390812993
-0.276373445988
0.111248940229
-0.208002045751
0.0891488417983
-0.153381168842
-0.0449309684336
-0.197955876589
-0.111140079796
0.229152172804
0.167883619666
-0.172083392739
0.25420409441
0.0117670400068
-0.0887470021844
-0.250220268965
0.12754611671
0.179977506399
-0.104787372053
-0.0833907052875
-0.06490585953
-0.0502654649317
0.311228632927
-0.207487896085
-0.303614258766
-0.466996908188
-0.392266571522
-0.235205218196
0.200779676437
0.393092900515
0.248178496957
0.270446449518
-0.227237850428
0.242587119341
0.377053767443
0.366933643818
-0.0630489513278
0.166236966848
-0.140228286386
-0.251829832792
0.232124894857
-0.0959794074297
0.124059423804
-0.208347126842
-0.177147641778
0.122852824628
0.374110400677
0.382275551558
-0.131382703781
0.352718353271
0.214144453406
0.0376273095608
-0.0315544269979
0.177099511027
-0.253756910563
-0.188540309668
-0.377217322588
-0.147091835737
0.112685494125
0.0308228693902
-0.222947880626
0.0467479005456
-0.316548585892
-0.286879450083
-0.236483410001
-0.263124525547
-0.0361797064543
0.291757285595
-0.156511992216
-0.0251083485782
0.26267182827
0.0523652844131
0.0594425313175
-0.311670809984
-0.393584519625
-0.48358502984
-0.410013735294
-0.310858398676
-0.334913551807
-0.331688702106
-0.221426278353
-0.250837087631
0.10168479383
-0.273776352406
-0.237715139985
-0.0573815852404
0.0266706608236
-0.0897093564272
0.0298198051751
-0.0817651152611
0.230774536729
0.270262867212
0.259872555733
0.32423761487
0.521025121212
0.360477894545
0.32744589448
0.311404973269
0.209799289703
-0.0136710172519
-0.013739252463
-0.165265262127
-0.206324979663
-0.0587364807725
0.188938185573
-0.0118135297671
0.215580180287
0.116148918867
0.27182534337
-0.0756146386266
-0.335809051991
0.109820924699
0.0238552186638
0.0652161538601
-0.331216841936
0.051362786442
0.149946928024
0.141204118729
-0.292226523161
-0.0841119810939
0.356307864189
0.35580098629
-0.0250662900507
0.315109997988
0.123723506927
-0.187851563096
0.303129285574
-0.297272950411
0.173170626163
-0.0621960870922
-0.0358450673521
0.180267214775
0.0343365259469
-0.234193012118
-0.302105307579
0.213276565075
-0.0982727557421
-0.278723120689
0.0997444242239
-0.107002057135
0.0800822973251
-0.212848722935
0.0771872401237
-0.191658049822
-0.0827555581927
0.0734826400876
-0.00825998745859
0.0921949520707
0.0575067847967
0.346235334873
-0.0699768364429
-0.0344989188015
0.102258607745
0.120229229331
0.426554113626
0.267483651638
0.32649448514
-0.144089132547
-0.085898950696
0.0966367125511
0.211476534605
-0.194235950708
-0.132609188557
-0.413853496313
-0.361356407404
0.231392890215
0.0355208851397
0.0969902053475
-0.191339850426
-0.0677050277591
-0.263998419046
0.239653140306
0.193889707327
0.3374761343
0.38396140933
0.218681946397
0.355644404888
0.207303702831
0.359984904528
0.345270186663
-0.213252425194
0.00654017971829
-0.017063125968
0.161207705736
0.0232294015586
0.105621859431
0.172089353204
0.0588782578707
0.0110384719446
0.0980435609818
0.149464249611
-0.0149552440271
0.123715005815
-0.317394822836
-0.130992949009
-0.174828454852
0.183346152306
0.21445274353
0.187567725778
0.229451209307
0.349721252918
0.0523747764528
0.255260199308
0.200037449598
0.356093585491
0.0405535250902
-0.10647854954
0.105093047023
-0.124485239387
0.107582040131
0.0419312343001
-0.277648746967
-0.353601157665
0.0650814771652
-0.113365843892
-0.115620337427
-0.00673254625872
0.0883144065738
-0.212684854865
-0.327480643988
0.0569621734321
0.143453702331
-0.0857276916504
-0.162777036428
-0.0893508568406
0.118845246732
-0.255514204502
0.124284647405
-0.0918080732226
-0.26947760582
-0.378132194281
0.12771359086
-0.0295169968158
0.162069410086
-0.152211546898
-0.176323547959
-0.275982707739
-0.126086264849
-0.0484591461718
-0.163544759154
-0.192071512341
0.183399200439
-0.144047826529
0.132610052824
-0.0706324055791
-0.281107485294
0.196945741773
-0.184568300843
0.233311578631
0.122185878456
0.211392745376
0.139609605074
-0.227670714259
-0.217598870397
-0.205043703318
0.144165605307
-0.0471690930426
0.395591914654
0.00883164256811
0.100927121937
0.252328306437
0.334586828947
-0.0924644991755
0.137056931853
-0.190059348941
-0.307027429342
-0.000807188858744
0.111020475626
-0.412431299686
-0.0913372710347
-0.380433619022
-0.371846854687
-0.213275641203
-0.156997174025
0.157917901874
-0.00917329918593
0.173781424761
-0.233377367258
0.191694200039
0.319169402122
0.057459525764
-0.301897168159
-0.18342769146
0.106267936528
0.444474935532
-0.0822719633579
-0.361680150032
-0.164696872234
0.410800337791
0.316394776106
-0.137754768133
-0.298719763756
-0.187876224518
0.261260151863
0.293927878141
-0.00445172097534
-0.0865897238255
-0.241454586387
0.187564462423
0.0373584702611
-0.314758300781
-0.507570981979
-0.427328437567
0.174322649837
0.148142755032
0.2699688375
-0.126526549459
-0.00256014335901
0.37384429574
0.567165315151
0.520590782166
0.142836719751
-0.277575850487
-0.114277422428
0.086675234139
0.287038892508
0.0950719341636
0.25025498867
-0.306921750307
-0.112772814929
0.241582974792
-0.0195182077587
-0.0291085019708
-0.176582813263
-0.0879462882876
-0.0291182510555
0.0617812648416
0.209462448955
-0.00825259275734
-0.165901884437
0.114643663168
-0.119092449546
0.322920680046
-0.184347659349
0.0908167660236
-0.325188070536
-0.272399008274
-0.0824567005038
-0.0867747068405
0.12506210804
-0.14928637445
-0.280867725611
-0.24055673182
0.176101490855
-0.161684811115
0.307937473059
0.00967285223305
0.207474589348
-0.289016455412
0.167297080159
-0.379307389259
-0.179966345429
0.244283884764
0.243962407112
-0.254437953234
-0.187498316169
0.133755922318
-0.152173981071
0.187641143799
0.381999641657
0.331518560648
0.348131418228
-0.148972883821
0.0147194899619
0.289744675159
0.0718707516789
0.0474235862494
0.245678424835
-0.287990808487
0.0834862440825
-0.164455801249
-0.335361897945
-0.11736638844
-0.174641400576
0.172843158245
-0.100048467517
0.272594720125
0.201483562589
-0.0432905107737
0.194769233465
-0.128256648779
-0.143631905317
-0.175380989909
-0.218465179205
0.00961600709707
-0.137680098414
-0.332712292671
-0.0103597929701
-0.071720905602
0.244842678308
0.267257481813
-0.00664120493457
-0.296619176865
0.220094248652
0.0992264822125
-0.22627940774
0.0157968774438
0.202810138464
-0.227653741837
0.263344556093
-0.0729356557131
0.16869930923
0.27645856142
0.38307800889
0.438955128193
0.250300824642
0.439547628164
0.0613727942109
0.391448169947
0.209538966417
0.140300184488
0.176724985242
-0.0768393874168
-0.420590609312
-0.248884066939
-0.0479568615556
-0.493570894003
-0.406263887882
-0.365322589874
-0.355035096407
-0.515629410744
-0.201067224145
0.173882305622
